  2459718.9384700       0.999062       0.004931 0 -1 -1 
  2459718.9398590       0.994965       0.004917 0 -1 -1 
  2459718.9412480       0.999516       0.004925 0 -1 -1 
  2459718.9426370       0.996224       0.004934 0 -1 -1 
  2459718.9440260       1.001951       0.004938 0 -1 -1 
  2459718.9454150       1.000477       0.004947 0 -1 -1 
  2459718.9468040       0.995229       0.004946 0 -1 -1 
  2459718.9481930       0.992254       0.004944 0 -1 -1 
  2459718.9495820       1.000747       0.004953 0 -1 -1 
  2459718.9509710       0.997734       0.004962 0 -1 -1 
  2459718.9523600       0.999266       0.004966 0 -1 -1 
  2459718.9537480       1.009202       0.004979 0 -1 -1 
  2459718.9551370       1.001246       0.004981 0 -1 -1 
  2459718.9565260       1.004820       0.004988 0 -1 -1 
  2459718.9579150       0.986979       0.004982 0 -1 -1 
  2459718.9593040       0.998127       0.004986 0 -1 -1 
  2459718.9606930       0.996584       0.004991 0 -1 -1 
  2459718.9620820       0.991116       0.004997 0 -1 -1 
  2459718.9634710       1.003120       0.005009 0 -1 -1 
  2459718.9648600       1.004487       0.005015 0 -1 -1 
  2459718.9662490       0.999280       0.005016 0 -1 -1 
  2459718.9676380       0.986225       0.005011 0 -1 -1 
  2459718.9690270       1.007671       0.005022 0 -1 -1 
  2459718.9704150       1.005380       0.005032 0 -1 -1 
  2459718.9718040       0.992078       0.005022 0 -1 -1 
  2459718.9731930       1.004212       0.005043 0 -1 -1 
  2459718.9745820       1.006387       0.005047 0 -1 -1 
  2459718.9759710       0.996522       0.005041 0 -1 -1 
  2459718.9773600       0.991614       0.005044 0 -1 -1 
  2459718.9787490       0.994532       0.005050 0 -1 -1 
  2459718.9801380       0.991395       0.005055 0 -1 -1 
  2459718.9815270       0.992696       0.005062 0 -1 -1 
  2459718.9829160       0.998775       0.005064 0 -1 -1 
  2459718.9843050       1.007644       0.005078 0 -1 -1 
  2459718.9856940       0.995838       0.005076 0 -1 -1 
  2459718.9870830       1.003809       0.005087 0 -1 -1 
  2459718.9884710       0.996479       0.005084 0 -1 -1 
  2459718.9898600       0.997328       0.005093 0 -1 -1 
  2459718.9912490       0.991658       0.005089 0 -1 -1 
  2459718.9926380       0.987154       0.005093 0 -1 -1 
  2459718.9940270       0.996600       0.005107 0 -1 -1 
  2459718.9954160       0.998623       0.005113 0 -1 -1 
  2459718.9968050       0.996103       0.005111 0 -1 -1 
  2459718.9981940       0.997855       0.005132 0 -1 -1 
  2459718.9995830       1.001017       0.005126 0 -1 -1 
  2459719.0009720       0.996447       0.005132 0 -1 -1 
  2459719.0023610       0.999207       0.005134 0 -1 -1 
  2459719.0037500       1.009660       0.005150 0 -1 -1 
  2459719.0051380       0.991829       0.005147 0 -1 -1 
  2459719.0065270       0.992144       0.005150 0 -1 -1 
  2459719.0079160       1.000673       0.005154 0 -1 -1 
  2459719.0093050       1.000518       0.005162 0 -1 -1 
  2459719.0106940       1.013133       0.005176 0 -1 -1 
  2459719.0120830       1.000038       0.005173 0 -1 -1 
  2459719.0134720       0.995865       0.005176 0 -1 -1 
  2459719.0148610       1.003028       0.005186 0 -1 -1 
  2459719.0162500       0.994027       0.005184 0 -1 -1 
  2459719.0176390       0.997881       0.005192 0 -1 -1 
  2459719.0190280       1.003855       0.005195 0 -1 -1 
  2459719.0204170       1.016595       0.005213 0 -1 -1 
  2459719.0218060       1.005870       0.005210 0 -1 -1 
  2459719.0231940       1.010285       0.005221 0 -1 -1 
  2459719.0245830       1.000642       0.005216 0 -1 -1 
  2459719.0259720       0.995255       0.005216 0 -1 -1 
  2459719.0273610       0.992129       0.005217 0 -1 -1 
  2459719.0287500       1.002206       0.005230 0 -1 -1 
  2459719.0301390       1.005212       0.005240 0 -1 -1 
  2459719.0315280       1.010147       0.005245 0 -1 -1 
  2459719.0329170       1.001656       0.005248 0 -1 -1 
  2459719.0343060       1.008496       0.005261 0 -1 -1 
  2459719.0356950       1.003609       0.005262 0 -1 -1 
  2459719.0370840       1.005697       0.005271 0 -1 -1 
  2459719.0384730       1.005078       0.005270 0 -1 -1 
  2459719.0398610       1.006826       0.005278 0 -1 -1 
  2459719.0412500       0.988558       0.005267 0 -1 -1 
  2459719.0426390       0.999098       0.005285 0 -1 -1 
  2459719.0440280       1.000722       0.005285 0 -1 -1 
  2459719.0454170       1.004456       0.005291 0 -1 -1 
  2459719.0468060       1.002241       0.005301 0 -1 -1 
  2459719.0481950       0.994569       0.005296 0 -1 -1 
  2459719.0495840       1.005247       0.005310 0 -1 -1 
  2459719.0509730       0.998925       0.005312 0 -1 -1 
  2459719.0523620       0.995050       0.005311 0 -1 -1 
  2459719.0537510       1.006026       0.005324 0 -1 -1 
  2459719.0551400       0.997801       0.005327 0 -1 -1 
  2459719.0565290       1.005246       0.005330 0 -1 -1 
  2459719.0579170       1.004670       0.005329 0 -1 -1 
  2459719.0593060       1.001298       0.005336 0 -1 -1 
  2459719.0606950       1.005901       0.005345 0 -1 -1 
  2459719.0620840       1.005429       0.005355 0 -1 -1 
  2459719.0634730       0.999778       0.005353 0 -1 -1 
  2459719.0648620       1.007266       0.005358 0 -1 -1 
  2459719.0662510       1.004955       0.005363 0 -1 -1 
  2459719.0676400       1.004219       0.005360 0 -1 -1 
  2459719.0690290       0.995106       0.005360 0 -1 -1 
  2459719.0704180       1.005811       0.005373 0 -1 -1 
  2459719.0718070       0.996327       0.005371 0 -1 -1 
  2459719.0731960       1.000664       0.005372 0 -1 -1 
  2459719.0745840       1.006090       0.005385 0 -1 -1 
  2459719.0759730       1.006952       0.005385 0 -1 -1 
  2459719.0773620       1.002989       0.005387 0 -1 -1 
  2459719.0787510       1.006443       0.005387 0 -1 -1 
  2459725.2427810       0.995051       0.005295 0 -1 -1 
  2459725.2441700       1.000665       0.005297 0 -1 -1 
  2459725.2455590       1.003243       0.005297 0 -1 -1 
  2459725.2469480       1.004719       0.005301 0 -1 -1 
  2459725.2483370       0.996646       0.005293 0 -1 -1 
  2459725.2497260       1.005571       0.005298 0 -1 -1 
  2459725.2511140       1.000385       0.005295 0 -1 -1 
  2459725.2525030       0.997267       0.005293 0 -1 -1 
  2459725.2538920       0.997095       0.005291 0 -1 -1 
  2459725.2552810       1.005965       0.005295 0 -1 -1 
  2459725.2566700       1.004244       0.005297 0 -1 -1 
  2459725.2580590       0.998327       0.005290 0 -1 -1 
  2459725.2594480       1.012712       0.005296 0 -1 -1 
  2459725.2608370       0.988417       0.005281 0 -1 -1 
  2459725.2622260       1.007058       0.005292 0 -1 -1 
  2459725.2636150       1.001348       0.005289 0 -1 -1 
  2459725.2650040       1.009213       0.005290 0 -1 -1 
  2459725.2663930       1.007259       0.005289 0 -1 -1 
  2459725.2677810       1.008362       0.005286 0 -1 -1 
  2459725.2691700       1.000247       0.005279 0 -1 -1 
  2459725.2705590       1.002540       0.005284 0 -1 -1 
  2459725.2719480       0.992981       0.005270 0 -1 -1 
  2459725.2733370       1.015756       0.005291 0 -1 -1 
  2459725.2747260       1.003039       0.005275 0 -1 -1 
  2459725.2761150       0.993290       0.005268 0 -1 -1 
  2459725.2775040       1.002779       0.005273 0 -1 -1 
  2459725.2788930       0.999203       0.005271 0 -1 -1 
  2459725.2802820       1.001869       0.005272 0 -1 -1 
  2459725.2816710       1.007681       0.005279 0 -1 -1 
  2459725.2830600       0.996408       0.005264 0 -1 -1 
  2459725.2844490       0.999119       0.005271 0 -1 -1 
  2459725.2858370       1.001579       0.005269 0 -1 -1 
  2459725.2872260       1.007947       0.005273 0 -1 -1 
  2459725.2886150       1.004264       0.005266 0 -1 -1 
  2459725.2900040       1.004617       0.005267 0 -1 -1 
  2459725.2913930       0.998918       0.005259 0 -1 -1 
  2459725.2927820       0.999948       0.005256 0 -1 -1 
  2459725.2941710       0.999861       0.005257 0 -1 -1 
  2459725.2955600       1.000866       0.005255 0 -1 -1 
  2459725.2969490       0.993524       0.005250 0 -1 -1 
  2459725.2983380       1.002026       0.005254 0 -1 -1 
  2459725.2997270       0.995825       0.005250 0 -1 -1 
  2459725.3011160       1.004047       0.005249 0 -1 -1 
  2459725.3025050       1.005187       0.005248 0 -1 -1 
  2459725.3038930       0.993207       0.005238 0 -1 -1 
  2459725.3052820       1.006618       0.005246 0 -1 -1 
  2459725.3066710       1.002019       0.005244 0 -1 -1 
  2459725.3080600       0.998345       0.005239 0 -1 -1 
  2459725.3094490       1.002952       0.005239 0 -1 -1 
  2459725.3108380       1.004575       0.005235 0 -1 -1 
  2459725.3122270       1.004472       0.005241 0 -1 -1 
  2459725.3136160       0.988387       0.005224 0 -1 -1 
  2459725.3150050       0.986603       0.005221 0 -1 -1 
  2459725.3163940       1.004663       0.005234 0 -1 -1 
  2459725.3177830       1.005476       0.005232 0 -1 -1 
  2459725.3191720       1.001581       0.005228 0 -1 -1 
  2459725.3205600       0.994672       0.005215 0 -1 -1 
  2459725.3219490       0.998588       0.005220 0 -1 -1 
  2459725.3233380       1.004280       0.005221 0 -1 -1 
  2459725.3247270       0.999875       0.005217 0 -1 -1 
  2459725.3261160       1.003999       0.005219 0 -1 -1 
  2459725.3275050       0.991037       0.005204 0 -1 -1 
  2459725.3288940       1.001579       0.005212 0 -1 -1 
  2459725.3302830       0.998952       0.005208 0 -1 -1 
  2459725.3316720       0.999603       0.005202 0 -1 -1 
  2459725.3330610       0.998851       0.005199 0 -1 -1 
  2459725.3344500       0.996161       0.005200 0 -1 -1 
  2459725.3358390       0.994196       0.005194 0 -1 -1 
  2459725.3372280       1.005728       0.005203 0 -1 -1 
  2459725.3386160       1.005903       0.005203 0 -1 -1 
  2459725.3400050       1.000042       0.005195 0 -1 -1 
  2459725.3413940       0.991302       0.005181 0 -1 -1 
  2459725.3427830       0.990377       0.005185 0 -1 -1 
  2459725.3441720       0.995636       0.005191 0 -1 -1 
  2459725.3455610       1.002059       0.005185 0 -1 -1 
  2459725.3469500       1.001119       0.005184 0 -1 -1 
  2459725.3483390       1.003360       0.005182 0 -1 -1 
  2459725.3497280       0.994189       0.005176 0 -1 -1 
  2459725.3511170       1.004660       0.005180 0 -1 -1 
  2459725.3525060       1.000572       0.005176 0 -1 -1 
  2459725.3538950       0.998897       0.005169 0 -1 -1 
  2459725.3552830       1.006517       0.005171 0 -1 -1 
  2459725.3566720       0.995281       0.005160 0 -1 -1 
  2459725.3580610       1.003241       0.005170 0 -1 -1 
  2459725.3594500       1.004624       0.005169 0 -1 -1 
  2459725.3608390       1.005512       0.005169 0 -1 -1 
  2459725.3622280       0.994419       0.005154 0 -1 -1 
  2459725.3636170       0.993113       0.005156 0 -1 -1 
  2459725.3650060       0.998894       0.005157 0 -1 -1 
  2459725.3663950       0.996606       0.005150 0 -1 -1 
  2459725.3677840       0.998222       0.005151 0 -1 -1 
  2459725.3691730       0.997150       0.005149 0 -1 -1 
  2459725.3705620       1.002427       0.005152 0 -1 -1 
  2459725.3719510       1.000617       0.005150 0 -1 -1 
  2459725.3733390       1.008451       0.005160 0 -1 -1 
  2459725.3747280       1.008983       0.005152 0 -1 -1 
  2459725.3761170       0.997635       0.005144 0 -1 -1 
  2459725.3775060       1.000338       0.005144 0 -1 -1 
  2459725.3788950       1.005152       0.005143 0 -1 -1 
  2459725.3802840       1.000792       0.005135 0 -1 -1 
  2459725.3816730       0.984863       0.005124 0 -1 -1 
  2459725.3830620       1.000688       0.005134 0 -1 -1 
  2459725.3844510       0.999778       0.005129 0 -1 -1 
  2459725.3858400       0.995351       0.005123 0 -1 -1 
  2459725.3872290       0.990873       0.005118 0 -1 -1 
  2459725.3886180       1.002848       0.005125 0 -1 -1 
  2459725.3900060       0.996608       0.005117 0 -1 -1 
  2459725.3913950       0.996037       0.005115 0 -1 -1 
  2459725.3927840       1.005669       0.005118 0 -1 -1 
  2459725.3941730       0.996678       0.005112 0 -1 -1 
  2459725.3955620       1.006430       0.005115 0 -1 -1 
  2459725.3969510       1.002074       0.005110 0 -1 -1 
  2459725.3983400       1.006096       0.005109 0 -1 -1 
  2459725.3997290       0.998147       0.005107 0 -1 -1 
  2459725.4011180       1.001784       0.005107 0 -1 -1 
  2459725.4025070       1.001578       0.005106 0 -1 -1 
  2459725.4038960       0.999167       0.005105 0 -1 -1 
  2459725.4052850       1.000674       0.005099 0 -1 -1 
  2459725.4066740       1.003227       0.005103 0 -1 -1 
  2459725.4080620       1.003241       0.005097 0 -1 -1 
  2459725.4094510       1.005688       0.005101 0 -1 -1 
  2459725.4108400       1.005557       0.005096 0 -1 -1 
  2459725.4122290       1.001190       0.005095 0 -1 -1 
  2459725.4136180       0.999797       0.005090 0 -1 -1 
  2459725.4150070       1.003160       0.005089 0 -1 -1 
  2459725.4163960       1.006170       0.005095 0 -1 -1 
  2459725.4177850       1.002795       0.005091 0 -1 -1 
  2459725.4191740       0.998884       0.005085 0 -1 -1 
  2459725.4205630       1.006010       0.005086 0 -1 -1 
  2459725.4219520       0.986748       0.005072 0 -1 -1 
  2459725.4233410       1.007312       0.005088 0 -1 -1 
  2459725.4247300       0.995845       0.005082 0 -1 -1 
  2459725.4261180       0.999347       0.005084 0 -1 -1 
  2459725.4275070       1.001074       0.005077 0 -1 -1 
  2459725.4288960       1.002815       0.005080 0 -1 -1 
  2459725.4302850       1.002408       0.005077 0 -1 -1 
  2459725.4316740       0.997724       0.005074 0 -1 -1 
  2459725.4330630       1.003505       0.005076 0 -1 -1 
  2459725.4344520       1.004965       0.005075 0 -1 -1 
  2459725.4358410       1.000525       0.005070 0 -1 -1 
  2459725.4372300       0.996982       0.005070 0 -1 -1 
  2459725.4386190       1.011572       0.005078 0 -1 -1 
  2459725.4400080       0.995553       0.005067 0 -1 -1 
  2459725.4413970       1.002669       0.005070 0 -1 -1 
  2459725.4427850       1.005461       0.005071 0 -1 -1 
  2459725.4441740       0.995231       0.005061 0 -1 -1 
  2459725.4455630       0.995612       0.005060 0 -1 -1 
  2459725.4469520       0.996989       0.005062 0 -1 -1 
  2459725.4483410       1.006345       0.005069 0 -1 -1 
  2459725.4497300       1.004612       0.005069 0 -1 -1 
  2459725.4511190       1.006344       0.005064 0 -1 -1 
  2459725.4525080       0.997500       0.005060 0 -1 -1 
  2459725.4538970       0.999858       0.005060 0 -1 -1 
  2459725.4552860       0.991803       0.005053 0 -1 -1 
  2459725.4566750       1.005488       0.005060 0 -1 -1 
  2459725.4580640       1.002860       0.005064 0 -1 -1 
  2459725.4594530       0.997498       0.005056 0 -1 -1 
  2459725.4608410       1.002207       0.005058 0 -1 -1 
  2459725.4622300       0.996855       0.005060 0 -1 -1 
  2459725.4636190       1.005634       0.005062 0 -1 -1 
  2459725.4650080       0.998817       0.005059 0 -1 -1 
  2459725.4663970       1.012338       0.005065 0 -1 -1 
  2459725.4677860       0.998430       0.005057 0 -1 -1 
  2459725.4691750       1.001263       0.005053 0 -1 -1 
  2459725.4705640       1.011643       0.005064 0 -1 -1 
  2459725.4719530       0.991128       0.005049 0 -1 -1 
  2459725.4733420       0.998716       0.005049 0 -1 -1 
  2459725.4747310       1.004114       0.005057 0 -1 -1 
  2459725.4761200       1.001803       0.005065 0 -1 -1 
  2459725.4775080       1.003759       0.005056 0 -1 -1 
  2459725.4788970       0.999270       0.005055 0 -1 -1 
  2459725.4802860       0.998211       0.005052 0 -1 -1 
  2459725.4816750       1.008858       0.005056 0 -1 -1 
  2459725.4830640       1.002360       0.005053 0 -1 -1 
  2459725.4844530       0.999325       0.005049 0 -1 -1 
  2459725.4858420       1.001848       0.005052 0 -1 -1 
  2459725.4872310       0.997965       0.005049 0 -1 -1 
  2459725.4886200       1.001572       0.005052 0 -1 -1 
  2459725.4900090       1.000678       0.005050 0 -1 -1 
  2459725.4913980       0.991201       0.005054 0 -1 -1 
  2459725.4927870       0.999138       0.005051 0 -1 -1 
  2459725.4941760       1.005720       0.005060 0 -1 -1 
  2459725.4955640       1.003949       0.005050 0 -1 -1 
  2459725.4969530       1.002296       0.005050 0 -1 -1 
  2459725.4983420       0.995188       0.005050 0 -1 -1 
  2459725.4997310       1.004287       0.005060 0 -1 -1 
  2459725.5011200       1.010269       0.005057 0 -1 -1 
  2459725.5025090       1.005239       0.005051 0 -1 -1 
  2459725.5038980       0.999451       0.005050 0 -1 -1 
  2459725.5052870       1.008448       0.005058 0 -1 -1 
  2459725.5066760       1.003617       0.005060 0 -1 -1 
  2459725.5080650       1.008864       0.005054 0 -1 -1 
  2459725.5094540       1.006441       0.005060 0 -1 -1 
  2459725.5108430       1.003107       0.005057 0 -1 -1 
  2459725.5122310       0.997723       0.005052 0 -1 -1 
  2459725.5136200       0.998963       0.005052 0 -1 -1 
  2459725.5150090       1.003454       0.005055 0 -1 -1 
  2459725.5163980       0.998861       0.005048 0 -1 -1 
  2459725.5177870       1.006022       0.005057 0 -1 -1 
  2459725.5191760       0.992443       0.005049 0 -1 -1 
  2459725.5205650       1.006898       0.005059 0 -1 -1 
  2459725.5219540       0.996873       0.005053 0 -1 -1 
  2459725.5233430       0.999434       0.005053 0 -1 -1 
  2459725.5247320       1.000011       0.005052 0 -1 -1 
  2459725.5261210       1.005945       0.005062 0 -1 -1 
  2459725.5275100       1.005964       0.005061 0 -1 -1 
  2459725.5288990       1.001135       0.005057 0 -1 -1 
  2459725.5302870       0.998982       0.005048 0 -1 -1 
  2459725.5316760       1.003199       0.005055 0 -1 -1 
  2459725.5330650       1.009106       0.005062 0 -1 -1 
  2459725.5344540       1.001033       0.005060 0 -1 -1 
  2459725.5358430       0.992944       0.005048 0 -1 -1 
  2459725.5372320       1.001477       0.005057 0 -1 -1 
  2459725.5386210       1.004791       0.005062 0 -1 -1 
  2459725.5400100       1.001765       0.005060 0 -1 -1 
  2459725.5413990       1.008395       0.005059 0 -1 -1 
  2459725.5427880       1.000879       0.005058 0 -1 -1 
  2459725.5441770       0.999196       0.005054 0 -1 -1 
  2459725.5455660       1.002097       0.005063 0 -1 -1 
  2459725.5469550       0.997278       0.005058 0 -1 -1 
  2459725.5483430       1.003490       0.005056 0 -1 -1 
  2459725.5497320       0.999437       0.005061 0 -1 -1 
  2459725.5511210       1.000085       0.005069 0 -1 -1 
  2459725.5525100       0.999647       0.005060 0 -1 -1 
  2459725.5538990       1.004087       0.005064 0 -1 -1 
  2459725.5552880       0.999220       0.005061 0 -1 -1 
  2459725.5566770       0.997225       0.005056 0 -1 -1 
  2459725.5580660       1.009697       0.005071 0 -1 -1 
  2459725.5594550       1.005077       0.005070 0 -1 -1 
  2459725.5608440       0.998371       0.005058 0 -1 -1 
  2459725.5622330       1.002785       0.005061 0 -1 -1 
  2459725.5636220       0.999391       0.005062 0 -1 -1 
  2459725.5650100       0.987745       0.005057 0 -1 -1 
  2459725.5663990       1.001002       0.005065 0 -1 -1 
  2459725.5677880       1.005135       0.005071 0 -1 -1 
  2459725.5691770       1.003615       0.005070 0 -1 -1 
  2459725.5705660       0.987961       0.005056 0 -1 -1 
  2459725.5719550       1.001475       0.005072 0 -1 -1 
  2459725.5733440       0.996364       0.005061 0 -1 -1 
  2459725.5747330       0.997265       0.005063 0 -1 -1 
  2459725.5761220       1.011594       0.005078 0 -1 -1 
  2459725.5775110       1.001299       0.005065 0 -1 -1 
  2459725.5789000       1.010330       0.005076 0 -1 -1 
  2459725.5802890       0.996438       0.005078 0 -1 -1 
  2459725.5816780       0.997230       0.005069 0 -1 -1 
  2459725.5830660       0.997311       0.005069 0 -1 -1 
  2459725.5844550       0.996971       0.005076 0 -1 -1 
  2459725.5858440       1.000325       0.005076 0 -1 -1 
  2459725.5872330       1.007607       0.005075 0 -1 -1 
  2459725.5886220       0.998021       0.005070 0 -1 -1 
  2459725.5900110       1.004720       0.005079 0 -1 -1 
  2459725.5914000       1.007073       0.005076 0 -1 -1 
  2459725.5927890       1.000598       0.005076 0 -1 -1 
  2459725.5941780       0.999610       0.005072 0 -1 -1 
  2459725.5955670       0.998773       0.005076 0 -1 -1 
  2459725.5969560       0.994623       0.005083 0 -1 -1 
  2459725.5983450       1.002735       0.005078 0 -1 -1 
  2459725.5997330       0.999724       0.005073 0 -1 -1 
  2459725.6011220       0.996414       0.005076 0 -1 -1 
  2459725.6025110       0.997872       0.005082 0 -1 -1 
  2459725.6039000       0.997438       0.005076 0 -1 -1 
  2459725.6052890       0.998796       0.005085 0 -1 -1 
  2459725.6066780       0.998100       0.005079 0 -1 -1 
  2459725.6080670       1.002040       0.005084 0 -1 -1 
  2459725.6094560       1.006961       0.005088 0 -1 -1 
  2459725.6108450       0.997319       0.005080 0 -1 -1 
  2459725.6122340       1.009270       0.005088 0 -1 -1 
  2459725.6136230       0.992119       0.005082 0 -1 -1 
  2459725.6150120       0.992958       0.005078 0 -1 -1 
  2459725.6164010       0.994901       0.005085 0 -1 -1 
  2459725.6177890       1.000189       0.005088 0 -1 -1 
  2459725.6191780       0.999737       0.005084 0 -1 -1 
  2459725.6205670       0.995990       0.005080 0 -1 -1 
  2459725.6219560       0.998876       0.005092 0 -1 -1 
  2459725.6233450       0.992670       0.005083 0 -1 -1 
  2459725.6247340       1.001415       0.005092 0 -1 -1 
  2459725.6261230       1.018741       0.005110 0 -1 -1 
  2459725.6275120       0.997301       0.005090 0 -1 -1 
  2459725.6289010       1.000484       0.005088 0 -1 -1 
  2459725.6302900       0.994832       0.005087 0 -1 -1 
  2459725.6316790       1.004207       0.005094 0 -1 -1 
  2459725.6330680       0.999214       0.005094 0 -1 -1 
  2459725.6344560       1.000428       0.005090 0 -1 -1 
  2459725.6358450       1.001111       0.005094 0 -1 -1 
  2459725.6372340       1.009077       0.005098 0 -1 -1 
  2459725.6386230       0.997238       0.005092 0 -1 -1 
  2459725.6400120       1.001913       0.005098 0 -1 -1 
  2459725.6414010       1.001757       0.005098 0 -1 -1 
  2459725.6427900       1.002561       0.005101 0 -1 -1 
  2459725.6441790       1.002160       0.005099 0 -1 -1 
  2459725.6455680       0.993361       0.005094 0 -1 -1 
  2459725.6469570       0.994467       0.005099 0 -1 -1 
  2459725.6483460       0.995159       0.005089 0 -1 -1 
  2459725.6497350       1.007830       0.005108 0 -1 -1 
  2459725.6511240       1.002034       0.005100 0 -1 -1 
  2459725.6525120       0.999411       0.005094 0 -1 -1 
  2459725.6539010       1.000892       0.005099 0 -1 -1 
  2459725.6552900       1.001805       0.005099 0 -1 -1 
  2459725.6566790       0.998145       0.005100 0 -1 -1 
  2459725.6580680       1.006998       0.005103 0 -1 -1 
  2459725.6594570       0.995340       0.005098 0 -1 -1 
  2459725.6608460       1.002606       0.005104 0 -1 -1 
  2459725.6622350       0.994451       0.005097 0 -1 -1 
  2459725.6636240       1.000948       0.005103 0 -1 -1 
  2459725.6650130       0.996388       0.005098 0 -1 -1 
  2459725.6664020       1.000311       0.005101 0 -1 -1 
  2459725.6677910       0.998885       0.005102 0 -1 -1 
  2459725.6691790       1.001255       0.005102 0 -1 -1 
  2459725.6705680       0.993051       0.005097 0 -1 -1 
  2459725.6719570       1.002954       0.005108 0 -1 -1 
  2459725.6733460       1.001915       0.005102 0 -1 -1 
  2459725.6747350       1.002440       0.005099 0 -1 -1 
  2459725.6761240       0.999528       0.005105 0 -1 -1 
  2459725.6775130       1.006032       0.005103 0 -1 -1 
  2459725.6789020       0.993788       0.005096 0 -1 -1 
  2459725.6802910       0.996604       0.005095 0 -1 -1 
  2459725.6816800       0.992437       0.005097 0 -1 -1 
  2459725.6830690       0.998095       0.005097 0 -1 -1 
  2459725.6844580       1.005168       0.005101 0 -1 -1 
  2459725.6858470       1.009167       0.005106 0 -1 -1 
  2459725.6872350       1.000876       0.005101 0 -1 -1 
  2459725.6886240       0.997311       0.005100 0 -1 -1 
  2459725.6900130       0.992645       0.005097 0 -1 -1 
  2459725.6914020       1.005408       0.005105 0 -1 -1 
  2459725.6927910       0.995142       0.005101 0 -1 -1 
  2459725.6941800       1.009174       0.005109 0 -1 -1 
  2459725.6955690       1.002965       0.005100 0 -1 -1 
  2459725.6969580       0.994904       0.005096 0 -1 -1 
  2459725.6983470       0.998378       0.005097 0 -1 -1 
  2459725.6997360       1.017357       0.005111 0 -1 -1 
  2459725.7011250       1.008654       0.005108 0 -1 -1 
  2459725.7025140       1.015580       0.005105 0 -1 -1 
  2459725.7039030       0.995946       0.005099 0 -1 -1 
  2459725.7052910       1.000683       0.005105 0 -1 -1 
  2459725.7066800       0.991997       0.005093 0 -1 -1 
  2459725.7080690       1.004077       0.005102 0 -1 -1 
  2459725.7094580       1.003458       0.005092 0 -1 -1 
  2459725.7108470       1.006958       0.005097 0 -1 -1 
  2459725.7122360       0.994186       0.005101 0 -1 -1 
  2459725.7136250       0.996734       0.005092 0 -1 -1 
  2459725.7150140       0.999583       0.005096 0 -1 -1 
  2459725.7164030       1.001945       0.005091 0 -1 -1 
  2459725.7177920       1.005867       0.005095 0 -1 -1 
  2459725.7191810       0.997910       0.005087 0 -1 -1 
  2459725.7205700       0.992287       0.005081 0 -1 -1 
  2459725.7219580       1.006194       0.005092 0 -1 -1 
  2459725.7233470       0.996484       0.005087 0 -1 -1 
  2459725.7247360       1.000219       0.005085 0 -1 -1 
  2459725.7261250       1.006206       0.005091 0 -1 -1 
  2459725.7275140       0.996660       0.005083 0 -1 -1 
  2459725.7289030       0.993357       0.005082 0 -1 -1 
  2459725.7302920       0.998598       0.005087 0 -1 -1 
  2459725.7316810       1.006880       0.005086 0 -1 -1 
  2459725.7330700       1.006445       0.005087 0 -1 -1 
  2459725.7344590       0.994355       0.005078 0 -1 -1 
  2459725.7358480       0.992930       0.005082 0 -1 -1 
  2459725.7372370       0.996092       0.005083 0 -1 -1 
  2459725.7386260       0.997889       0.005079 0 -1 -1 
  2459725.7400140       1.006377       0.005087 0 -1 -1 
  2459725.7414030       1.003236       0.005079 0 -1 -1 
  2459725.7427920       0.991043       0.005075 0 -1 -1 
  2459725.7441810       1.002554       0.005079 0 -1 -1 
  2459725.7455700       0.998095       0.005077 0 -1 -1 
  2459725.7469590       0.987242       0.005066 0 -1 -1 
  2459725.7483480       0.997239       0.005072 0 -1 -1 
  2459725.7497370       1.005771       0.005082 0 -1 -1 
  2459725.7511260       0.996044       0.005071 0 -1 -1 
  2459725.7525150       1.004316       0.005080 0 -1 -1 
  2459725.7539040       0.998435       0.005078 0 -1 -1 
  2459725.7552930       0.999750       0.005066 0 -1 -1 
  2459725.7566810       0.999748       0.005069 0 -1 -1 
  2459725.7580700       0.997053       0.005068 0 -1 -1 
  2459725.7594590       1.002660       0.005072 0 -1 -1 
  2459725.7608480       1.001867       0.005067 0 -1 -1 
  2459725.7622370       0.996331       0.005059 0 -1 -1 
  2459725.7636260       0.992475       0.005057 0 -1 -1 
  2459725.7650150       0.987950       0.005057 0 -1 -1 
  2459725.7664040       0.999958       0.005067 0 -1 -1 
  2459725.7677930       0.995890       0.005064 0 -1 -1 
  2459725.7691820       0.994343       0.005058 0 -1 -1 
  2459725.7705710       1.000542       0.005059 0 -1 -1 
  2459725.7719600       1.002152       0.005064 0 -1 -1 
  2459725.7733490       0.998328       0.005059 0 -1 -1 
  2459725.7747370       1.002130       0.005062 0 -1 -1 
  2459725.7761260       1.010955       0.005067 0 -1 -1 
  2459725.7775150       1.006024       0.005061 0 -1 -1 
  2459725.7789040       0.997993       0.005050 0 -1 -1 
  2459725.7802930       0.995942       0.005050 0 -1 -1 
  2459725.7816820       0.997912       0.005050 0 -1 -1 
  2459725.7830710       0.994268       0.005048 0 -1 -1 
  2459725.7844600       1.000098       0.005047 0 -1 -1 
  2459725.7858490       0.998517       0.005050 0 -1 -1 
  2459725.7872380       0.999128       0.005051 0 -1 -1 
  2459725.7886270       1.002192       0.005050 0 -1 -1 
  2459725.7900160       1.000965       0.005049 0 -1 -1 
  2459725.7914040       0.999833       0.005044 0 -1 -1 
  2459725.7927930       1.002809       0.005045 0 -1 -1 
  2459725.7941820       0.999236       0.005044 0 -1 -1 
  2459725.7955710       0.997787       0.005039 0 -1 -1 
  2459725.7969600       1.013776       0.005050 0 -1 -1 
  2459725.7983490       1.002773       0.005043 0 -1 -1 
  2459725.7997380       1.003530       0.005049 0 -1 -1 
  2459725.8011270       0.994910       0.005030 0 -1 -1 
  2459725.8025160       0.999974       0.005037 0 -1 -1 
  2459725.8039050       1.004109       0.005038 0 -1 -1 
  2459725.8052940       1.002895       0.005035 0 -1 -1 
  2459725.8066830       1.003232       0.005043 0 -1 -1 
  2459725.8080720       1.003552       0.005040 0 -1 -1 
  2459725.8094600       0.991202       0.005024 0 -1 -1 
  2459725.8108490       1.007640       0.005039 0 -1 -1 
  2459725.8122380       1.006935       0.005037 0 -1 -1 
  2459725.8136270       1.006207       0.005034 0 -1 -1 
  2459725.8150160       1.010757       0.005038 0 -1 -1 
  2459725.8164050       1.007061       0.005037 0 -1 -1 
  2459725.8177940       0.998428       0.005027 0 -1 -1 
  2459725.8191830       1.001997       0.005025 0 -1 -1 
  2459725.8205720       1.003778       0.005030 0 -1 -1 
  2459725.8219610       0.997237       0.005024 0 -1 -1 
  2459725.8233500       0.995071       0.005025 0 -1 -1 
  2459725.8247390       0.998570       0.005032 0 -1 -1 
  2459725.8261270       1.000324       0.005021 0 -1 -1 
  2459725.8275160       1.008948       0.005030 0 -1 -1 
  2459725.8289050       1.007538       0.005029 0 -1 -1 
  2459725.8302940       1.006721       0.005024 0 -1 -1 
  2459725.8316830       1.005619       0.005024 0 -1 -1 
  2459725.8330720       0.998738       0.005019 0 -1 -1 
  2459725.8344610       1.004082       0.005022 0 -1 -1 
  2459725.8358500       1.000171       0.005019 0 -1 -1 
  2459725.8372390       1.001312       0.005022 0 -1 -1 
  2459725.8386280       0.994672       0.005012 0 -1 -1 
  2459725.8400170       0.994475       0.005015 0 -1 -1 
  2459725.8414060       1.003190       0.005014 0 -1 -1 
  2459725.8427950       1.004483       0.005025 0 -1 -1 
  2459725.8441830       1.007269       0.005022 0 -1 -1 
  2459725.8455720       0.999759       0.005012 0 -1 -1 
  2459725.8469610       1.002117       0.005015 0 -1 -1 
  2459725.8483500       0.999885       0.005015 0 -1 -1 
  2459725.8497390       1.015929       0.005024 0 -1 -1 
  2459725.8511280       1.007360       0.005017 0 -1 -1 
  2459725.8525170       0.998698       0.005014 0 -1 -1 
  2459725.8539060       1.001192       0.005018 0 -1 -1 
  2459725.8552950       0.999259       0.005014 0 -1 -1 
  2459725.8566840       0.992707       0.005004 0 -1 -1 
  2459725.8580730       0.994846       0.005004 0 -1 -1 
  2459725.8594620       1.001633       0.005007 0 -1 -1 
  2459725.8608510       1.008387       0.005017 0 -1 -1 
  2459725.8622390       0.999305       0.005011 0 -1 -1 
  2459725.8636280       1.001521       0.005013 0 -1 -1 
  2459725.8650170       0.999942       0.005006 0 -1 -1 
  2459725.8664060       1.006234       0.005014 0 -1 -1 
  2459725.8677950       1.000822       0.005012 0 -1 -1 
  2459725.8691840       1.001384       0.005010 0 -1 -1 
  2459725.8705730       0.999081       0.005002 0 -1 -1 
  2459725.8719620       0.996563       0.005007 0 -1 -1 
  2459725.8733510       1.000663       0.005006 0 -1 -1 
  2459725.8747400       1.005552       0.005008 0 -1 -1 
  2459725.8761290       0.997929       0.005005 0 -1 -1 
  2459725.8775180       1.001125       0.005003 0 -1 -1 
  2459725.8789060       1.000850       0.005005 0 -1 -1 
  2459725.8802950       0.998799       0.005006 0 -1 -1 
  2459725.8816840       1.011095       0.005011 0 -1 -1 
  2459725.8830730       1.006157       0.005005 0 -1 -1 
  2459725.8844620       1.002555       0.005006 0 -1 -1 
  2459725.8858510       0.994647       0.004999 0 -1 -1 
  2459725.8872400       1.000082       0.005007 0 -1 -1 
  2459725.8886290       1.005627       0.005007 0 -1 -1 
  2459725.8900180       0.996439       0.004999 0 -1 -1 
  2459725.8914070       0.989494       0.004995 0 -1 -1 
  2459725.8927960       0.993527       0.004993 0 -1 -1 
  2459725.8941850       1.000180       0.005002 0 -1 -1 
  2459725.8955740       0.997214       0.004999 0 -1 -1 
  2459725.8969620       0.994247       0.004991 0 -1 -1 
  2459725.8983510       1.000845       0.004998 0 -1 -1 
  2459725.8997400       0.999853       0.004993 0 -1 -1 
  2459725.9011290       0.995682       0.005000 0 -1 -1 
  2459725.9025180       1.002002       0.004999 0 -1 -1 
  2459725.9039070       0.996234       0.004995 0 -1 -1 
  2459725.9052960       0.999473       0.004992 0 -1 -1 
  2459725.9066850       1.002139       0.004994 0 -1 -1 
  2459725.9080740       0.998184       0.004995 0 -1 -1 
  2459725.9094630       1.001433       0.004992 0 -1 -1 
  2459725.9108520       0.999894       0.004998 0 -1 -1 
  2459725.9122410       0.991430       0.004987 0 -1 -1 
  2459725.9136290       1.000673       0.004997 0 -1 -1 
  2459725.9150180       0.996902       0.004999 0 -1 -1 
  2459725.9164070       0.999543       0.004992 0 -1 -1 
  2459725.9177960       0.995756       0.004988 0 -1 -1 
  2459725.9191850       1.002436       0.004997 0 -1 -1 
  2459725.9205740       1.002501       0.004995 0 -1 -1 
  2459725.9219630       1.003814       0.004995 0 -1 -1 
  2459725.9233520       0.996739       0.004987 0 -1 -1 
  2459725.9247410       0.991754       0.004983 0 -1 -1 
  2459725.9261300       1.002308       0.004991 0 -1 -1 
  2459725.9275190       0.996138       0.004988 0 -1 -1 
  2459725.9289080       1.006448       0.005000 0 -1 -1 
  2459725.9302970       1.000777       0.004988 0 -1 -1 
  2459725.9316850       0.998121       0.004983 0 -1 -1 
  2459725.9330740       1.010000       0.005005 0 -1 -1 
  2459725.9344630       0.997444       0.004985 0 -1 -1 
  2459725.9358520       1.001909       0.004986 0 -1 -1 
  2459725.9372410       1.003855       0.004991 0 -1 -1 
  2459725.9386300       0.995670       0.004984 0 -1 -1 
  2459725.9400190       1.015580       0.005001 0 -1 -1 
  2459725.9414080       1.001638       0.004982 0 -1 -1 
  2459725.9427970       0.989333       0.004977 0 -1 -1 
  2459725.9441860       1.007293       0.004986 0 -1 -1 
  2459725.9455750       1.003962       0.004985 0 -1 -1 
  2459725.9469640       1.011556       0.004991 0 -1 -1 
  2459725.9483520       1.001019       0.004987 0 -1 -1 
  2459725.9497410       1.005193       0.004985 0 -1 -1 
  2459725.9511300       0.993421       0.004979 0 -1 -1 
  2459725.9525190       0.998894       0.004980 0 -1 -1 
  2459725.9539080       0.997586       0.004980 0 -1 -1 
  2459725.9552970       0.998939       0.004981 0 -1 -1 
  2459725.9566860       0.995362       0.004975 0 -1 -1 
  2459725.9580750       0.999332       0.004976 0 -1 -1 
  2459725.9594640       0.985874       0.004970 0 -1 -1 
  2459725.9608530       0.997831       0.004979 0 -1 -1 
  2459725.9622420       0.983322       0.004964 0 -1 -1 
  2459725.9636310       0.990766       0.004970 0 -1 -1 
  2459725.9650200       0.993591       0.004970 0 -1 -1 
  2459725.9664080       0.989674       0.004971 0 -1 -1 
  2459725.9677970       1.000925       0.004975 0 -1 -1 
  2459725.9691860       1.004178       0.004977 0 -1 -1 
  2459725.9705750       1.007832       0.004978 0 -1 -1 
  2459725.9719640       1.003885       0.004972 0 -1 -1 
  2459725.9733530       1.001966       0.004973 0 -1 -1 
  2459725.9747420       0.996756       0.004977 0 -1 -1 
  2459725.9761310       0.996385       0.004967 0 -1 -1 
  2459725.9775200       1.005120       0.004972 0 -1 -1 
  2459725.9789090       0.999023       0.004970 0 -1 -1 
  2459725.9802980       0.991350       0.004970 0 -1 -1 
  2459725.9816870       1.002979       0.004967 0 -1 -1 
  2459725.9830750       0.999497       0.004971 0 -1 -1 
  2459725.9844640       0.998833       0.004974 0 -1 -1 
  2459725.9858530       1.006214       0.004973 0 -1 -1 
  2459725.9872420       0.998961       0.004965 0 -1 -1 
  2459725.9886310       0.999348       0.004967 0 -1 -1 
  2459725.9900200       1.001092       0.004965 0 -1 -1 
  2459725.9914090       0.996994       0.004961 0 -1 -1 
  2459725.9927980       1.004130       0.004970 0 -1 -1 
  2459725.9941870       1.005718       0.004969 0 -1 -1 
  2459725.9955760       0.995843       0.004956 0 -1 -1 
  2459725.9969650       0.996515       0.004956 0 -1 -1 
  2459725.9983540       0.999288       0.004962 0 -1 -1 
  2459725.9997430       1.008939       0.004967 0 -1 -1 
  2459726.0011310       0.999140       0.004964 0 -1 -1 
  2459726.0025200       0.995637       0.004956 0 -1 -1 
  2459726.0039090       1.002246       0.004966 0 -1 -1 
  2459726.0052980       0.996479       0.004953 0 -1 -1 
  2459726.0066870       0.998760       0.004959 0 -1 -1 
  2459726.0080760       1.003852       0.004959 0 -1 -1 
  2459726.0094650       0.997601       0.004960 0 -1 -1 
  2459726.0108540       0.992503       0.004948 0 -1 -1 
  2459726.0122430       0.998688       0.004949 0 -1 -1 
  2459726.0136320       0.999328       0.004949 0 -1 -1 
  2459726.0150210       0.992967       0.004950 0 -1 -1 
  2459726.0164100       0.996924       0.004949 0 -1 -1 
  2459726.0177990       0.995978       0.004949 0 -1 -1 
  2459726.0191870       0.999100       0.004947 0 -1 -1 
  2459726.0205760       0.997389       0.004947 0 -1 -1 
  2459726.0219650       1.005171       0.004950 0 -1 -1 
  2459726.0233540       1.012480       0.004954 0 -1 -1 
  2459726.0247430       0.989591       0.004939 0 -1 -1 
  2459726.0261320       0.998147       0.004945 0 -1 -1 
  2459726.0275210       1.006551       0.004947 0 -1 -1 
  2459726.0289100       1.004390       0.004947 0 -1 -1 
  2459726.0302990       1.001683       0.004946 0 -1 -1 
  2459726.0316880       0.998459       0.004940 0 -1 -1 
  2459726.0330770       1.000968       0.004944 0 -1 -1 
  2459726.0344660       0.996199       0.004936 0 -1 -1 
  2459726.0358540       0.990080       0.004932 0 -1 -1 
  2459726.0372430       1.003631       0.004939 0 -1 -1 
  2459726.0386320       1.002061       0.004940 0 -1 -1 
  2459726.0400210       1.004306       0.004941 0 -1 -1 
  2459726.0414100       0.992577       0.004930 0 -1 -1 
  2459726.0427990       1.005217       0.004951 0 -1 -1 
  2459726.0441880       0.998427       0.004931 0 -1 -1 
  2459726.0455770       1.002024       0.004935 0 -1 -1 
  2459726.0469660       1.001852       0.004931 0 -1 -1 
  2459726.0483550       0.992833       0.004931 0 -1 -1 
  2459726.0497440       1.003460       0.004932 0 -1 -1 
  2459726.0511330       0.996631       0.004926 0 -1 -1 
  2459726.0525220       0.999922       0.004925 0 -1 -1 
  2459726.0539100       1.004006       0.004925 0 -1 -1 
  2459726.0552990       1.009966       0.004936 0 -1 -1 
  2459726.0566880       0.995625       0.004923 0 -1 -1 
  2459726.0580770       0.995044       0.004923 0 -1 -1 
  2459726.0594660       0.995040       0.004921 0 -1 -1 
  2459726.0608550       1.006044       0.004924 0 -1 -1 
  2459726.0622440       1.001309       0.004920 0 -1 -1 
  2459726.0636330       1.008109       0.004924 0 -1 -1 
  2459726.0650220       1.004437       0.004923 0 -1 -1 
  2459726.0664110       1.001913       0.004919 0 -1 -1 
  2459726.0678000       0.994013       0.004915 0 -1 -1 
  2459726.0691890       1.003303       0.004918 0 -1 -1 
  2459726.0705770       0.992106       0.004909 0 -1 -1 
  2459726.0719660       1.001461       0.004919 0 -1 -1 
  2459726.0733550       0.991871       0.004903 0 -1 -1 
  2459726.0747440       0.998197       0.004919 0 -1 -1 
  2459726.0761330       1.002043       0.004919 0 -1 -1 
  2459726.0775220       0.996627       0.004910 0 -1 -1 
  2459726.0789110       0.988925       0.004903 0 -1 -1 
  2459726.0803000       0.996458       0.004907 0 -1 -1 
  2459726.0816890       1.010896       0.004920 0 -1 -1 
  2459726.0830780       0.994057       0.004903 0 -1 -1 
  2459726.0844670       0.994731       0.004899 0 -1 -1 
  2459726.0858560       0.988132       0.004896 0 -1 -1 
  2459726.0872450       1.004563       0.004909 0 -1 -1 
  2459726.0886330       0.994737       0.004897 0 -1 -1 
  2459726.0900220       1.001157       0.004907 0 -1 -1 
  2459726.0914110       0.999995       0.004905 0 -1 -1 
  2459726.0928000       1.009655       0.004915 0 -1 -1 
  2459726.0941890       1.000772       0.004901 0 -1 -1 
  2459726.0955780       1.005637       0.004905 0 -1 -1 
  2459726.0969670       0.998753       0.004904 0 -1 -1 
  2459726.0983560       0.999653       0.004901 0 -1 -1 
  2459726.0997450       1.007781       0.004908 0 -1 -1 
  2459726.1011340       0.998217       0.004899 0 -1 -1 
  2459726.1025230       1.001743       0.004900 0 -1 -1 
  2459726.1039120       0.999230       0.004896 0 -1 -1 
  2459726.1053000       1.000475       0.004900 0 -1 -1 
  2459726.1066890       1.012541       0.004904 0 -1 -1 
  2459726.1080780       1.001160       0.004900 0 -1 -1 
  2459726.1094670       1.004666       0.004901 0 -1 -1 
  2459726.1108560       1.006284       0.004901 0 -1 -1 
  2459726.1122450       1.001270       0.004903 0 -1 -1 
  2459726.1136340       1.003190       0.004896 0 -1 -1 
  2459726.1150230       1.005279       0.004894 0 -1 -1 
  2459726.1164120       0.997019       0.004886 0 -1 -1 
  2459726.1178010       1.001815       0.004894 0 -1 -1 
  2459726.1191900       1.002102       0.004888 0 -1 -1 
  2459726.1205790       1.006264       0.004898 0 -1 -1 
  2459726.1219680       1.005579       0.004894 0 -1 -1 
  2459726.1233560       0.998724       0.004889 0 -1 -1 
  2459726.1247450       0.997256       0.004886 0 -1 -1 
  2459726.1261340       0.998412       0.004883 0 -1 -1 
  2459726.1275230       0.999103       0.004883 0 -1 -1 
  2459726.1289120       1.001108       0.004890 0 -1 -1 
  2459726.1303010       1.000455       0.004887 0 -1 -1 
  2459726.1316900       1.002339       0.004892 0 -1 -1 
  2459726.1330790       0.999929       0.004891 0 -1 -1 
  2459726.1344680       0.998254       0.004884 0 -1 -1 
  2459726.1358570       0.992673       0.004881 0 -1 -1 
  2459726.1372460       0.997936       0.004885 0 -1 -1 
  2459726.1386350       1.007802       0.004887 0 -1 -1 
  2459726.1400230       0.989667       0.004877 0 -1 -1 
  2459726.1414120       0.992637       0.004876 0 -1 -1 
  2459726.1428010       0.995234       0.004882 0 -1 -1 
  2459726.1441900       1.001169       0.004889 0 -1 -1 
  2459726.1455790       0.997570       0.004878 0 -1 -1 
  2459726.1469680       1.005237       0.004889 0 -1 -1 
  2459726.1483570       1.003380       0.004881 0 -1 -1 
  2459726.1497460       0.995638       0.004883 0 -1 -1 
  2459726.1511350       0.995672       0.004874 0 -1 -1 
  2459726.1525240       0.999264       0.004879 0 -1 -1 
  2459726.1539130       0.991890       0.004877 0 -1 -1 
  2459726.1553020       0.995808       0.004877 0 -1 -1 
  2459726.1566910       0.999933       0.004876 0 -1 -1 
  2459726.1580790       0.996457       0.004875 0 -1 -1 
  2459726.1594680       1.002918       0.004882 0 -1 -1 
  2459726.1608570       0.998550       0.004877 0 -1 -1 
  2459726.1622460       0.998688       0.004877 0 -1 -1 
  2459726.1636350       0.998175       0.004874 0 -1 -1 
  2459726.1650240       0.999312       0.004876 0 -1 -1 
  2459726.1664130       0.995324       0.004875 0 -1 -1 
  2459726.1678020       0.990613       0.004871 0 -1 -1 
  2459726.1691910       0.998959       0.004877 0 -1 -1 
  2459726.1705800       0.998726       0.004876 0 -1 -1 
  2459726.1719690       0.995532       0.004869 0 -1 -1 
  2459726.1733580       0.995947       0.004871 0 -1 -1 
  2459726.1747460       1.007655       0.004875 0 -1 -1 
  2459726.1761350       0.997345       0.004875 0 -1 -1 
  2459726.1775240       0.997565       0.004868 0 -1 -1 
  2459726.1789130       1.001566       0.004876 0 -1 -1 
  2459726.1803020       1.001529       0.004871 0 -1 -1 
  2459726.1816910       1.008139       0.004875 0 -1 -1 
  2459726.1830800       0.993838       0.004870 0 -1 -1 
  2459726.1844690       0.996474       0.004868 0 -1 -1 
  2459726.1858580       0.995682       0.004868 0 -1 -1 
  2459726.1872470       0.998000       0.004867 0 -1 -1 
  2459726.1886360       1.008777       0.004876 0 -1 -1 
  2459726.1900250       0.999401       0.004868 0 -1 -1 
  2459726.1914140       1.001597       0.004870 0 -1 -1 
  2459726.1928020       0.996375       0.004866 0 -1 -1 
  2459726.1941910       1.004253       0.004869 0 -1 -1 
  2459726.1955800       1.001692       0.004862 0 -1 -1 
  2459726.1969690       1.001438       0.004869 0 -1 -1 
  2459726.1983580       1.005334       0.004864 0 -1 -1 
  2459726.1997470       1.003765       0.004864 0 -1 -1 
  2459726.2011360       0.994921       0.004863 0 -1 -1 
  2459726.2025250       0.997488       0.004861 0 -1 -1 
  2459726.2039140       1.001547       0.004872 0 -1 -1 
  2459726.2053030       1.003447       0.004863 0 -1 -1 
  2459726.2066920       0.994154       0.004858 0 -1 -1 
  2459726.2080810       0.991046       0.004856 0 -1 -1 
  2459726.2094690       1.004060       0.004869 0 -1 -1 
  2459726.2108580       1.004597       0.004866 0 -1 -1 
  2459726.2122470       0.998277       0.004861 0 -1 -1 
  2459726.2136360       0.996601       0.004867 0 -1 -1 
  2459726.2150250       0.992707       0.004857 0 -1 -1 
  2459726.2164140       1.009984       0.004869 0 -1 -1 
  2459726.2178030       0.997752       0.004863 0 -1 -1 
  2459726.2191920       0.998308       0.004863 0 -1 -1 
  2459726.2205810       0.998986       0.004854 0 -1 -1 
  2459726.2219700       0.994142       0.004854 0 -1 -1 
  2459726.2233590       1.003206       0.004862 0 -1 -1 
  2459726.2247480       1.000196       0.004862 0 -1 -1 
  2459726.2261370       0.998432       0.004862 0 -1 -1 
  2459726.2275250       1.003121       0.004862 0 -1 -1 
  2459726.2289140       0.992665       0.004851 0 -1 -1 
  2459726.2303030       0.997671       0.004853 0 -1 -1 
  2459726.2316920       1.001834       0.004863 0 -1 -1 
  2459726.2330810       0.991599       0.004851 0 -1 -1 
  2459726.2344700       0.991316       0.004853 0 -1 -1 
  2459726.2358590       1.001518       0.004860 0 -1 -1 
  2459726.2372480       0.992209       0.004848 0 -1 -1 
  2459726.2386370       1.003560       0.004858 0 -1 -1 
  2459726.2400260       0.995590       0.004854 0 -1 -1 
  2459726.2414150       0.999046       0.004852 0 -1 -1 
  2459726.2428040       1.001873       0.004863 0 -1 -1 
  2459726.2441930       0.999417       0.004852 0 -1 -1 
  2459726.2455810       0.998564       0.004860 0 -1 -1 
  2459726.2469700       0.988826       0.004841 0 -1 -1 
  2459726.2483590       1.001268       0.004856 0 -1 -1 
  2459726.2497480       1.005267       0.004856 0 -1 -1 
  2459726.2511370       0.998983       0.004851 0 -1 -1 
  2459726.2525260       0.999930       0.004860 0 -1 -1 
  2459726.2539150       1.002784       0.004853 0 -1 -1 
  2459726.2553040       0.999496       0.004851 0 -1 -1 
  2459726.2566930       1.004021       0.004854 0 -1 -1 
  2459726.2580820       1.003507       0.004852 0 -1 -1 
  2459726.2594710       0.994900       0.004844 0 -1 -1 
  2459726.2608600       1.004925       0.004862 0 -1 -1 
  2459726.2622480       0.992986       0.004843 0 -1 -1 
  2459726.2636370       0.998492       0.004851 0 -1 -1 
  2459726.2650260       1.003106       0.004854 0 -1 -1 
  2459726.2664150       1.003070       0.004849 0 -1 -1 
  2459726.2678040       0.997566       0.004850 0 -1 -1 
  2459726.2691930       0.993581       0.004845 0 -1 -1 
  2459726.2705820       1.006214       0.004850 0 -1 -1 
  2459726.2719710       1.008821       0.004851 0 -1 -1 
  2459726.2733600       0.996962       0.004843 0 -1 -1 
  2459726.2747490       1.003445       0.004848 0 -1 -1 
  2459726.2761380       1.003010       0.004845 0 -1 -1 
  2459726.2775270       0.999352       0.004846 0 -1 -1 
  2459726.2789160       0.996863       0.004842 0 -1 -1 
  2459726.2803040       1.001328       0.004840 0 -1 -1 
  2459726.2816930       1.001020       0.004842 0 -1 -1 
  2459726.2830820       1.001129       0.004843 0 -1 -1 
  2459726.2844710       0.999266       0.004841 0 -1 -1 
  2459726.2858600       1.002363       0.004835 0 -1 -1 
  2459726.2872490       0.991224       0.004836 0 -1 -1 
  2459726.2886380       1.003640       0.004843 0 -1 -1 
  2459726.2900270       0.998950       0.004833 0 -1 -1 
  2459726.2914160       1.002973       0.004839 0 -1 -1 
  2459726.2928050       0.997829       0.004836 0 -1 -1 
  2459726.2941940       0.998528       0.004839 0 -1 -1 
  2459726.2955830       1.008223       0.004836 0 -1 -1 
  2459726.2969710       1.004095       0.004840 0 -1 -1 
  2459726.2983600       0.992928       0.004828 0 -1 -1 
  2459726.2997490       0.998576       0.004831 0 -1 -1 
  2459726.3011380       0.999984       0.004830 0 -1 -1 
  2459726.3025270       0.999116       0.004828 0 -1 -1 
  2459726.3039160       1.002138       0.004844 0 -1 -1 
  2459726.3053050       0.989887       0.004824 0 -1 -1 
  2459726.3066940       1.004217       0.004833 0 -1 -1 
  2459726.3080830       1.001623       0.004827 0 -1 -1 
  2459726.3094720       1.006400       0.004831 0 -1 -1 
  2459726.3108610       1.002139       0.004830 0 -1 -1 
  2459726.3122500       1.008959       0.004836 0 -1 -1 
  2459726.3136390       0.999049       0.004823 0 -1 -1 
  2459726.3150270       0.998038       0.004825 0 -1 -1 
  2459726.3164160       1.007681       0.004834 0 -1 -1 
  2459726.3178050       1.006345       0.004829 0 -1 -1 
  2459726.3191940       0.997623       0.004817 0 -1 -1 
  2459726.3205830       1.005759       0.004827 0 -1 -1 
  2459726.3219720       0.993841       0.004814 0 -1 -1 
  2459726.3233610       0.995290       0.004820 0 -1 -1 
  2459726.3247500       1.001223       0.004816 0 -1 -1 
  2459726.3261390       0.999326       0.004821 0 -1 -1 
  2459726.3275280       1.012164       0.004826 0 -1 -1 
  2459726.3289170       1.000189       0.004817 0 -1 -1 
  2459726.3303060       0.996192       0.004815 0 -1 -1 
  2459726.3316940       1.011906       0.004818 0 -1 -1 
  2459726.3330830       1.004906       0.004825 0 -1 -1 
  2459726.3344720       0.999995       0.004811 0 -1 -1 
  2459726.3358610       1.009734       0.004816 0 -1 -1 
  2459726.3372500       0.991953       0.004805 0 -1 -1 
  2459726.3386390       0.999677       0.004809 0 -1 -1 
  2459726.3400280       0.993799       0.004804 0 -1 -1 
  2459726.3414170       0.999022       0.004808 0 -1 -1 
  2459726.3428060       1.000195       0.004807 0 -1 -1 
  2459726.3441950       0.995210       0.004798 0 -1 -1 
  2459726.3455840       1.002317       0.004806 0 -1 -1 
  2459726.3469730       0.997507       0.004800 0 -1 -1 
  2459726.3483620       1.007217       0.004805 0 -1 -1 
  2459726.3497500       1.007249       0.004804 0 -1 -1 
  2459726.3511390       1.002219       0.004798 0 -1 -1 
  2459726.3525280       1.004573       0.004805 0 -1 -1 
  2459726.3539170       1.002446       0.004793 0 -1 -1 
  2459726.3553060       0.997997       0.004795 0 -1 -1 
  2459726.3566950       1.001342       0.004798 0 -1 -1 
  2459726.3580840       1.002648       0.004793 0 -1 -1 
  2459726.3594730       1.009256       0.004804 0 -1 -1 
  2459726.3608620       1.005889       0.004793 0 -1 -1 
  2459726.3622510       1.003245       0.004794 0 -1 -1 
  2459726.3636400       0.994524       0.004788 0 -1 -1 
  2459726.3650290       1.009737       0.004796 0 -1 -1 
  2459726.3664170       0.993650       0.004784 0 -1 -1 
  2459726.3678060       0.995073       0.004783 0 -1 -1 
  2459726.3691950       0.996631       0.004786 0 -1 -1 
  2459726.3705840       1.000377       0.004779 0 -1 -1 
  2459726.3719730       1.002370       0.004786 0 -1 -1 
  2459726.3733620       1.002128       0.004781 0 -1 -1 
  2459726.3747510       0.992832       0.004775 0 -1 -1 
  2459726.3761400       1.003180       0.004783 0 -1 -1 
  2459726.3775290       1.002015       0.004778 0 -1 -1 
  2459726.3789180       1.000358       0.004775 0 -1 -1 
  2459726.3803070       1.004843       0.004779 0 -1 -1 
  2459726.3816960       1.001490       0.004780 0 -1 -1 
  2459726.3830850       1.001204       0.004780 0 -1 -1 
  2459726.3844730       1.003011       0.004775 0 -1 -1 
  2459726.3858620       1.005345       0.004778 0 -1 -1 
  2459726.3872510       0.999652       0.004773 0 -1 -1 
  2459726.3886400       1.001469       0.004766 0 -1 -1 
  2459726.3900290       0.990597       0.004766 0 -1 -1 
  2459726.3914180       0.995815       0.004763 0 -1 -1 
  2459726.3928070       1.001163       0.004769 0 -1 -1 
  2459726.3941960       0.992235       0.004759 0 -1 -1 
  2459726.3955850       1.002250       0.004773 0 -1 -1 
  2459726.3969740       1.000862       0.004765 0 -1 -1 
  2459726.3983630       1.001323       0.004764 0 -1 -1 
  2459726.3997520       1.000103       0.004765 0 -1 -1 
  2459726.4011400       0.999441       0.004759 0 -1 -1 
  2459726.4025290       0.997821       0.004766 0 -1 -1 
  2459726.4039180       1.005528       0.004764 0 -1 -1 
  2459726.4053070       1.001799       0.004758 0 -1 -1 
  2459726.4066960       1.003138       0.004760 0 -1 -1 
  2459726.4080850       1.005614       0.004759 0 -1 -1 
  2459726.4094740       1.003149       0.004760 0 -1 -1 
  2459726.4108630       1.004236       0.004756 0 -1 -1 
  2459726.4122520       1.004146       0.004758 0 -1 -1 
  2459726.4136410       1.008262       0.004759 0 -1 -1 
  2459726.4150300       1.000190       0.004749 0 -1 -1 
  2459726.4164190       0.992288       0.004744 0 -1 -1 
  2459726.4178080       0.995174       0.004743 0 -1 -1 
  2459726.4191960       1.004211       0.004753 0 -1 -1 
  2459726.4205850       1.000573       0.004754 0 -1 -1 
  2459726.4219740       0.997981       0.004746 0 -1 -1 
  2459726.4233630       1.005793       0.004755 0 -1 -1 
  2459726.4247520       1.003506       0.004749 0 -1 -1 
  2459726.4261410       1.002815       0.004747 0 -1 -1 
  2459726.4275300       1.000282       0.004756 0 -1 -1 
  2459726.4289190       1.001544       0.004751 0 -1 -1 
  2459726.4303080       0.989750       0.004736 0 -1 -1 
  2459726.4316970       0.998646       0.004747 0 -1 -1 
  2459726.4330860       0.998519       0.004741 0 -1 -1 
  2459726.4344750       1.005385       0.004746 0 -1 -1 
  2459726.4358630       0.999120       0.004744 0 -1 -1 
  2459726.4372520       1.000092       0.004744 0 -1 -1 
  2459726.4386410       1.006507       0.004751 0 -1 -1 
  2459726.4400300       1.006788       0.004745 0 -1 -1 
  2459726.4414190       1.005566       0.004743 0 -1 -1 
  2459726.4428080       0.994586       0.004741 0 -1 -1 
  2459726.4441970       1.005380       0.004748 0 -1 -1 
  2459726.4455860       0.995961       0.004738 0 -1 -1 
  2459726.4469750       1.000529       0.004741 0 -1 -1 
  2459726.4483640       1.005672       0.004746 0 -1 -1 
  2459726.4497530       0.991556       0.004733 0 -1 -1 
  2459726.4511420       0.996194       0.004732 0 -1 -1 
  2459726.4525310       1.003936       0.004739 0 -1 -1 
  2459726.4539190       0.987644       0.004729 0 -1 -1 
  2459726.4553080       0.997860       0.004737 0 -1 -1 
  2459726.4566970       1.003489       0.004741 0 -1 -1 
  2459726.4580860       1.007588       0.004747 0 -1 -1 
  2459726.4594750       1.007197       0.004748 0 -1 -1 
  2459726.4608640       0.997780       0.004732 0 -1 -1 
  2459726.4622530       0.990137       0.004731 0 -1 -1 
  2459726.4636420       0.997193       0.004737 0 -1 -1 
  2459726.4650310       0.996674       0.004736 0 -1 -1 
  2459726.4664200       0.994769       0.004731 0 -1 -1 
  2459726.4678090       1.003823       0.004742 0 -1 -1 
  2459726.4691980       1.000451       0.004738 0 -1 -1 
  2459726.4705860       1.002766       0.004738 0 -1 -1 
  2459726.4719750       1.003650       0.004735 0 -1 -1 
  2459726.4733640       1.001873       0.004736 0 -1 -1 
  2459726.4747530       0.999521       0.004737 0 -1 -1 
  2459726.4761420       0.992491       0.004735 0 -1 -1 
  2459726.4775310       0.997003       0.004732 0 -1 -1 
  2459726.4789200       1.009598       0.004744 0 -1 -1 
  2459726.4803090       0.993105       0.004732 0 -1 -1 
  2459726.4816980       1.004272       0.004738 0 -1 -1 
  2459726.4830870       1.003288       0.004735 0 -1 -1 
  2459726.4844760       0.999337       0.004736 0 -1 -1 
  2459726.4858650       0.993547       0.004733 0 -1 -1 
  2459726.4872540       0.998332       0.004738 0 -1 -1 
  2459726.4886420       0.999119       0.004729 0 -1 -1 
  2459726.4900310       0.994405       0.004732 0 -1 -1 
  2459726.4914200       0.997659       0.004738 0 -1 -1 
  2459726.4928090       0.995819       0.004730 0 -1 -1 
  2459726.4941980       0.994698       0.004737 0 -1 -1 
  2459726.4955870       1.006756       0.004742 0 -1 -1 
  2459726.4969760       1.001499       0.004746 0 -1 -1 
  2459726.4983650       1.006271       0.004743 0 -1 -1 
  2459726.4997540       0.987159       0.004727 0 -1 -1 
  2459726.5011430       1.003900       0.004735 0 -1 -1 
  2459726.5025320       0.996230       0.004732 0 -1 -1 
  2459726.5039210       1.001107       0.004739 0 -1 -1 
  2459726.5053090       1.001354       0.004738 0 -1 -1 
  2459726.5066980       1.003066       0.004741 0 -1 -1 
  2459726.5080870       1.001609       0.004737 0 -1 -1 
  2459726.5094760       1.001591       0.004733 0 -1 -1 
  2459726.5108650       0.992915       0.004731 0 -1 -1 
  2459726.5122540       0.992234       0.004731 0 -1 -1 
  2459726.5136430       0.995813       0.004732 0 -1 -1 
  2459726.5150320       1.005250       0.004742 0 -1 -1 
  2459726.5164210       1.001302       0.004737 0 -1 -1 
  2459726.5178100       1.001244       0.004737 0 -1 -1 
  2459726.5191990       1.000937       0.004733 0 -1 -1 
  2459726.5205880       0.998904       0.004735 0 -1 -1 
  2459726.5219770       0.990356       0.004729 0 -1 -1 
  2459726.5233650       0.999962       0.004734 0 -1 -1 
  2459726.5247540       1.005893       0.004742 0 -1 -1 
  2459726.5261430       1.003289       0.004741 0 -1 -1 
  2459726.5275320       1.000132       0.004742 0 -1 -1 
  2459726.5289210       0.996645       0.004737 0 -1 -1 
  2459726.5303100       1.000814       0.004736 0 -1 -1 
  2459726.5316990       1.003310       0.004741 0 -1 -1 
  2459726.5330880       1.001559       0.004739 0 -1 -1 
  2459726.5344770       1.007979       0.004748 0 -1 -1 
  2459726.5358660       0.991215       0.004730 0 -1 -1 
  2459726.5372550       0.997808       0.004740 0 -1 -1 
  2459726.5386440       0.999078       0.004744 0 -1 -1 
  2459726.5400330       1.009845       0.004747 0 -1 -1 
  2459726.5414210       1.006928       0.004738 0 -1 -1 
  2459726.5428100       0.993587       0.004739 0 -1 -1 
  2459726.5441990       0.998770       0.004742 0 -1 -1 
  2459726.5455880       1.003107       0.004747 0 -1 -1 
  2459726.5469770       1.000738       0.004741 0 -1 -1 
  2459726.5483660       1.007543       0.004747 0 -1 -1 
  2459726.5497550       0.997179       0.004736 0 -1 -1 
  2459726.5511440       1.001644       0.004741 0 -1 -1 
  2459726.5525330       1.002134       0.004737 0 -1 -1 
  2459726.5539220       0.994092       0.004733 0 -1 -1 
  2459726.5553110       0.998850       0.004738 0 -1 -1 
  2459726.5567000       0.998721       0.004740 0 -1 -1 
  2459726.5580880       0.988761       0.004737 0 -1 -1 
  2459726.5594770       1.008844       0.004749 0 -1 -1 
  2459726.5608660       1.007452       0.004743 0 -1 -1 
  2459726.5622550       1.004236       0.004752 0 -1 -1 
  2459726.5636440       1.007579       0.004750 0 -1 -1 
  2459726.5650330       0.996764       0.004743 0 -1 -1 
  2459726.5664220       0.995897       0.004733 0 -1 -1 
  2459726.5678110       0.995425       0.004737 0 -1 -1 
  2459726.5692000       0.999664       0.004747 0 -1 -1 
  2459726.5705890       0.990278       0.004731 0 -1 -1 
  2459726.5719780       0.994725       0.004741 0 -1 -1 
  2459726.5733670       1.000582       0.004747 0 -1 -1 
  2459726.5747560       0.997275       0.004742 0 -1 -1 
  2459726.5761440       0.997697       0.004742 0 -1 -1 
  2459726.5775330       0.996817       0.004737 0 -1 -1 
  2459726.5789220       0.995536       0.004739 0 -1 -1 
  2459726.5803110       1.000490       0.004740 0 -1 -1 
  2459726.5817000       0.991837       0.004735 0 -1 -1 
  2459726.5830890       1.000008       0.004748 0 -1 -1 
  2459726.5844780       0.990285       0.004735 0 -1 -1 
  2459726.5858670       0.995435       0.004743 0 -1 -1 
  2459726.5872560       0.993403       0.004739 0 -1 -1 
  2459726.5886450       0.992448       0.004746 0 -1 -1 
  2459726.5900340       0.989741       0.004733 0 -1 -1 
  2459726.5914230       0.980831       0.004730 0 -1 -1 
  2459726.5928110       0.983857       0.004737 0 -1 -1 
  2459726.5942000       0.974624       0.004728 0 -1 -1 
  2459726.5955890       0.986087       0.004736 0 -1 -1 
  2459726.5969780       0.986427       0.004736 0 -1 -1 
  2459726.5983670       0.988557       0.004735 0 -1 -1 
  2459726.5997560       0.980384       0.004729 0 -1 -1 
  2459726.6011450       0.985373       0.004736 0 -1 -1 
  2459726.6025340       0.986692       0.004737 0 -1 -1 
  2459726.6039230       0.988946       0.004742 0 -1 -1 
  2459726.6053120       0.982577       0.004730 0 -1 -1 
  2459726.6067010       0.993133       0.004741 0 -1 -1 
  2459726.6080900       0.985883       0.004746 0 -1 -1 
  2459726.6094790       0.983128       0.004739 0 -1 -1 
  2459726.6108670       0.976777       0.004731 0 -1 -1 
  2459726.6122560       0.976265       0.004733 0 -1 -1 
  2459726.6136450       0.985184       0.004739 0 -1 -1 
  2459726.6150340       0.979728       0.004739 0 -1 -1 
  2459726.6164230       0.975693       0.004735 0 -1 -1 
  2459726.6178120       0.981848       0.004741 0 -1 -1 
  2459726.6192010       0.977869       0.004740 0 -1 -1 
  2459726.6205900       0.987152       0.004743 0 -1 -1 
  2459726.6219790       0.983499       0.004740 0 -1 -1 
  2459726.6233680       0.985424       0.004743 0 -1 -1 
  2459726.6247570       0.981495       0.004741 0 -1 -1 
  2459726.6261460       0.983393       0.004743 0 -1 -1 
  2459726.6275340       0.984996       0.004750 0 -1 -1 
  2459726.6289230       0.979973       0.004739 0 -1 -1 
  2459726.6303120       0.988138       0.004758 0 -1 -1 
  2459726.6317010       0.977819       0.004745 0 -1 -1 
  2459726.6330900       0.986420       0.004749 0 -1 -1 
  2459726.6344790       0.989464       0.004751 0 -1 -1 
  2459726.6358680       0.992688       0.004758 0 -1 -1 
  2459726.6372570       0.987203       0.004754 0 -1 -1 
  2459726.6386460       1.002424       0.004764 0 -1 -1 
  2459726.6400350       0.997251       0.004763 0 -1 -1 
  2459726.6414240       0.996850       0.004762 0 -1 -1 
  2459726.6428130       0.996365       0.004760 0 -1 -1 
  2459726.6442020       1.003380       0.004771 0 -1 -1 
  2459726.6455900       0.998700       0.004767 0 -1 -1 
  2459726.6469790       1.003865       0.004772 0 -1 -1 
  2459726.6483680       0.999452       0.004769 0 -1 -1 
  2459726.6497570       1.002138       0.004768 0 -1 -1 
  2459726.6511460       0.998617       0.004763 0 -1 -1 
  2459726.6525350       1.002638       0.004780 0 -1 -1 
  2459726.6539240       1.009503       0.004778 0 -1 -1 
  2459726.6553130       0.993788       0.004762 0 -1 -1 
  2459726.6567020       1.009642       0.004780 0 -1 -1 
  2459726.6580910       0.997902       0.004769 0 -1 -1 
  2459726.6594800       1.009913       0.004778 0 -1 -1 
  2459726.6608690       1.001951       0.004766 0 -1 -1 
  2459726.6622570       1.003212       0.004779 0 -1 -1 
  2459726.6636460       0.993089       0.004764 0 -1 -1 
  2459726.6650350       1.002677       0.004773 0 -1 -1 
  2459726.6664240       1.003253       0.004778 0 -1 -1 
  2459726.6678130       1.003410       0.004773 0 -1 -1 
  2459726.6692020       1.001515       0.004776 0 -1 -1 
  2459726.6705910       1.008990       0.004776 0 -1 -1 
  2459726.6719800       1.002321       0.004777 0 -1 -1 
  2459726.6733690       1.001652       0.004777 0 -1 -1 
  2459726.6747580       1.001781       0.004771 0 -1 -1 
  2459726.6761470       1.001353       0.004775 0 -1 -1 
  2459726.6775360       1.000671       0.004773 0 -1 -1 
  2459726.6789250       0.996102       0.004767 0 -1 -1 
  2459726.6803130       1.002867       0.004780 0 -1 -1 
  2459726.6817020       0.992961       0.004769 0 -1 -1 
  2459726.6830910       1.001544       0.004773 0 -1 -1 
  2459726.6844800       0.997604       0.004769 0 -1 -1 
  2459726.6858690       1.006131       0.004778 0 -1 -1 
  2459726.6872580       1.000072       0.004782 0 -1 -1 
  2459726.6886470       0.989292       0.004765 0 -1 -1 
  2459726.6900360       1.006743       0.004779 0 -1 -1 
  2459726.6914250       1.001705       0.004773 0 -1 -1 
  2459726.6928140       0.999941       0.004780 0 -1 -1 
  2459726.6942030       0.995682       0.004771 0 -1 -1 
  2459726.6955920       1.000658       0.004775 0 -1 -1 
  2459726.6969800       0.993214       0.004766 0 -1 -1 
  2459726.6983690       1.001164       0.004782 0 -1 -1 
  2459726.6997580       0.994579       0.004772 0 -1 -1 
  2459726.7011470       1.005466       0.004781 0 -1 -1 
  2459726.7025360       0.999303       0.004775 0 -1 -1 
  2459726.7039250       0.995231       0.004773 0 -1 -1 
  2459726.7053140       1.007372       0.004780 0 -1 -1 
  2459726.7067030       0.999990       0.004771 0 -1 -1 
  2459726.7080920       0.999958       0.004775 0 -1 -1 
  2459726.7094810       1.001510       0.004773 0 -1 -1 
  2459726.7108700       1.005943       0.004778 0 -1 -1 
  2459726.7122590       1.006824       0.004775 0 -1 -1 
  2459726.7136480       0.993058       0.004762 0 -1 -1 
  2459726.7150360       0.990624       0.004763 0 -1 -1 
  2459726.7164250       1.000189       0.004775 0 -1 -1 
  2459726.7178140       1.001796       0.004771 0 -1 -1 
  2459726.7192030       1.002196       0.004771 0 -1 -1 
  2459726.7205920       1.003347       0.004771 0 -1 -1 
  2459726.7219810       0.992945       0.004760 0 -1 -1 
  2459726.7233700       0.997526       0.004765 0 -1 -1 
  2459726.7247590       1.004320       0.004768 0 -1 -1 
  2459726.7261480       1.002817       0.004767 0 -1 -1 
  2459726.7275370       0.994952       0.004766 0 -1 -1 
  2459726.7289260       0.996074       0.004771 0 -1 -1 
  2459726.7303150       1.005795       0.004772 0 -1 -1 
  2459726.7317030       0.994259       0.004760 0 -1 -1 
  2459726.7330920       1.007851       0.004777 0 -1 -1 
  2459726.7344810       0.994163       0.004761 0 -1 -1 
  2459726.7358700       1.000330       0.004769 0 -1 -1 
  2459726.7372590       0.996511       0.004760 0 -1 -1 
  2459726.7386480       0.998347       0.004764 0 -1 -1 
  2459726.7400370       0.996413       0.004761 0 -1 -1 
  2459726.7414260       1.001417       0.004766 0 -1 -1 
  2459726.7428150       1.009709       0.004770 0 -1 -1 
  2459726.7442040       0.999126       0.004757 0 -1 -1 
  2459726.7455930       0.994292       0.004754 0 -1 -1 
  2459726.7469820       1.003815       0.004765 0 -1 -1 
  2459726.7483710       1.000832       0.004772 0 -1 -1 
  2459726.7497590       1.007407       0.004764 0 -1 -1 
  2459726.7511480       1.005394       0.004770 0 -1 -1 
  2459726.7525370       0.993940       0.004757 0 -1 -1 
  2459726.7539260       0.997199       0.004756 0 -1 -1 
  2459726.7553150       1.005192       0.004760 0 -1 -1 
  2459726.7567040       1.003251       0.004761 0 -1 -1 
  2459726.7580930       1.001946       0.004760 0 -1 -1 
  2459726.7594820       0.996786       0.004753 0 -1 -1 
  2459726.7608710       1.002044       0.004756 0 -1 -1 
  2459726.7622600       1.003742       0.004761 0 -1 -1 
  2459726.7636490       1.002129       0.004751 0 -1 -1 
  2459726.7650380       0.996778       0.004748 0 -1 -1 
  2459726.7664260       1.001527       0.004754 0 -1 -1 
  2459726.7678150       1.002011       0.004756 0 -1 -1 
  2459726.7692040       0.991682       0.004746 0 -1 -1 
  2459726.7705930       0.995968       0.004746 0 -1 -1 
  2459726.7719820       1.011814       0.004761 0 -1 -1 
  2459726.7733710       1.001169       0.004746 0 -1 -1 
  2459726.7747600       0.999347       0.004756 0 -1 -1 
  2459726.7761490       1.003451       0.004752 0 -1 -1 
  2459726.7775380       1.002172       0.004747 0 -1 -1 
  2459726.7789270       1.000606       0.004753 0 -1 -1 
  2459726.7803160       0.998381       0.004748 0 -1 -1 
  2459726.7817050       0.994413       0.004739 0 -1 -1 
  2459726.7830940       0.998135       0.004743 0 -1 -1 
  2459726.7844820       1.001284       0.004748 0 -1 -1 
  2459726.7858710       0.998237       0.004743 0 -1 -1 
  2459726.7872600       0.998493       0.004741 0 -1 -1 
  2459726.7886490       0.999481       0.004745 0 -1 -1 
  2459726.7900380       0.996518       0.004743 0 -1 -1 
  2459726.7914270       1.004311       0.004747 0 -1 -1 
  2459726.7928160       0.995276       0.004738 0 -1 -1 
  2459726.7942050       1.001447       0.004744 0 -1 -1 
  2459726.7955940       1.007066       0.004747 0 -1 -1 
  2459726.7969830       1.000823       0.004744 0 -1 -1 
  2459726.7983720       0.994328       0.004736 0 -1 -1 
  2459726.7997610       0.998260       0.004742 0 -1 -1 
  2459726.8011490       0.994998       0.004731 0 -1 -1 
  2459726.8025380       0.997499       0.004739 0 -1 -1 
  2459726.8039270       1.005225       0.004739 0 -1 -1 
  2459726.8053160       0.993464       0.004735 0 -1 -1 
  2459726.8067050       1.008800       0.004745 0 -1 -1 
  2459726.8080940       1.001520       0.004736 0 -1 -1 
  2459726.8094830       0.999133       0.004741 0 -1 -1 
  2459726.8108720       0.998163       0.004732 0 -1 -1 
  2459726.8122610       0.997596       0.004732 0 -1 -1 
  2459726.8136500       1.002167       0.004737 0 -1 -1 
  2459726.8150390       0.993468       0.004729 0 -1 -1 
  2459726.8164280       1.000421       0.004734 0 -1 -1 
  2459726.8178170       1.005174       0.004733 0 -1 -1 
  2459726.8192050       0.995256       0.004731 0 -1 -1 
  2459726.8205940       1.008184       0.004737 0 -1 -1 
  2459726.8219830       0.999090       0.004733 0 -1 -1 
  2459726.8233720       0.996907       0.004731 0 -1 -1 
  2459726.8247610       1.002461       0.004730 0 -1 -1 
  2459726.8261500       1.000684       0.004725 0 -1 -1 
  2459726.8275390       1.001228       0.004730 0 -1 -1 
  2459726.8289280       1.005451       0.004732 0 -1 -1 
  2459726.8303170       0.997945       0.004731 0 -1 -1 
  2459726.8317060       1.005924       0.004731 0 -1 -1 
  2459726.8330950       0.996532       0.004729 0 -1 -1 
  2459726.8344840       1.004135       0.004727 0 -1 -1 
  2459726.8358720       0.999415       0.004726 0 -1 -1 
  2459726.8372610       1.002445       0.004727 0 -1 -1 
  2459726.8386500       0.999242       0.004727 0 -1 -1 
  2459726.8400390       1.006579       0.004732 0 -1 -1 
  2459726.8414280       0.994205       0.004725 0 -1 -1 
  2459726.8428170       1.003494       0.004726 0 -1 -1 
  2459726.8442060       0.996965       0.004723 0 -1 -1 
  2459726.8455950       0.995919       0.004725 0 -1 -1 
  2459726.8469840       1.002988       0.004721 0 -1 -1 
  2459726.8483730       0.998250       0.004729 0 -1 -1 
  2459726.8497620       0.995904       0.004718 0 -1 -1 
  2459726.8511510       1.002850       0.004725 0 -1 -1 
  2459726.8525400       1.003277       0.004725 0 -1 -1 
  2459726.8539280       1.007906       0.004729 0 -1 -1 
  2459726.8553170       0.999573       0.004721 0 -1 -1 
  2459726.8567060       0.996369       0.004718 0 -1 -1 
  2459726.8580950       1.001031       0.004718 0 -1 -1 
  2459726.8594840       0.994514       0.004717 0 -1 -1 
  2459726.8608730       1.003041       0.004723 0 -1 -1 
  2459726.8622620       1.002293       0.004726 0 -1 -1 
  2459726.8636510       0.997319       0.004717 0 -1 -1 
  2459726.8650400       1.001521       0.004719 0 -1 -1 
  2459726.8664290       0.998076       0.004722 0 -1 -1 
  2459726.8678180       0.996473       0.004718 0 -1 -1 
  2459726.8692070       0.997783       0.004714 0 -1 -1 
  2459726.8705950       0.997934       0.004717 0 -1 -1 
  2459726.8719840       0.989944       0.004713 0 -1 -1 
  2459726.8733730       1.003166       0.004721 0 -1 -1 
  2459726.8747620       0.992129       0.004708 0 -1 -1 
  2459726.8761510       1.003035       0.004714 0 -1 -1 
  2459726.8775400       0.996046       0.004714 0 -1 -1 
  2459726.8789290       1.000989       0.004716 0 -1 -1 
  2459726.8803180       1.003934       0.004722 0 -1 -1 
  2459726.8817070       0.999786       0.004718 0 -1 -1 
  2459726.8830960       1.003772       0.004715 0 -1 -1 
  2459726.8844850       0.995955       0.004711 0 -1 -1 
  2459726.8858740       1.001165       0.004716 0 -1 -1 
  2459726.8872630       0.994353       0.004712 0 -1 -1 
  2459726.8886510       1.001432       0.004713 0 -1 -1 
  2459726.8900400       1.004528       0.004718 0 -1 -1 
  2459726.8914290       0.999967       0.004717 0 -1 -1 
  2459726.8928180       0.996998       0.004710 0 -1 -1 
  2459726.8942070       1.000671       0.004708 0 -1 -1 
  2459726.8955960       0.996919       0.004709 0 -1 -1 
  2459726.8969850       0.996638       0.004713 0 -1 -1 
  2459726.8983740       0.993268       0.004704 0 -1 -1 
  2459726.8997630       1.001397       0.004710 0 -1 -1 
  2459726.9011520       0.998587       0.004711 0 -1 -1 
  2459726.9025410       0.998452       0.004709 0 -1 -1 
  2459726.9039300       1.000527       0.004712 0 -1 -1 
  2459726.9053180       0.998366       0.004705 0 -1 -1 
  2459726.9067070       0.998559       0.004711 0 -1 -1 
  2459726.9080960       0.999582       0.004708 0 -1 -1 
  2459726.9094850       1.000846       0.004708 0 -1 -1 
  2459726.9108740       0.990717       0.004707 0 -1 -1 
  2459726.9122630       0.998469       0.004705 0 -1 -1 
  2459726.9136520       0.994500       0.004703 0 -1 -1 
  2459726.9150410       0.996450       0.004700 0 -1 -1 
  2459726.9164300       1.003041       0.004711 0 -1 -1 
  2459726.9178190       0.995026       0.004703 0 -1 -1 
  2459726.9192080       0.999543       0.004708 0 -1 -1 
  2459726.9205970       0.996261       0.004701 0 -1 -1 
  2459726.9219860       1.002448       0.004709 0 -1 -1 
  2459726.9233740       1.001439       0.004708 0 -1 -1 
  2459726.9247630       1.004316       0.004708 0 -1 -1 
  2459726.9261520       0.998883       0.004711 0 -1 -1 
  2459726.9275410       0.995600       0.004704 0 -1 -1 
  2459726.9289300       0.999634       0.004701 0 -1 -1 
  2459726.9303190       1.001497       0.004710 0 -1 -1 
  2459726.9317080       0.995650       0.004700 0 -1 -1 
  2459726.9330970       1.004038       0.004705 0 -1 -1 
  2459726.9344860       0.999435       0.004707 0 -1 -1 
  2459726.9358750       1.009875       0.004711 0 -1 -1 
  2459726.9372640       0.999549       0.004700 0 -1 -1 
  2459726.9386530       0.994363       0.004703 0 -1 -1 
  2459726.9400410       1.001773       0.004705 0 -1 -1 
  2459726.9414300       1.006963       0.004707 0 -1 -1 
  2459726.9428190       1.004978       0.004708 0 -1 -1 
  2459726.9442080       1.002623       0.004704 0 -1 -1 
  2459726.9455970       0.989897       0.004703 0 -1 -1 
  2459726.9469860       1.007153       0.004708 0 -1 -1 
  2459726.9483750       1.000862       0.004716 0 -1 -1 
  2459726.9497640       0.993803       0.004695 0 -1 -1 
  2459726.9511530       0.994434       0.004696 0 -1 -1 
  2459726.9525420       1.002364       0.004705 0 -1 -1 
  2459726.9539310       0.994170       0.004694 0 -1 -1 
  2459726.9553200       1.002005       0.004699 0 -1 -1 
  2459726.9567090       0.999444       0.004698 0 -1 -1 
  2459726.9580970       1.008664       0.004704 0 -1 -1 
  2459726.9594860       0.998413       0.004702 0 -1 -1 
  2459726.9608750       0.998597       0.004699 0 -1 -1 
  2459726.9622640       0.993364       0.004695 0 -1 -1 
  2459726.9636530       0.995906       0.004697 0 -1 -1 
  2459726.9650420       0.997490       0.004700 0 -1 -1 
  2459726.9664310       1.002327       0.004697 0 -1 -1 
  2459726.9678200       1.004193       0.004701 0 -1 -1 
  2459726.9692090       0.995552       0.004691 0 -1 -1 
  2459726.9705980       0.999167       0.004699 0 -1 -1 
  2459726.9719870       1.001782       0.004699 0 -1 -1 
  2459726.9733760       0.986809       0.004688 0 -1 -1 
  2459726.9747640       1.000456       0.004706 0 -1 -1 
  2459726.9761530       1.001026       0.004694 0 -1 -1 
  2459726.9775420       1.001999       0.004700 0 -1 -1 
  2459726.9789310       1.005065       0.004698 0 -1 -1 
  2459726.9803200       1.004692       0.004695 0 -1 -1 
  2459726.9817090       0.994824       0.004688 0 -1 -1 
  2459726.9830980       0.997719       0.004694 0 -1 -1 
  2459726.9844870       0.999277       0.004693 0 -1 -1 
  2459726.9858760       0.996049       0.004689 0 -1 -1 
  2459726.9872650       1.001552       0.004693 0 -1 -1 
  2459726.9886540       1.000799       0.004689 0 -1 -1 
  2459726.9900430       1.007982       0.004697 0 -1 -1 
  2459726.9914320       1.000432       0.004693 0 -1 -1 
  2459726.9928200       1.008288       0.004697 0 -1 -1 
  2459726.9942090       1.002611       0.004694 0 -1 -1 
  2459726.9955980       0.994647       0.004684 0 -1 -1 
  2459726.9969870       0.999220       0.004687 0 -1 -1 
  2459726.9983760       0.999399       0.004690 0 -1 -1 
  2459726.9997650       1.003656       0.004691 0 -1 -1 
  2459727.0011540       0.993930       0.004689 0 -1 -1 
  2459727.0025430       1.002087       0.004689 0 -1 -1 
  2459727.0039320       0.998020       0.004686 0 -1 -1 
  2459727.0053210       0.987904       0.004682 0 -1 -1 
  2459727.0067100       0.994811       0.004685 0 -1 -1 
  2459727.0080990       1.001799       0.004687 0 -1 -1 
  2459727.0094870       1.009370       0.004703 0 -1 -1 
  2459727.0108760       0.994961       0.004679 0 -1 -1 
  2459727.0122650       0.998110       0.004692 0 -1 -1 
  2459727.0136540       1.000077       0.004683 0 -1 -1 
  2459727.0150430       1.002706       0.004686 0 -1 -1 
  2459727.0164320       1.004160       0.004686 0 -1 -1 
  2459727.0178210       1.004166       0.004691 0 -1 -1 
  2459727.0192100       0.999857       0.004679 0 -1 -1 
  2459727.0205990       1.002972       0.004683 0 -1 -1 
  2459727.0219880       1.005791       0.004687 0 -1 -1 
  2459727.0233770       1.008904       0.004682 0 -1 -1 
  2459727.0247660       0.991530       0.004673 0 -1 -1 
  2459727.0261550       1.005355       0.004687 0 -1 -1 
  2459727.0275430       1.001776       0.004682 0 -1 -1 
  2459727.0289320       0.998592       0.004681 0 -1 -1 
  2459727.0303210       1.003376       0.004682 0 -1 -1 
  2459727.0317100       1.001027       0.004679 0 -1 -1 
  2459727.0330990       0.988604       0.004669 0 -1 -1 
  2459727.0344880       1.005138       0.004682 0 -1 -1 
  2459727.0358770       0.993107       0.004672 0 -1 -1 
  2459727.0372660       1.002171       0.004679 0 -1 -1 
  2459727.0386550       0.993298       0.004674 0 -1 -1 
  2459727.0400440       1.011008       0.004684 0 -1 -1 
  2459727.0414330       0.987205       0.004664 0 -1 -1 
  2459727.0428220       0.997582       0.004673 0 -1 -1 
  2459727.0442100       1.007823       0.004684 0 -1 -1 
  2459727.0455990       0.991102       0.004665 0 -1 -1 
  2459727.0469880       1.006775       0.004678 0 -1 -1 
  2459727.0483770       0.992485       0.004670 0 -1 -1 
  2459727.0497660       1.002804       0.004671 0 -1 -1 
  2459727.0511550       1.007971       0.004687 0 -1 -1 
  2459727.0525440       0.998636       0.004670 0 -1 -1 
  2459727.0539330       0.995557       0.004665 0 -1 -1 
  2459727.0553220       0.996220       0.004668 0 -1 -1 
  2459727.0567110       1.002399       0.004673 0 -1 -1 
  2459727.0581000       1.001047       0.004669 0 -1 -1 
  2459727.0594890       0.995903       0.004663 0 -1 -1 
  2459727.0608780       0.998596       0.004664 0 -1 -1 
  2459727.0622660       1.000412       0.004671 0 -1 -1 
  2459727.0636550       0.989050       0.004658 0 -1 -1 
  2459727.0650440       0.998207       0.004666 0 -1 -1 
  2459727.0664330       1.001158       0.004667 0 -1 -1 
  2459727.0678220       0.994506       0.004659 0 -1 -1 
  2459727.0692110       0.994046       0.004659 0 -1 -1 
  2459727.0706000       0.996593       0.004665 0 -1 -1 
  2459727.0719890       0.997832       0.004659 0 -1 -1 
  2459727.0733780       0.997170       0.004663 0 -1 -1 
  2459727.0747670       1.008448       0.004664 0 -1 -1 
  2459727.0761560       1.000108       0.004663 0 -1 -1 
  2459727.0775450       0.999670       0.004669 0 -1 -1 
  2459727.0789330       1.001504       0.004660 0 -1 -1 
  2459727.0803220       0.999721       0.004661 0 -1 -1 
  2459727.0817110       0.998779       0.004660 0 -1 -1 
  2459727.0831000       1.001993       0.004659 0 -1 -1 
  2459727.0844890       1.004081       0.004664 0 -1 -1 
  2459727.0858780       0.995971       0.004656 0 -1 -1 
  2459727.0872670       0.999330       0.004657 0 -1 -1 
  2459727.0886560       1.005103       0.004665 0 -1 -1 
  2459727.0900450       1.001915       0.004660 0 -1 -1 
  2459727.0914340       1.000159       0.004655 0 -1 -1 
  2459727.0928230       1.003009       0.004658 0 -1 -1 
  2459727.0942120       0.995247       0.004648 0 -1 -1 
  2459727.0956010       1.002898       0.004657 0 -1 -1 
  2459727.0969890       0.997116       0.004659 0 -1 -1 
  2459727.0983780       1.007738       0.004659 0 -1 -1 
  2459727.0997670       0.997913       0.004651 0 -1 -1 
  2459727.1011560       1.000648       0.004652 0 -1 -1 
  2459727.1025450       1.001131       0.004653 0 -1 -1 
  2459727.1039340       0.994918       0.004645 0 -1 -1 
  2459727.1053230       0.990065       0.004643 0 -1 -1 
  2459727.1067120       0.999439       0.004649 0 -1 -1 
  2459727.1081010       1.004851       0.004660 0 -1 -1 
  2459727.1094900       0.999432       0.004652 0 -1 -1 
  2459727.1108790       0.996933       0.004650 0 -1 -1 
  2459727.1122680       0.996108       0.004647 0 -1 -1 
  2459727.1136560       0.997511       0.004659 0 -1 -1 
  2459727.1150450       0.996072       0.004649 0 -1 -1 
  2459727.1164340       0.997775       0.004649 0 -1 -1 
  2459727.1178230       0.998134       0.004660 0 -1 -1 
  2459727.1192120       1.015350       0.004659 0 -1 -1 
  2459727.1206010       0.996986       0.004650 0 -1 -1 
  2459727.1219900       1.000621       0.004651 0 -1 -1 
  2459727.1233790       0.997029       0.004647 0 -1 -1 
  2459727.1247680       1.003068       0.004649 0 -1 -1 
  2459727.1261570       0.994503       0.004647 0 -1 -1 
  2459727.1275460       0.995772       0.004640 0 -1 -1 
  2459727.1289350       0.999758       0.004652 0 -1 -1 
  2459727.1303240       0.999545       0.004648 0 -1 -1 
  2459727.1317120       0.995709       0.004643 0 -1 -1 
  2459727.1331010       0.996151       0.004647 0 -1 -1 
  2459727.1344900       1.001079       0.004644 0 -1 -1 
  2459727.1358790       0.993373       0.004644 0 -1 -1 
  2459727.1372680       1.001750       0.004643 0 -1 -1 
  2459727.1386570       1.007122       0.004650 0 -1 -1 
  2459727.1400460       1.001008       0.004644 0 -1 -1 
  2459727.1414350       0.997283       0.004641 0 -1 -1 
  2459727.1428240       0.993870       0.004643 0 -1 -1 
  2459727.1442130       1.005632       0.004648 0 -1 -1 
  2459727.1456020       1.001243       0.004646 0 -1 -1 
  2459727.1469910       1.002060       0.004646 0 -1 -1 
  2459727.1483790       1.005615       0.004647 0 -1 -1 
  2459727.1497680       0.998508       0.004635 0 -1 -1 
  2459727.1511570       0.996825       0.004639 0 -1 -1 
  2459727.1525460       0.990461       0.004635 0 -1 -1 
  2459727.1539350       0.992116       0.004636 0 -1 -1 
  2459727.1553240       1.003250       0.004642 0 -1 -1 
  2459727.1567130       1.001989       0.004647 0 -1 -1 
  2459727.1581020       1.002833       0.004650 0 -1 -1 
  2459727.1594910       0.996886       0.004642 0 -1 -1 
  2459727.1608800       1.002883       0.004643 0 -1 -1 
  2459727.1622690       1.003795       0.004646 0 -1 -1 
  2459727.1636580       0.997576       0.004639 0 -1 -1 
  2459727.1650470       0.993813       0.004640 0 -1 -1 
  2459727.1664350       0.995256       0.004637 0 -1 -1 
  2459727.1678240       0.996190       0.004637 0 -1 -1 
  2459727.1692130       1.001036       0.004641 0 -1 -1 
  2459727.1706020       0.992652       0.004633 0 -1 -1 
  2459727.1719910       1.002442       0.004640 0 -1 -1 
  2459727.1733800       1.010626       0.004650 0 -1 -1 
  2459727.1747690       0.997929       0.004637 0 -1 -1 
  2459727.1761580       1.003522       0.004640 0 -1 -1 
  2459727.1775470       0.992983       0.004630 0 -1 -1 
  2459727.1789360       1.003168       0.004643 0 -1 -1 
  2459727.1803250       0.997217       0.004643 0 -1 -1 
  2459727.1817140       0.996225       0.004637 0 -1 -1 
  2459727.1831020       0.996749       0.004636 0 -1 -1 
  2459727.1844910       0.993806       0.004632 0 -1 -1 
  2459727.1858800       1.004402       0.004642 0 -1 -1 
  2459727.1872690       0.996194       0.004637 0 -1 -1 
  2459727.1886580       0.999718       0.004636 0 -1 -1 
  2459727.1900470       0.998625       0.004638 0 -1 -1 
  2459727.1914360       0.992442       0.004634 0 -1 -1 
  2459727.1928250       0.994791       0.004636 0 -1 -1 
  2459727.1942140       0.986539       0.004622 0 -1 -1 
  2459727.1956030       1.001357       0.004642 0 -1 -1 
  2459727.1969920       0.996625       0.004635 0 -1 -1 
  2459727.1983810       0.993663       0.004630 0 -1 -1 
  2459727.1997700       0.995774       0.004635 0 -1 -1 
  2459727.2011580       1.002734       0.004638 0 -1 -1 
  2459727.2025470       0.998427       0.004636 0 -1 -1 
  2459727.2039360       1.002360       0.004636 0 -1 -1 
  2459727.2053250       1.001025       0.004635 0 -1 -1 
  2459727.2067140       0.989045       0.004624 0 -1 -1 
  2459727.2081030       0.996846       0.004630 0 -1 -1 
  2459727.2094920       1.005364       0.004640 0 -1 -1 
  2459727.2108810       1.000084       0.004637 0 -1 -1 
  2459727.2122700       0.990525       0.004629 0 -1 -1 
  2459727.2136590       0.999618       0.004634 0 -1 -1 
  2459727.2150480       0.997120       0.004636 0 -1 -1 
  2459727.2164370       0.997737       0.004637 0 -1 -1 
  2459727.2178250       0.989076       0.004627 0 -1 -1 
  2459727.2192140       1.002492       0.004635 0 -1 -1 
  2459727.2206030       0.997438       0.004633 0 -1 -1 
  2459727.2219920       0.995502       0.004630 0 -1 -1 
  2459727.2233810       1.005491       0.004641 0 -1 -1 
  2459727.2247700       0.998275       0.004632 0 -1 -1 
  2459727.2261590       0.999391       0.004630 0 -1 -1 
  2459727.2275480       1.002169       0.004634 0 -1 -1 
  2459727.2289370       1.002902       0.004640 0 -1 -1 
  2459727.2303260       0.992554       0.004626 0 -1 -1 
  2459727.2317150       1.000182       0.004632 0 -1 -1 
  2459727.2331040       0.996608       0.004632 0 -1 -1 
  2459727.2344930       0.997481       0.004631 0 -1 -1 
  2459727.2358810       1.004567       0.004633 0 -1 -1 
  2459727.2372700       0.995541       0.004628 0 -1 -1 
  2459727.2386590       0.994133       0.004631 0 -1 -1 
  2459727.2400480       0.991305       0.004633 0 -1 -1 
  2459727.2414370       0.996505       0.004631 0 -1 -1 
  2459727.2428260       0.997785       0.004634 0 -1 -1 
  2459727.2442150       0.998079       0.004628 0 -1 -1 
  2459727.2456040       0.994951       0.004631 0 -1 -1 
  2459727.2469930       1.005572       0.004642 0 -1 -1 
  2459727.2483820       0.994017       0.004627 0 -1 -1 
  2459727.2497710       1.008007       0.004638 0 -1 -1 
  2459727.2511600       1.005077       0.004637 0 -1 -1 
  2459727.2525480       0.995486       0.004628 0 -1 -1 
  2459727.2539370       1.008753       0.004638 0 -1 -1 
  2459727.2553260       0.997027       0.004625 0 -1 -1 
  2459727.2567150       0.999443       0.004630 0 -1 -1 
  2459727.2581040       1.002142       0.004628 0 -1 -1 
  2459727.2594930       1.008415       0.004635 0 -1 -1 
  2459727.2608820       1.004452       0.004634 0 -1 -1 
  2459727.2622710       1.003600       0.004633 0 -1 -1 
  2459727.2636600       0.995916       0.004625 0 -1 -1 
  2459727.2650490       0.995030       0.004625 0 -1 -1 
  2459727.2664380       0.999066       0.004625 0 -1 -1 
  2459727.2678270       0.996845       0.004628 0 -1 -1 
  2459727.2692160       1.004926       0.004637 0 -1 -1 
  2459727.2706040       0.998425       0.004623 0 -1 -1 
  2459727.2719930       0.993238       0.004620 0 -1 -1 
  2459727.2733820       1.001483       0.004631 0 -1 -1 
  2459727.2747710       1.003666       0.004628 0 -1 -1 
  2459727.2761600       0.996867       0.004623 0 -1 -1 
  2459727.2775490       1.002255       0.004628 0 -1 -1 
  2459727.2789380       0.998247       0.004626 0 -1 -1 
  2459727.2803270       1.003460       0.004627 0 -1 -1 
  2459727.2817160       0.997263       0.004621 0 -1 -1 
  2459727.2831050       1.001188       0.004624 0 -1 -1 
  2459727.2844940       1.000555       0.004625 0 -1 -1 
  2459727.2858830       1.000008       0.004627 0 -1 -1 
  2459727.2872710       0.996506       0.004617 0 -1 -1 
  2459727.2886600       0.996282       0.004616 0 -1 -1 
  2459727.2900490       0.998162       0.004622 0 -1 -1 
  2459727.2914380       0.999024       0.004615 0 -1 -1 
  2459727.2928270       1.008292       0.004629 0 -1 -1 
  2459727.2942160       0.995198       0.004618 0 -1 -1 
  2459727.2956050       1.002278       0.004625 0 -1 -1 
  2459727.2969940       0.998361       0.004620 0 -1 -1 
  2459727.2983830       1.004743       0.004621 0 -1 -1 
  2459727.2997720       1.006682       0.004623 0 -1 -1 
  2459727.3011610       1.001309       0.004621 0 -1 -1 
  2459727.3025500       0.999156       0.004613 0 -1 -1 
  2459727.3039390       1.015320       0.004634 0 -1 -1 
  2459727.3053270       1.002179       0.004616 0 -1 -1 
  2459727.3067160       1.001450       0.004619 0 -1 -1 
  2459727.3081050       1.000126       0.004616 0 -1 -1 
  2459727.3094940       0.998271       0.004616 0 -1 -1 
  2459727.3108830       0.999076       0.004609 0 -1 -1 
  2459727.3122720       0.997677       0.004617 0 -1 -1 
  2459727.3136610       1.002132       0.004613 0 -1 -1 
  2459727.3150500       0.998030       0.004613 0 -1 -1 
  2459727.3164390       1.008443       0.004618 0 -1 -1 
  2459727.3178280       1.000044       0.004612 0 -1 -1 
  2459727.3192170       0.993374       0.004608 0 -1 -1 
  2459727.3206060       1.008904       0.004619 0 -1 -1 
  2459727.3219940       0.995996       0.004609 0 -1 -1 
  2459727.3233830       1.009461       0.004617 0 -1 -1 
  2459727.3247720       1.006662       0.004615 0 -1 -1 
  2459727.3261610       1.007341       0.004613 0 -1 -1 
  2459727.3275500       1.005081       0.004614 0 -1 -1 
  2459727.3289390       0.997024       0.004611 0 -1 -1 
  2459727.3303280       1.002146       0.004608 0 -1 -1 
  2459727.3317170       1.000348       0.004606 0 -1 -1 
  2459727.3331060       1.005096       0.004605 0 -1 -1 
  2459727.3344950       0.998102       0.004600 0 -1 -1 
  2459727.3358840       1.008589       0.004610 0 -1 -1 
  2459727.3372730       1.007681       0.004610 0 -1 -1 
  2459727.3386620       1.002243       0.004605 0 -1 -1 
  2459727.3400500       0.997634       0.004605 0 -1 -1 
  2459727.3414390       0.997763       0.004606 0 -1 -1 
  2459727.3428280       0.998566       0.004599 0 -1 -1 
  2459727.3442170       1.001905       0.004602 0 -1 -1 
  2459727.3456060       1.003370       0.004601 0 -1 -1 
  2459727.3469950       1.003940       0.004604 0 -1 -1 
  2459727.3483840       1.007938       0.004606 0 -1 -1 
  2459727.3497730       0.998795       0.004597 0 -1 -1 
  2459727.3511620       0.988592       0.004587 0 -1 -1 
  2459727.3525510       1.004594       0.004603 0 -1 -1 
  2459727.3539400       0.999673       0.004598 0 -1 -1 
  2459727.3553290       0.997954       0.004597 0 -1 -1 
  2459727.3567170       1.003575       0.004599 0 -1 -1 
  2459727.3581060       1.000843       0.004599 0 -1 -1 
  2459727.3594950       0.994830       0.004592 0 -1 -1 
  2459727.3608840       0.994968       0.004598 0 -1 -1 
  2459727.3622730       0.998933       0.004594 0 -1 -1 
  2459727.3636620       0.997344       0.004592 0 -1 -1 
  2459727.3650510       0.997074       0.004591 0 -1 -1 
  2459727.3664400       1.009129       0.004595 0 -1 -1 
  2459727.3678290       0.997203       0.004588 0 -1 -1 
  2459727.3692180       0.993889       0.004590 0 -1 -1 
  2459727.3706070       0.997776       0.004589 0 -1 -1 
  2459727.3719960       0.998090       0.004596 0 -1 -1 
  2459727.3733850       1.000136       0.004587 0 -1 -1 
  2459727.3747730       1.003812       0.004593 0 -1 -1 
  2459727.3761620       0.999281       0.004587 0 -1 -1 
  2459727.3775510       1.005629       0.004591 0 -1 -1 
  2459727.3789400       1.003819       0.004590 0 -1 -1 
  2459727.3803290       1.000380       0.004584 0 -1 -1 
  2459727.3817180       1.001498       0.004591 0 -1 -1 
  2459727.3831070       0.997824       0.004583 0 -1 -1 
  2459727.3844960       1.003090       0.004588 0 -1 -1 
  2459727.3858850       0.999763       0.004586 0 -1 -1 
  2459727.3872740       0.993928       0.004577 0 -1 -1 
  2459727.3886630       1.004556       0.004586 0 -1 -1 
  2459727.3900520       0.992823       0.004578 0 -1 -1 
  2459727.3914400       1.000800       0.004582 0 -1 -1 
  2459727.3928290       0.994398       0.004573 0 -1 -1 
  2459727.3942180       1.000190       0.004585 0 -1 -1 
  2459727.3956070       1.000185       0.004582 0 -1 -1 
  2459727.3969960       0.995268       0.004580 0 -1 -1 
  2459727.3983850       1.006336       0.004585 0 -1 -1 
  2459727.3997740       1.008004       0.004587 0 -1 -1 
  2459727.4011630       0.999363       0.004581 0 -1 -1 
  2459727.4025520       0.997492       0.004573 0 -1 -1 
  2459727.4039410       0.994018       0.004571 0 -1 -1 
  2459727.4053300       1.001983       0.004579 0 -1 -1 
  2459727.4067190       1.000326       0.004574 0 -1 -1 
  2459727.4081080       1.008002       0.004584 0 -1 -1 
  2459727.4094960       0.989635       0.004571 0 -1 -1 
  2459727.4108850       0.999167       0.004574 0 -1 -1 
  2459727.4122740       1.004246       0.004575 0 -1 -1 
  2459727.4136630       0.998977       0.004576 0 -1 -1 
  2459727.4150520       1.003973       0.004577 0 -1 -1 
  2459727.4164410       1.003907       0.004571 0 -1 -1 
  2459727.4178300       1.002913       0.004580 0 -1 -1 
  2459727.4192190       0.999299       0.004574 0 -1 -1 
  2459727.4206080       0.998768       0.004566 0 -1 -1 
  2459727.4219970       1.007653       0.004585 0 -1 -1 
  2459727.4233860       0.996144       0.004570 0 -1 -1 
  2459727.4247750       1.000873       0.004568 0 -1 -1 
  2459727.4261630       0.996356       0.004573 0 -1 -1 
  2459727.4275520       0.994271       0.004568 0 -1 -1 
  2459727.4289410       1.001656       0.004570 0 -1 -1 
  2459727.4303300       0.997519       0.004565 0 -1 -1 
  2459727.4317190       0.991125       0.004564 0 -1 -1 
  2459727.4331080       0.995359       0.004563 0 -1 -1 
  2459727.4344970       0.997626       0.004568 0 -1 -1 
  2459727.4358860       1.000768       0.004568 0 -1 -1 
  2459727.4372750       0.997421       0.004562 0 -1 -1 
  2459727.4386640       0.996552       0.004565 0 -1 -1 
  2459727.4400530       0.994705       0.004560 0 -1 -1 
  2459727.4414420       1.006820       0.004568 0 -1 -1 
  2459727.4428310       0.999305       0.004567 0 -1 -1 
  2459727.4442190       1.003351       0.004563 0 -1 -1 
  2459727.4456080       1.000651       0.004566 0 -1 -1 
  2459727.4469970       0.998282       0.004562 0 -1 -1 
  2459727.4483860       0.997776       0.004561 0 -1 -1 
  2459727.4497750       0.997820       0.004564 0 -1 -1 
  2459727.4511640       1.000653       0.004561 0 -1 -1 
  2459727.4525530       1.003485       0.004570 0 -1 -1 
  2459727.4539420       0.989975       0.004550 0 -1 -1 
  2459727.4553310       1.002663       0.004572 0 -1 -1 
  2459727.4567200       0.997179       0.004557 0 -1 -1 
  2459727.4581090       1.007732       0.004568 0 -1 -1 
  2459727.4594980       1.003008       0.004569 0 -1 -1 
  2459727.4608860       1.003654       0.004568 0 -1 -1 
  2459727.4622750       0.999281       0.004560 0 -1 -1 
  2459727.4636640       1.004505       0.004562 0 -1 -1 
  2459727.4650530       1.002027       0.004563 0 -1 -1 
  2459727.4664420       1.002787       0.004565 0 -1 -1 
  2459727.4678310       1.000604       0.004559 0 -1 -1 
  2459727.4692200       1.004565       0.004565 0 -1 -1 
  2459727.4706090       1.003325       0.004562 0 -1 -1 
  2459727.4719980       0.993114       0.004552 0 -1 -1 
  2459727.4733870       0.996870       0.004557 0 -1 -1 
  2459727.4747760       1.006567       0.004567 0 -1 -1 
  2459727.4761650       1.000971       0.004559 0 -1 -1 
  2459727.4775540       0.999989       0.004556 0 -1 -1 
  2459727.4789420       1.001033       0.004563 0 -1 -1 
  2459727.4803310       0.997574       0.004559 0 -1 -1 
  2459727.4817200       1.008605       0.004563 0 -1 -1 
  2459727.4831090       0.997815       0.004554 0 -1 -1 
  2459727.4844980       0.996421       0.004556 0 -1 -1 
  2459727.4858870       0.992895       0.004553 0 -1 -1 
  2459727.4872760       0.996020       0.004555 0 -1 -1 
  2459727.4886650       1.004095       0.004559 0 -1 -1 
  2459727.4900540       0.996379       0.004555 0 -1 -1 
  2459727.4914430       0.998552       0.004557 0 -1 -1 
  2459727.4928320       1.003207       0.004563 0 -1 -1 
  2459727.4942210       0.998846       0.004555 0 -1 -1 
  2459727.4956090       1.004104       0.004561 0 -1 -1 
  2459727.4969980       1.005178       0.004561 0 -1 -1 
  2459727.4983870       0.998814       0.004560 0 -1 -1 
  2459727.4997760       0.999854       0.004551 0 -1 -1 
  2459727.5011650       0.996678       0.004554 0 -1 -1 
  2459727.5025540       1.004468       0.004561 0 -1 -1 
  2459727.5039430       1.002809       0.004554 0 -1 -1 
  2459727.5053320       0.995801       0.004549 0 -1 -1 
  2459727.5067210       0.995750       0.004550 0 -1 -1 
  2459727.5081100       1.001644       0.004556 0 -1 -1 
  2459727.5094990       1.009094       0.004572 0 -1 -1 
  2459727.5108880       1.003376       0.004559 0 -1 -1 
  2459727.5122770       1.006295       0.004563 0 -1 -1 
  2459727.5136650       1.005097       0.004558 0 -1 -1 
  2459727.5150540       1.004668       0.004555 0 -1 -1 
  2459727.5164430       1.003285       0.004556 0 -1 -1 
  2459727.5178320       1.000923       0.004559 0 -1 -1 
  2459727.5192210       1.001733       0.004555 0 -1 -1 
  2459727.5206100       0.999387       0.004556 0 -1 -1 
  2459727.5219990       1.004499       0.004558 0 -1 -1 
  2459727.5233880       0.993147       0.004549 0 -1 -1 
  2459727.5247770       1.003441       0.004557 0 -1 -1 
  2459727.5261660       1.006057       0.004556 0 -1 -1 
  2459727.5275550       1.002814       0.004561 0 -1 -1 
  2459727.5289440       0.998309       0.004552 0 -1 -1 
  2459727.5303320       0.999907       0.004558 0 -1 -1 
  2459727.5317210       0.999136       0.004551 0 -1 -1 
  2459727.5331100       0.996895       0.004545 0 -1 -1 
  2459727.5344990       1.005433       0.004557 0 -1 -1 
  2459727.5358880       0.995677       0.004547 0 -1 -1 
