  2459010.5711050       0.993594       0.006688 0 -1 -1 
  2459010.5724940       0.995609       0.006689 0 -1 -1 
  2459010.5738820       1.010092       0.006695 0 -1 -1 
  2459010.5752710       0.993484       0.006701 0 -1 -1 
  2459010.5766600       0.998792       0.006712 0 -1 -1 
  2459010.5780490       0.995438       0.006697 0 -1 -1 
  2459010.5794380       0.999284       0.006693 0 -1 -1 
  2459010.5808270       1.002286       0.006696 0 -1 -1 
  2459010.5822160       1.005755       0.006714 0 -1 -1 
  2459010.5836050       1.000951       0.006702 0 -1 -1 
  2459010.5849940       0.996305       0.006687 0 -1 -1 
  2459010.5863820       0.988978       0.006708 0 -1 -1 
  2459010.5877710       0.998893       0.006694 0 -1 -1 
  2459010.5891600       0.999607       0.006708 0 -1 -1 
  2459010.5905490       1.005272       0.006701 0 -1 -1 
  2459010.5919380       1.009052       0.006710 0 -1 -1 
  2459010.5933270       0.999337       0.006699 0 -1 -1 
  2459010.5947160       0.993242       0.006696 0 -1 -1 
  2459010.5961050       0.994327       0.006705 0 -1 -1 
  2459010.5974940       0.993948       0.006697 0 -1 -1 
  2459010.5988820       1.001144       0.006724 0 -1 -1 
  2459010.6002710       1.003164       0.006712 0 -1 -1 
  2459010.6016600       0.999588       0.006705 0 -1 -1 
  2459010.6030490       0.998924       0.006717 0 -1 -1 
  2459010.6044380       1.009232       0.006725 0 -1 -1 
  2459010.6058270       1.007347       0.006714 0 -1 -1 
  2459010.6072160       0.994873       0.006712 0 -1 -1 
  2459010.6086050       0.999776       0.006720 0 -1 -1 
  2459010.6099940       0.998180       0.006708 0 -1 -1 
  2459010.6113830       1.000106       0.006721 0 -1 -1 
  2459010.6127710       0.989359       0.006713 0 -1 -1 
  2459010.6141600       1.006999       0.006727 0 -1 -1 
  2459010.6155490       1.003483       0.006744 0 -1 -1 
  2459010.6169380       1.003483       0.006723 0 -1 -1 
  2459010.6183270       1.004197       0.006737 0 -1 -1 
  2459010.6197160       0.997099       0.006727 0 -1 -1 
  2459010.6211050       0.998976       0.006723 0 -1 -1 
  2459010.6224940       0.997468       0.006727 0 -1 -1 
  2459010.6238830       1.004220       0.006744 0 -1 -1 
  2459010.6252710       0.998810       0.006731 0 -1 -1 
  2459010.6266600       1.000065       0.006733 0 -1 -1 
  2459010.6280490       1.005699       0.006748 0 -1 -1 
  2459010.6294380       0.992955       0.006737 0 -1 -1 
  2459010.6308270       1.001123       0.006720 0 -1 -1 
  2459010.6322160       0.994640       0.006737 0 -1 -1 
  2459010.6336050       1.003039       0.006730 0 -1 -1 
  2459010.6349940       0.999219       0.006742 0 -1 -1 
  2459010.6363830       0.998823       0.006728 0 -1 -1 
  2459010.6377710       1.002015       0.006729 0 -1 -1 
  2459010.6391600       1.005753       0.006729 0 -1 -1 
  2459010.6405490       0.995525       0.006735 0 -1 -1 
  2459010.6419380       1.004507       0.006733 0 -1 -1 
  2459010.6433270       0.997581       0.006746 0 -1 -1 
  2459010.6447160       0.992033       0.006728 0 -1 -1 
  2459010.6461050       1.000944       0.006734 0 -1 -1 
  2459010.6474940       1.005148       0.006741 0 -1 -1 
  2459010.6488830       0.989747       0.006733 0 -1 -1 
  2459010.6502710       1.003042       0.006732 0 -1 -1 
  2459010.6516600       1.004691       0.006732 0 -1 -1 
  2459010.6530490       0.995174       0.006746 0 -1 -1 
  2459010.6544380       1.004235       0.006753 0 -1 -1 
  2459010.6558270       0.994559       0.006734 0 -1 -1 
  2459010.6572160       1.001969       0.006734 0 -1 -1 
  2459010.6586050       1.000715       0.006760 0 -1 -1 
  2459010.6599940       0.990749       0.006736 0 -1 -1 
  2459010.6613830       0.995321       0.006738 0 -1 -1 
  2459010.6627720       1.005090       0.006741 0 -1 -1 
  2459010.6641600       0.993883       0.006735 0 -1 -1 
  2459010.6655490       1.004421       0.006732 0 -1 -1 
  2459010.6669380       0.999738       0.006741 0 -1 -1 
  2459010.6683270       0.999448       0.006736 0 -1 -1 
  2459010.6697160       1.012903       0.006741 0 -1 -1 
  2459010.6711050       1.005819       0.006736 0 -1 -1 
  2459010.6724940       0.997927       0.006734 0 -1 -1 
  2459010.6738830       1.004551       0.006771 0 -1 -1 
  2459010.6752720       1.007589       0.006739 0 -1 -1 
  2459010.6766600       1.004218       0.006748 0 -1 -1 
  2459010.6780490       0.995537       0.006739 0 -1 -1 
  2459010.6794380       1.004685       0.006755 0 -1 -1 
  2459010.6808270       1.000758       0.006739 0 -1 -1 
  2459010.6822160       1.008398       0.006739 0 -1 -1 
  2459010.6836050       1.006682       0.006745 0 -1 -1 
  2459010.6849940       1.011103       0.006754 0 -1 -1 
  2459010.6863830       1.003844       0.006739 0 -1 -1 
  2459010.6877720       1.002748       0.006741 0 -1 -1 
  2459010.6891600       1.004450       0.006748 0 -1 -1 
  2459010.6905490       0.997614       0.006742 0 -1 -1 
  2459010.6919380       0.998503       0.006740 0 -1 -1 
  2459010.6933270       0.997117       0.006753 0 -1 -1 
  2459010.6947160       0.996730       0.006742 0 -1 -1 
  2459010.6961050       1.004533       0.006766 0 -1 -1 
  2459010.6974940       1.005728       0.006754 0 -1 -1 
  2459010.6988830       0.997280       0.006744 0 -1 -1 
  2459010.7002720       1.003699       0.006766 0 -1 -1 
  2459010.7016600       1.003056       0.006741 0 -1 -1 
  2459010.7030490       0.988476       0.006736 0 -1 -1 
  2459010.7044380       1.001220       0.006755 0 -1 -1 
  2459010.7058270       0.996985       0.006750 0 -1 -1 
  2459010.7072160       1.000684       0.006741 0 -1 -1 
  2459010.7086050       0.999948       0.006738 0 -1 -1 
  2459010.7099940       1.003117       0.006750 0 -1 -1 
  2459010.7113830       0.989572       0.006737 0 -1 -1 
  2459010.7127720       0.994659       0.006765 0 -1 -1 
  2459010.7141610       0.996321       0.006739 0 -1 -1 
  2459010.7155490       0.996458       0.006749 0 -1 -1 
  2459010.7169380       0.996763       0.006750 0 -1 -1 
  2459010.7183270       0.996162       0.006742 0 -1 -1 
  2459010.7197160       0.993500       0.006751 0 -1 -1 
  2459010.7211050       0.992814       0.006744 0 -1 -1 
  2459010.7224940       0.997859       0.006758 0 -1 -1 
  2459010.7238830       1.001939       0.006744 0 -1 -1 
  2459010.7252720       1.003699       0.006748 0 -1 -1 
  2459010.7266610       0.988213       0.006746 0 -1 -1 
  2459010.7280490       1.001015       0.006764 0 -1 -1 
  2459010.7294380       0.999938       0.006749 0 -1 -1 
  2459010.7308270       1.001255       0.006754 0 -1 -1 
  2459010.7322160       0.997357       0.006738 0 -1 -1 
  2459010.7336050       1.010540       0.006747 0 -1 -1 
  2459010.7349940       1.000652       0.006745 0 -1 -1 
  2459010.7363830       1.005945       0.006762 0 -1 -1 
  2459010.7377720       1.002295       0.006744 0 -1 -1 
  2459010.7391610       0.996757       0.006746 0 -1 -1 
  2459010.7405490       0.997233       0.006747 0 -1 -1 
  2459010.7419380       0.999451       0.006753 0 -1 -1 
  2459010.7433270       1.002590       0.006764 0 -1 -1 
  2459010.7447160       0.999026       0.006746 0 -1 -1 
  2459010.7461050       1.004614       0.006801 0 -1 -1 
  2459010.7474940       0.987032       0.006757 0 -1 -1 
  2459010.7488830       0.993042       0.006753 0 -1 -1 
  2459010.7502720       0.998076       0.006754 0 -1 -1 
  2459010.7516610       0.989444       0.006746 0 -1 -1 
  2459010.7530490       1.004512       0.006760 0 -1 -1 
  2459010.7544380       0.997666       0.006750 0 -1 -1 
  2459010.7558270       0.996383       0.006751 0 -1 -1 
  2459010.7572160       0.991080       0.006748 0 -1 -1 
  2459010.7586050       0.998824       0.006757 0 -1 -1 
  2459010.7599940       0.992778       0.006754 0 -1 -1 
  2459010.7613830       0.993935       0.006751 0 -1 -1 
  2459010.7627720       1.003799       0.006757 0 -1 -1 
  2459010.7641610       1.006785       0.006771 0 -1 -1 
  2459010.7655500       1.006177       0.006759 0 -1 -1 
  2459010.7669380       1.002409       0.006762 0 -1 -1 
  2459010.7683270       0.999079       0.006767 0 -1 -1 
  2459010.7697160       1.007801       0.006763 0 -1 -1 
  2459010.7711050       0.995997       0.006770 0 -1 -1 
  2459010.7724940       0.991428       0.006766 0 -1 -1 
  2459010.7738830       1.000358       0.006759 0 -1 -1 
  2459010.7752720       0.996786       0.006765 0 -1 -1 
  2459010.7766610       1.003276       0.006774 0 -1 -1 
  2459010.7780500       0.999501       0.006778 0 -1 -1 
  2459010.7794380       1.002974       0.006765 0 -1 -1 
  2459010.7808270       1.007799       0.006768 0 -1 -1 
  2459010.7822160       0.990728       0.006761 0 -1 -1 
  2459010.7836050       1.006305       0.006769 0 -1 -1 
  2459010.7849940       1.001731       0.006771 0 -1 -1 
  2459010.7863830       0.993297       0.006776 0 -1 -1 
  2459010.7877720       1.005221       0.006773 0 -1 -1 
  2459010.7891610       1.004514       0.006773 0 -1 -1 
  2459010.7905500       1.000818       0.006778 0 -1 -1 
  2459010.7919380       0.997494       0.006775 0 -1 -1 
  2459010.7933270       1.000512       0.006773 0 -1 -1 
  2459010.7947160       0.989977       0.006769 0 -1 -1 
  2459010.7961050       1.007395       0.006779 0 -1 -1 
  2459010.7974940       0.997724       0.006774 0 -1 -1 
  2459010.7988830       1.000611       0.006778 0 -1 -1 
  2459010.8002720       0.990972       0.006801 0 -1 -1 
  2459010.8016610       0.992318       0.006776 0 -1 -1 
  2459010.8030500       1.004169       0.006781 0 -1 -1 
  2459010.8044380       0.992084       0.006784 0 -1 -1 
  2459010.8058270       1.001973       0.006790 0 -1 -1 
  2459010.8072160       1.004688       0.006783 0 -1 -1 
  2459010.8086050       1.002730       0.006786 0 -1 -1 
  2459010.8099940       1.001308       0.006786 0 -1 -1 
  2459010.8113830       1.004762       0.006780 0 -1 -1 
  2459010.8127720       1.006916       0.006830 0 -1 -1 
  2459010.8141610       1.000675       0.006794 0 -1 -1 
  2459010.8155500       0.999332       0.006793 0 -1 -1 
  2459010.8169390       1.008538       0.006807 0 -1 -1 
  2459010.8183270       0.996501       0.006790 0 -1 -1 
  2459010.8197160       1.002968       0.006796 0 -1 -1 
  2459010.8211050       0.997078       0.006798 0 -1 -1 
  2459010.8224940       0.996071       0.006794 0 -1 -1 
  2459010.8238830       0.996704       0.006798 0 -1 -1 
  2459010.8252720       0.989623       0.006805 0 -1 -1 
  2459010.8266610       1.003627       0.006797 0 -1 -1 
  2459010.8280500       1.001734       0.006791 0 -1 -1 
  2459010.8294390       0.998247       0.006801 0 -1 -1 
  2459010.8308270       1.003756       0.006802 0 -1 -1 
  2459010.8322160       1.002059       0.006790 0 -1 -1 
  2459010.8336050       1.000051       0.006810 0 -1 -1 
  2459010.8349940       0.992558       0.006803 0 -1 -1 
  2459010.8363830       0.998760       0.006800 0 -1 -1 
  2459010.8377720       1.003976       0.006797 0 -1 -1 
  2459010.8391610       0.991949       0.006803 0 -1 -1 
  2459010.8405500       1.011412       0.006818 0 -1 -1 
  2459010.8419390       1.002599       0.006804 0 -1 -1 
  2459010.8433270       0.999935       0.006809 0 -1 -1 
  2459010.8447160       0.996074       0.006803 0 -1 -1 
  2459010.8461050       1.000647       0.006806 0 -1 -1 
  2459010.8474940       1.011051       0.006808 0 -1 -1 
  2459010.8488830       1.000281       0.006803 0 -1 -1 
  2459010.8502720       1.001782       0.006812 0 -1 -1 
  2459010.8516610       0.996706       0.006822 0 -1 -1 
  2459010.8530500       1.010055       0.006815 0 -1 -1 
  2459010.8544390       0.993925       0.006805 0 -1 -1 
  2459010.8558270       0.992946       0.006802 0 -1 -1 
  2459010.8572160       0.997404       0.006805 0 -1 -1 
  2459010.8586050       0.995280       0.006802 0 -1 -1 
  2459010.8599940       0.991160       0.006805 0 -1 -1 
  2459010.8613830       1.002074       0.006813 0 -1 -1 
  2459010.8627720       0.993931       0.006810 0 -1 -1 
  2459010.8641610       1.002341       0.006824 0 -1 -1 
  2459010.8655500       1.008446       0.006819 0 -1 -1 
  2459010.8669390       0.996375       0.006828 0 -1 -1 
  2459010.8683280       1.005199       0.006815 0 -1 -1 
  2459010.8697160       0.998501       0.006809 0 -1 -1 
  2459010.8711050       1.006658       0.006816 0 -1 -1 
  2459010.8724940       1.001640       0.006808 0 -1 -1 
  2459010.8738830       1.002066       0.006832 0 -1 -1 
  2459010.8752720       1.003333       0.006822 0 -1 -1 
  2459010.8766610       1.001470       0.006810 0 -1 -1 
  2459010.8780500       0.996111       0.006814 0 -1 -1 
  2459010.8794390       1.004487       0.006817 0 -1 -1 
  2459010.8808280       1.006363       0.006813 0 -1 -1 
  2459010.8822160       1.005924       0.006827 0 -1 -1 
  2459010.8836050       1.008358       0.006854 0 -1 -1 
  2459010.8849940       1.004713       0.006809 0 -1 -1 
  2459010.8863830       0.992094       0.006810 0 -1 -1 
  2459010.8877720       1.006420       0.006813 0 -1 -1 
  2459010.8891610       0.998822       0.006824 0 -1 -1 
  2459010.8905500       0.996860       0.006813 0 -1 -1 
  2459010.8919390       0.994522       0.006818 0 -1 -1 
  2459010.8933280       0.997431       0.006819 0 -1 -1 
  2459010.8947160       1.004552       0.006818 0 -1 -1 
  2459010.8961050       1.001335       0.006823 0 -1 -1 
  2459010.8974940       0.990418       0.006810 0 -1 -1 
  2459010.8988830       0.992390       0.006823 0 -1 -1 
  2459010.9002720       0.989801       0.006806 0 -1 -1 
  2459010.9016610       0.997355       0.006817 0 -1 -1 
  2459010.9030500       1.005667       0.006820 0 -1 -1 
  2459010.9044390       1.003754       0.006819 0 -1 -1 
  2459010.9058280       1.000394       0.006845 0 -1 -1 
  2459010.9072160       1.007749       0.006829 0 -1 -1 
  2459010.9086050       0.997256       0.006813 0 -1 -1 
  2459010.9099940       1.000783       0.006846 0 -1 -1 
  2459010.9113830       1.007744       0.006824 0 -1 -1 
  2459010.9127720       1.010315       0.006830 0 -1 -1 
  2459010.9141610       0.999486       0.006819 0 -1 -1 
  2459010.9155500       0.993299       0.006809 0 -1 -1 
  2459010.9169390       0.994883       0.006813 0 -1 -1 
  2459010.9183280       1.000082       0.006811 0 -1 -1 
  2459010.9197170       0.999511       0.006821 0 -1 -1 
  2459010.9211050       1.003122       0.006820 0 -1 -1 
  2459010.9224940       1.006189       0.006822 0 -1 -1 
  2459010.9238830       0.997158       0.006811 0 -1 -1 
  2459010.9252720       0.983503       0.006808 0 -1 -1 
  2459010.9266610       0.994339       0.006806 0 -1 -1 
  2459010.9280500       0.992762       0.006812 0 -1 -1 
  2459010.9294390       0.999492       0.006811 0 -1 -1 
  2459010.9308280       0.991843       0.006807 0 -1 -1 
  2459010.9322170       0.992978       0.006815 0 -1 -1 
  2459010.9336050       0.996239       0.006821 0 -1 -1 
  2459010.9349940       0.990525       0.006819 0 -1 -1 
  2459010.9363830       1.007083       0.006823 0 -1 -1 
  2459010.9377720       1.003727       0.006813 0 -1 -1 
  2459010.9391610       0.993354       0.006811 0 -1 -1 
  2459010.9405500       1.010666       0.006817 0 -1 -1 
  2459010.9419390       1.006190       0.006811 0 -1 -1 
  2459010.9433280       1.015374       0.006822 0 -1 -1 
  2459010.9447170       0.995390       0.006823 0 -1 -1 
  2459010.9461050       0.998290       0.006808 0 -1 -1 
  2459010.9474940       0.993630       0.006797 0 -1 -1 
  2459010.9488830       1.006125       0.006818 0 -1 -1 
  2459010.9502720       1.001081       0.006818 0 -1 -1 
  2459010.9516610       1.003142       0.006807 0 -1 -1 
  2459010.9530500       0.995877       0.006806 0 -1 -1 
  2459010.9544390       1.002154       0.006817 0 -1 -1 
  2459010.9558280       1.004765       0.006821 0 -1 -1 
  2459010.9572170       1.000015       0.006812 0 -1 -1 
  2459010.9586060       1.007273       0.006811 0 -1 -1 
  2459010.9599940       1.000870       0.006807 0 -1 -1 
  2459010.9613830       1.006311       0.006826 0 -1 -1 
  2459010.9627720       1.005063       0.006809 0 -1 -1 
  2459010.9641610       1.004347       0.006813 0 -1 -1 
  2459010.9655500       0.995162       0.006804 0 -1 -1 
  2459010.9669390       0.993352       0.006797 0 -1 -1 
  2459010.9683280       1.001391       0.006818 0 -1 -1 
  2459010.9697170       1.017155       0.006811 0 -1 -1 
  2459010.9711060       0.993253       0.006807 0 -1 -1 
  2459010.9724940       1.006794       0.006818 0 -1 -1 
  2459010.9738830       1.004983       0.006797 0 -1 -1 
  2459010.9752720       1.002118       0.006801 0 -1 -1 
  2459010.9766610       1.001125       0.006856 0 -1 -1 
  2459010.9780500       0.998831       0.006801 0 -1 -1 
  2459010.9794390       0.998542       0.006803 0 -1 -1 
  2459010.9808280       0.993882       0.006795 0 -1 -1 
  2459010.9822170       1.002956       0.006811 0 -1 -1 
  2459010.9836060       0.998721       0.006806 0 -1 -1 
  2459010.9849940       1.002826       0.006801 0 -1 -1 
  2459010.9863830       1.005527       0.006831 0 -1 -1 
  2459010.9877720       0.992427       0.006831 0 -1 -1 
  2459010.9891610       1.000202       0.006788 0 -1 -1 
  2459010.9905500       0.993758       0.006803 0 -1 -1 
  2459010.9919390       0.996914       0.006809 0 -1 -1 
  2459010.9933280       1.002095       0.006791 0 -1 -1 
  2459010.9947170       0.998948       0.006797 0 -1 -1 
  2459010.9961060       1.008599       0.006797 0 -1 -1 
  2459010.9974940       1.003894       0.006797 0 -1 -1 
  2459010.9988830       1.006613       0.006804 0 -1 -1 
  2459011.0002720       1.005499       0.006801 0 -1 -1 
  2459011.0016610       1.000487       0.006794 0 -1 -1 
  2459011.0030500       0.994043       0.006797 0 -1 -1 
  2459011.0044390       1.003094       0.006797 0 -1 -1 
  2459011.0058280       0.996931       0.006791 0 -1 -1 
  2459011.0072170       1.004441       0.006801 0 -1 -1 
  2459011.0086060       1.001941       0.006795 0 -1 -1 
  2459011.0099950       0.991952       0.006788 0 -1 -1 
  2459011.0113830       1.011508       0.006804 0 -1 -1 
  2459011.0127720       0.998575       0.006793 0 -1 -1 
  2459011.0141610       1.002638       0.006796 0 -1 -1 
  2459011.0155500       1.003161       0.006798 0 -1 -1 
  2459011.0169390       0.994083       0.006792 0 -1 -1 
  2459011.0183280       0.995885       0.006802 0 -1 -1 
  2459011.0197170       1.005200       0.006793 0 -1 -1 
  2459011.0211060       1.000867       0.006797 0 -1 -1 
  2459011.0224950       1.003051       0.006793 0 -1 -1 
  2459011.0238830       1.005070       0.006794 0 -1 -1 
  2459011.0252720       1.005542       0.006803 0 -1 -1 
  2459011.0266610       0.996452       0.006797 0 -1 -1 
  2459011.0280500       1.000832       0.006784 0 -1 -1 
  2459011.0294390       0.998559       0.006793 0 -1 -1 
  2459011.0308280       1.007307       0.006794 0 -1 -1 
  2459011.0322170       0.994523       0.006791 0 -1 -1 
  2459011.0336060       1.006146       0.006804 0 -1 -1 
  2459011.0349950       1.000329       0.006790 0 -1 -1 
  2459011.0363830       1.003442       0.006791 0 -1 -1 
  2459011.0377720       1.002536       0.006796 0 -1 -1 
  2459011.0391610       0.993745       0.006788 0 -1 -1 
  2459011.0405500       1.001399       0.006787 0 -1 -1 
  2459011.0419390       1.002333       0.006798 0 -1 -1 
  2459011.0433280       1.000774       0.006799 0 -1 -1 
  2459011.0447170       1.001856       0.006791 0 -1 -1 
  2459011.0461060       1.002472       0.006799 0 -1 -1 
  2459011.0474950       1.008844       0.006803 0 -1 -1 
  2459011.0488830       1.005865       0.006794 0 -1 -1 
  2459011.0502720       0.999655       0.006793 0 -1 -1 
  2459011.0516610       1.004188       0.006795 0 -1 -1 
  2459011.0530500       1.000009       0.006796 0 -1 -1 
  2459011.0544390       1.005194       0.006798 0 -1 -1 
  2459011.0558280       1.000468       0.006794 0 -1 -1 
  2459011.0572170       1.002077       0.006794 0 -1 -1 
  2459011.0586060       1.000404       0.006789 0 -1 -1 
  2459011.0599950       1.009819       0.006802 0 -1 -1 
  2459011.0613840       1.003954       0.006803 0 -1 -1 
  2459011.0627720       0.996473       0.006789 0 -1 -1 
  2459011.0641610       1.003858       0.006798 0 -1 -1 
  2459011.0655500       0.999590       0.006789 0 -1 -1 
  2459011.0669390       0.995904       0.006790 0 -1 -1 
  2459011.0683280       1.012627       0.006798 0 -1 -1 
  2459011.0697170       0.991296       0.006786 0 -1 -1 
  2459011.0711060       1.004803       0.006797 0 -1 -1 
  2459011.0724950       0.986842       0.006781 0 -1 -1 
  2459011.0738840       0.996035       0.006796 0 -1 -1 
  2459011.0752720       0.998486       0.006792 0 -1 -1 
  2459011.0766610       1.002359       0.006798 0 -1 -1 
  2459011.0780500       1.000959       0.006806 0 -1 -1 
  2459011.0794390       1.003514       0.006836 0 -1 -1 
  2459011.0808280       0.990381       0.006783 0 -1 -1 
  2459011.0822170       0.989774       0.006809 0 -1 -1 
  2459011.0836060       1.003345       0.006789 0 -1 -1 
  2459011.0849950       0.993069       0.006786 0 -1 -1 
  2459011.0863840       1.001417       0.006790 0 -1 -1 
  2459011.0877720       0.998880       0.006794 0 -1 -1 
  2459011.0891610       1.002031       0.006809 0 -1 -1 
  2459011.0905500       1.008934       0.006838 0 -1 -1 
  2459011.0919390       0.995930       0.006785 0 -1 -1 
  2459011.0933280       1.004361       0.006799 0 -1 -1 
  2459011.0947170       1.009373       0.006803 0 -1 -1 
  2459011.0961060       1.002838       0.006792 0 -1 -1 
  2459011.0974950       0.990274       0.006790 0 -1 -1 
  2459011.0988840       0.994554       0.006790 0 -1 -1 
  2459011.1002730       0.995523       0.006787 0 -1 -1 
  2459011.1016610       1.004812       0.006803 0 -1 -1 
  2459011.1030500       1.001172       0.006839 0 -1 -1 
  2459011.1044390       1.006887       0.006800 0 -1 -1 
  2459011.1058280       1.004935       0.006803 0 -1 -1 
  2459011.1072170       0.999393       0.006795 0 -1 -1 
  2459011.1086060       0.998422       0.006803 0 -1 -1 
  2459011.1099950       0.998485       0.006799 0 -1 -1 
  2459011.1113840       0.989013       0.006794 0 -1 -1 
  2459011.1127730       1.003434       0.006803 0 -1 -1 
  2459011.1141610       1.003460       0.006807 0 -1 -1 
  2459011.1155500       1.014254       0.006827 0 -1 -1 
  2459011.1169390       0.995472       0.006798 0 -1 -1 
  2459011.1183280       0.990477       0.006783 0 -1 -1 
  2459011.1197170       1.005112       0.006800 0 -1 -1 
  2459011.1211060       1.012674       0.006839 0 -1 -1 
  2459011.1224950       1.005995       0.006813 0 -1 -1 
  2459011.1238840       1.000194       0.006813 0 -1 -1 
  2459011.1252730       1.000201       0.006797 0 -1 -1 
  2459011.1266610       0.998715       0.006812 0 -1 -1 
  2459011.1280500       0.991872       0.006787 0 -1 -1 
  2459011.1294390       0.991953       0.006789 0 -1 -1 
  2459011.1308280       1.004206       0.006801 0 -1 -1 
  2459011.1322170       1.004748       0.006796 0 -1 -1 
  2459011.1336060       1.002188       0.006803 0 -1 -1 
  2459011.1349950       1.007086       0.006811 0 -1 -1 
  2459011.1363840       0.996250       0.006795 0 -1 -1 
  2459011.1377730       0.990448       0.006809 0 -1 -1 
  2459011.1391610       1.012703       0.006812 0 -1 -1 
  2459011.1405500       1.004798       0.006798 0 -1 -1 
  2459011.1419390       0.986689       0.006790 0 -1 -1 
  2459011.1433280       0.997908       0.006801 0 -1 -1 
  2459011.1447170       0.997390       0.006820 0 -1 -1 
  2459011.1461060       0.999788       0.006813 0 -1 -1 
  2459011.1474950       0.998929       0.006797 0 -1 -1 
  2459011.1488840       1.000786       0.006798 0 -1 -1 
  2459011.1502730       1.000281       0.006801 0 -1 -1 
  2459011.1516620       0.998320       0.006799 0 -1 -1 
  2459011.1530500       0.995257       0.006804 0 -1 -1 
  2459011.1544390       0.998040       0.006800 0 -1 -1 
  2459011.1558280       1.002735       0.006802 0 -1 -1 
  2459011.1572170       1.001528       0.006841 0 -1 -1 
  2459011.1586060       0.992567       0.006805 0 -1 -1 
  2459011.1599950       1.003562       0.006800 0 -1 -1 
  2459011.1613840       1.003560       0.006802 0 -1 -1 
  2459011.1627730       1.003928       0.006802 0 -1 -1 
  2459011.1641620       0.999360       0.006801 0 -1 -1 
  2459011.1655500       0.997196       0.006795 0 -1 -1 
  2459011.1669390       1.003674       0.006809 0 -1 -1 
  2459011.1683280       1.005729       0.006810 0 -1 -1 
  2459011.1697170       0.992727       0.006808 0 -1 -1 
  2459011.1711060       0.997512       0.006841 0 -1 -1 
  2459011.1724950       1.002211       0.006810 0 -1 -1 
  2459011.1738840       1.002974       0.006815 0 -1 -1 
  2459011.1752730       0.997414       0.006804 0 -1 -1 
  2459011.1766620       0.998263       0.006809 0 -1 -1 
  2459011.1780500       0.995406       0.006799 0 -1 -1 
  2459011.1794390       1.001884       0.006810 0 -1 -1 
  2459011.1808280       1.000878       0.006806 0 -1 -1 
  2459011.1822170       1.001035       0.006811 0 -1 -1 
  2459011.1836060       0.993207       0.006810 0 -1 -1 
  2459011.1849950       1.000937       0.006808 0 -1 -1 
  2459011.1863840       0.997617       0.006802 0 -1 -1 
  2459011.1877730       1.000803       0.006801 0 -1 -1 
  2459011.1891620       0.996670       0.006802 0 -1 -1 
  2459011.1905500       1.002896       0.006814 0 -1 -1 
  2459011.1919390       1.006103       0.006808 0 -1 -1 
  2459011.1933280       1.000368       0.006808 0 -1 -1 
  2459011.1947170       1.011196       0.006814 0 -1 -1 
  2459011.1961060       0.989676       0.006811 0 -1 -1 
  2459011.1974950       0.993484       0.006798 0 -1 -1 
  2459011.1988840       1.000763       0.006817 0 -1 -1 
  2459011.2002730       0.999192       0.006798 0 -1 -1 
  2459011.2016620       1.004935       0.006809 0 -1 -1 
  2459011.2030510       0.997137       0.006809 0 -1 -1 
  2459011.2044390       1.004339       0.006801 0 -1 -1 
  2459011.2058280       1.002800       0.006827 0 -1 -1 
  2459011.2072170       0.987224       0.006802 0 -1 -1 
  2459011.2086060       1.001302       0.006838 0 -1 -1 
  2459011.2099950       0.999471       0.006847 0 -1 -1 
  2459011.2113840       1.004738       0.006812 0 -1 -1 
  2459011.2127730       1.005824       0.006810 0 -1 -1 
  2459011.2141620       1.001004       0.006803 0 -1 -1 
  2459011.2155510       0.996655       0.006798 0 -1 -1 
  2459011.2169390       0.988971       0.006818 0 -1 -1 
  2459011.2183280       0.993340       0.006804 0 -1 -1 
  2459011.2197170       0.998071       0.006798 0 -1 -1 
  2459011.2211060       0.997290       0.006803 0 -1 -1 
  2459011.2224950       0.993025       0.006801 0 -1 -1 
  2459011.2238840       1.007008       0.006816 0 -1 -1 
  2459011.2252730       0.995350       0.006810 0 -1 -1 
  2459011.2266620       1.003449       0.006823 0 -1 -1 
  2459011.2280510       0.998748       0.006807 0 -1 -1 
  2459011.2294390       1.004527       0.006815 0 -1 -1 
  2459011.2308280       1.004823       0.006812 0 -1 -1 
  2459011.2322170       1.008408       0.006814 0 -1 -1 
  2459011.2336060       1.000425       0.006809 0 -1 -1 
  2459011.2349950       0.995342       0.006839 0 -1 -1 
  2459011.2363840       1.006196       0.006799 0 -1 -1 
  2459011.2377730       1.008526       0.006814 0 -1 -1 
  2459011.2391620       1.009273       0.006806 0 -1 -1 
  2459011.2405510       1.007043       0.006806 0 -1 -1 
  2459011.2419400       1.007469       0.006807 0 -1 -1 
  2459011.2433280       1.004167       0.006848 0 -1 -1 
  2459011.2447170       1.001566       0.006808 0 -1 -1 
  2459011.2461060       0.996924       0.006806 0 -1 -1 
  2459011.2474950       0.988447       0.006797 0 -1 -1 
  2459011.2488840       0.998302       0.006813 0 -1 -1 
  2459011.2502730       1.004518       0.006818 0 -1 -1 
  2459011.2516620       0.999878       0.006801 0 -1 -1 
  2459011.2530510       0.997649       0.006801 0 -1 -1 
  2459011.2544400       1.000340       0.006804 0 -1 -1 
  2459011.2558280       1.004261       0.006817 0 -1 -1 
  2459011.2572170       1.004933       0.006805 0 -1 -1 
  2459011.2586060       0.997962       0.006825 0 -1 -1 
  2459011.2599950       1.000588       0.006796 0 -1 -1 
  2459011.2613840       0.994599       0.006791 0 -1 -1 
  2459011.2627730       0.999434       0.006816 0 -1 -1 
  2459011.2641620       1.007957       0.006826 0 -1 -1 
  2459011.2655510       0.997716       0.006796 0 -1 -1 
  2459011.2669400       1.002963       0.006809 0 -1 -1 
  2459011.2683280       0.999551       0.006792 0 -1 -1 
  2459011.2697170       1.001864       0.006801 0 -1 -1 
  2459011.2711060       0.992968       0.006790 0 -1 -1 
  2459011.2724950       0.989674       0.006803 0 -1 -1 
  2459011.2738840       1.002650       0.006789 0 -1 -1 
  2459011.2752730       0.992372       0.006798 0 -1 -1 
  2459011.2766620       1.002406       0.006806 0 -1 -1 
  2459011.2780510       1.005313       0.006797 0 -1 -1 
  2459011.2794400       0.997749       0.006789 0 -1 -1 
  2459011.2808280       0.992834       0.006785 0 -1 -1 
  2459011.2822170       0.989563       0.006798 0 -1 -1 
  2459011.2836060       0.996074       0.006787 0 -1 -1 
  2459011.2849950       1.006203       0.006798 0 -1 -1 
  2459011.2863840       1.001609       0.006785 0 -1 -1 
  2459011.2877730       0.995895       0.006795 0 -1 -1 
  2459011.2891620       0.994169       0.006807 0 -1 -1 
  2459011.2905510       1.004895       0.006795 0 -1 -1 
  2459011.2919400       1.013874       0.006799 0 -1 -1 
  2459011.2933290       0.993468       0.006778 0 -1 -1 
  2459011.2947170       0.990902       0.006782 0 -1 -1 
  2459011.2961060       0.998829       0.006791 0 -1 -1 
  2459011.2974950       0.997611       0.006787 0 -1 -1 
  2459011.2988840       1.001499       0.006782 0 -1 -1 
  2459011.3002730       0.992792       0.006774 0 -1 -1 
  2459011.3016620       1.000110       0.006779 0 -1 -1 
  2459011.3030510       1.001244       0.006791 0 -1 -1 
  2459011.3044400       0.992665       0.006785 0 -1 -1 
  2459011.3058290       0.999773       0.006781 0 -1 -1 
  2459011.3072170       1.003574       0.006785 0 -1 -1 
  2459011.3086060       1.004384       0.006778 0 -1 -1 
  2459011.3099950       1.004727       0.006783 0 -1 -1 
  2459011.3113840       1.001243       0.006786 0 -1 -1 
  2459011.3127730       0.991864       0.006779 0 -1 -1 
  2459011.3141620       0.995792       0.006782 0 -1 -1 
  2459011.3155510       1.002934       0.006778 0 -1 -1 
  2459011.3169400       1.001587       0.006808 0 -1 -1 
  2459011.3183290       1.001383       0.006797 0 -1 -1 
  2459011.3197170       0.998944       0.006788 0 -1 -1 
  2459011.3211060       1.003766       0.006788 0 -1 -1 
  2459011.3224950       1.005427       0.006782 0 -1 -1 
  2459011.3238840       0.996579       0.006773 0 -1 -1 
  2459011.3252730       0.998666       0.006795 0 -1 -1 
  2459011.3266620       1.001474       0.006775 0 -1 -1 
  2459011.3280510       1.001308       0.006782 0 -1 -1 
  2459011.3294400       0.997549       0.006771 0 -1 -1 
  2459011.3308290       0.995690       0.006782 0 -1 -1 
  2459011.3322180       0.999470       0.006777 0 -1 -1 
  2459011.3336060       1.005398       0.006775 0 -1 -1 
  2459011.3349950       1.006915       0.006774 0 -1 -1 
  2459011.3363840       0.992568       0.006765 0 -1 -1 
  2459011.3377730       1.003791       0.006781 0 -1 -1 
  2459011.3391620       0.996766       0.006768 0 -1 -1 
  2459011.3405510       0.993947       0.006782 0 -1 -1 
  2459011.3419400       1.000754       0.006770 0 -1 -1 
  2459011.3433290       0.996578       0.006761 0 -1 -1 
  2459011.3447180       1.002571       0.006774 0 -1 -1 
  2459011.3461060       1.000802       0.006770 0 -1 -1 
  2459011.3474950       0.990950       0.006761 0 -1 -1 
  2459011.3488840       0.997416       0.006762 0 -1 -1 
  2459011.3502730       1.008501       0.006775 0 -1 -1 
  2459011.3516620       0.999824       0.006805 0 -1 -1 
  2459011.3530510       0.998452       0.006765 0 -1 -1 
  2459011.3544400       0.994557       0.006764 0 -1 -1 
  2459011.3558290       1.007575       0.006829 0 -1 -1 
  2459011.3572180       0.987479       0.006760 0 -1 -1 
  2459011.3586060       0.998379       0.006780 0 -1 -1 
  2459011.3599950       1.000630       0.006756 0 -1 -1 
  2459011.3613840       0.995395       0.006766 0 -1 -1 
  2459011.3627730       1.002732       0.006772 0 -1 -1 
  2459011.3641620       0.995194       0.006773 0 -1 -1 
  2459011.3655510       0.997804       0.006792 0 -1 -1 
  2459011.3669400       1.004240       0.006764 0 -1 -1 
  2459011.3683290       0.998409       0.006769 0 -1 -1 
  2459011.3697180       1.012272       0.006782 0 -1 -1 
  2459011.3711070       1.000710       0.006762 0 -1 -1 
  2459011.3724950       0.995810       0.006756 0 -1 -1 
  2459011.3738840       0.995199       0.006768 0 -1 -1 
  2459011.3752730       1.001816       0.006761 0 -1 -1 
  2459011.3766620       0.998029       0.006789 0 -1 -1 
  2459011.3780510       0.993567       0.006756 0 -1 -1 
  2459011.3794400       1.011129       0.006768 0 -1 -1 
  2459011.3808290       1.003132       0.006819 0 -1 -1 
  2459011.3822180       0.993030       0.006764 0 -1 -1 
  2459011.3836070       0.997383       0.006764 0 -1 -1 
  2459011.3849950       0.996269       0.006772 0 -1 -1 
  2459011.3863840       1.005812       0.006775 0 -1 -1 
  2459011.3877730       0.990055       0.006760 0 -1 -1 
  2459011.3891620       1.001252       0.006781 0 -1 -1 
  2459011.3905510       1.008614       0.006770 0 -1 -1 
  2459011.3919400       1.003403       0.006783 0 -1 -1 
  2459011.3933290       1.007083       0.006764 0 -1 -1 
  2459011.3947180       0.992668       0.006760 0 -1 -1 
  2459011.3961070       0.992807       0.006769 0 -1 -1 
  2459011.3974950       0.998536       0.006768 0 -1 -1 
  2459011.3988840       0.998253       0.006766 0 -1 -1 
  2459011.4002730       1.003777       0.006779 0 -1 -1 
  2459011.4016620       1.002453       0.006767 0 -1 -1 
  2459011.4030510       0.998406       0.006774 0 -1 -1 
  2459011.4044400       0.993474       0.006768 0 -1 -1 
  2459011.4058290       0.995193       0.006763 0 -1 -1 
  2459011.4072180       0.998942       0.006768 0 -1 -1 
  2459011.4086070       0.997062       0.006772 0 -1 -1 
  2459011.4099950       0.996966       0.006773 0 -1 -1 
  2459011.4113840       0.998879       0.006769 0 -1 -1 
  2459011.4127730       0.995767       0.006776 0 -1 -1 
  2459011.4141620       0.989927       0.006766 0 -1 -1 
  2459011.4155510       1.001730       0.006781 0 -1 -1 
  2459011.4169400       0.991682       0.006778 0 -1 -1 
  2459011.4183290       0.999686       0.006771 0 -1 -1 
  2459011.4197180       0.997502       0.006767 0 -1 -1 
  2459011.4211070       0.998069       0.006772 0 -1 -1 
  2459011.4224960       1.001426       0.006774 0 -1 -1 
  2459011.4238840       0.996113       0.006790 0 -1 -1 
  2459011.4252730       0.998507       0.006772 0 -1 -1 
  2459011.4266620       1.002354       0.006775 0 -1 -1 
  2459011.4280510       0.998693       0.006778 0 -1 -1 
  2459011.4294400       1.000177       0.006773 0 -1 -1 
  2459011.4308290       0.992927       0.006774 0 -1 -1 
  2459011.4322180       0.999156       0.006792 0 -1 -1 
  2459011.4336070       0.990912       0.006768 0 -1 -1 
  2459011.4349960       1.000504       0.006792 0 -1 -1 
  2459011.4363840       1.001924       0.006791 0 -1 -1 
  2459011.4377730       1.009099       0.006790 0 -1 -1 
  2459011.4391620       0.998080       0.006778 0 -1 -1 
  2459011.4405510       0.995410       0.006786 0 -1 -1 
  2459011.4419400       0.997753       0.006786 0 -1 -1 
  2459011.4433290       1.001175       0.006795 0 -1 -1 
  2459011.4447180       1.003743       0.006781 0 -1 -1 
  2459011.4461070       0.995928       0.006803 0 -1 -1 
  2459011.4474960       1.004893       0.006784 0 -1 -1 
  2459011.4488840       0.989742       0.006811 0 -1 -1 
  2459011.4502730       0.999359       0.006790 0 -1 -1 
  2459011.4516620       0.995736       0.006791 0 -1 -1 
  2459011.4530510       0.998362       0.006799 0 -1 -1 
  2459011.4544400       1.003042       0.006802 0 -1 -1 
  2459011.4558290       1.012736       0.006798 0 -1 -1 
  2459011.4572180       0.999003       0.006823 0 -1 -1 
  2459011.4586070       0.999873       0.006801 0 -1 -1 
  2459011.4599960       1.000137       0.006793 0 -1 -1 
  2459011.4613850       1.002290       0.006804 0 -1 -1 
  2459011.4627730       1.001746       0.006808 0 -1 -1 
  2459011.4641620       1.006097       0.006806 0 -1 -1 
  2459011.4655510       1.005081       0.006809 0 -1 -1 
  2459011.4669400       1.000003       0.006810 0 -1 -1 
  2459011.4683290       0.991177       0.006800 0 -1 -1 
  2459011.4697180       1.006891       0.006845 0 -1 -1 
  2459011.4711070       0.994809       0.006801 0 -1 -1 
  2459011.4724960       0.992272       0.006803 0 -1 -1 
  2459011.4738850       1.001855       0.006821 0 -1 -1 
  2459011.4752730       1.009206       0.006830 0 -1 -1 
  2459011.4766620       1.011946       0.006825 0 -1 -1 
  2459011.4780510       0.998506       0.006844 0 -1 -1 
  2459011.4794400       0.994390       0.006822 0 -1 -1 
  2459011.4808290       1.011504       0.006834 0 -1 -1 
  2459011.4822180       1.004673       0.006829 0 -1 -1 
  2459011.4836070       1.000346       0.006817 0 -1 -1 
  2459011.4849960       0.997973       0.006822 0 -1 -1 
  2459011.4863850       1.001465       0.006824 0 -1 -1 
  2459011.4877730       1.003983       0.006829 0 -1 -1 
  2459011.4891620       0.999679       0.006828 0 -1 -1 
  2459011.4905510       0.999132       0.006873 0 -1 -1 
  2459011.4919400       1.004597       0.006846 0 -1 -1 
  2459011.4933290       0.987897       0.006832 0 -1 -1 
  2459011.4947180       0.997360       0.006829 0 -1 -1 
  2459011.4961070       1.010184       0.006848 0 -1 -1 
  2459011.4974960       0.998471       0.006840 0 -1 -1 
  2459011.4988850       0.996288       0.006847 0 -1 -1 
  2459011.5002730       1.009602       0.006847 0 -1 -1 
  2459011.5016620       1.003624       0.006848 0 -1 -1 
  2459011.5030510       0.998802       0.006849 0 -1 -1 
  2459011.5044400       0.997314       0.006845 0 -1 -1 
  2459011.5058290       1.002005       0.006847 0 -1 -1 
  2459011.5072180       1.003803       0.006868 0 -1 -1 
  2459011.5086070       0.999896       0.006849 0 -1 -1 
  2459011.5099960       1.002937       0.006855 0 -1 -1 
  2459011.5113850       1.006643       0.006872 0 -1 -1 
  2459011.5127740       0.994191       0.006857 0 -1 -1 
  2459011.5141620       0.997778       0.006860 0 -1 -1 
  2459011.5155510       0.989675       0.006860 0 -1 -1 
  2459011.5169400       0.995269       0.006874 0 -1 -1 
  2459011.5183290       0.992002       0.006858 0 -1 -1 
  2459011.5197180       1.000278       0.006865 0 -1 -1 
  2459011.5211070       1.008299       0.006871 0 -1 -1 
  2459011.5224960       1.010795       0.006924 0 -1 -1 
  2459011.5238850       0.997439       0.006881 0 -1 -1 
  2459011.5252740       0.990635       0.006878 0 -1 -1 
  2459011.5266620       1.001049       0.006901 0 -1 -1 
  2459011.5280510       1.000292       0.006877 0 -1 -1 
  2459011.5294400       1.003664       0.006882 0 -1 -1 
  2459011.5308290       1.001854       0.006887 0 -1 -1 
  2459011.5322180       0.991461       0.006886 0 -1 -1 
  2459011.5336070       0.995841       0.006877 0 -1 -1 
  2459011.5349960       1.005463       0.006889 0 -1 -1 
  2459011.5363850       0.994594       0.006881 0 -1 -1 
  2459011.5377740       0.999585       0.006886 0 -1 -1 
  2459011.5391620       1.001578       0.006893 0 -1 -1 
  2459011.5405510       0.996218       0.006919 0 -1 -1 
  2459011.5419400       0.999261       0.006901 0 -1 -1 
  2459011.5433290       0.990752       0.006894 0 -1 -1 
  2459011.5447180       1.003677       0.006901 0 -1 -1 
  2459011.5461070       1.005198       0.006909 0 -1 -1 
  2459011.5474960       1.002222       0.006906 0 -1 -1 
  2459011.5488850       0.997395       0.006907 0 -1 -1 
  2459011.5502740       1.003110       0.006909 0 -1 -1 
  2459011.5516630       0.995672       0.006922 0 -1 -1 
  2459011.5530510       0.995331       0.006924 0 -1 -1 
  2459011.5544400       1.002954       0.006920 0 -1 -1 
  2459011.5558290       0.996266       0.006934 0 -1 -1 
  2459011.5572180       0.993434       0.006919 0 -1 -1 
  2459011.5586070       0.995211       0.006928 0 -1 -1 
  2459011.5599960       0.996810       0.006926 0 -1 -1 
  2459011.5613850       0.985284       0.006921 0 -1 -1 
  2459011.5627740       1.007938       0.006941 0 -1 -1 
  2459011.5641630       1.005491       0.006938 0 -1 -1 
  2459011.5655510       0.991418       0.006926 0 -1 -1 
  2459011.5669400       0.999151       0.006932 0 -1 -1 
  2459011.5683290       1.002241       0.006978 0 -1 -1 
  2459011.5697180       1.006779       0.006942 0 -1 -1 
  2459011.5711070       1.003949       0.006939 0 -1 -1 
  2459011.5724960       1.003391       0.006953 0 -1 -1 
  2459011.5738850       1.000553       0.006942 0 -1 -1 
  2459011.5752740       0.995671       0.006990 0 -1 -1 
  2459011.5766630       0.998451       0.006943 0 -1 -1 
  2459011.5780510       0.999936       0.006986 0 -1 -1 
  2459011.5794400       1.007153       0.006963 0 -1 -1 
  2459011.5808290       1.002726       0.006950 0 -1 -1 
  2459011.5822180       1.001895       0.006957 0 -1 -1 
  2459011.5836070       1.001234       0.006958 0 -1 -1 
  2459011.5849960       0.994744       0.006959 0 -1 -1 
  2459011.5863850       0.998217       0.006953 0 -1 -1 
  2459011.5877740       0.996404       0.006968 0 -1 -1 
  2459011.5891630       0.998350       0.006973 0 -1 -1 
  2459011.5905520       0.994694       0.006959 0 -1 -1 
  2459011.5919400       1.001859       0.006968 0 -1 -1 
  2459011.5933290       1.000160       0.006974 0 -1 -1 
  2459011.5947180       1.011114       0.006976 0 -1 -1 
  2459011.5961070       0.994721       0.006965 0 -1 -1 
  2459011.5974960       1.005778       0.006966 0 -1 -1 
  2459011.5988850       1.005712       0.006981 0 -1 -1 
  2459011.6002740       0.990606       0.006979 0 -1 -1 
  2459011.6016630       1.007692       0.006984 0 -1 -1 
  2459011.6030520       1.000527       0.006984 0 -1 -1 
  2459011.6044400       1.004862       0.006981 0 -1 -1 
  2459011.6058290       1.000882       0.006987 0 -1 -1 
  2459011.6072180       1.003177       0.006987 0 -1 -1 
  2459011.6086070       1.005700       0.006997 0 -1 -1 
  2459011.6099960       0.991289       0.006996 0 -1 -1 
  2459011.6113850       0.998206       0.006998 0 -1 -1 
  2459011.6127740       1.008413       0.007020 0 -1 -1 
  2459011.6141630       0.991893       0.006991 0 -1 -1 
  2459011.6155520       1.005346       0.006999 0 -1 -1 
  2459011.6169400       1.001408       0.007021 0 -1 -1 
  2459011.6183290       0.989220       0.006999 0 -1 -1 
  2459011.6197180       1.007870       0.007007 0 -1 -1 
  2459011.6211070       1.004355       0.007011 0 -1 -1 
  2459011.6224960       1.002842       0.007001 0 -1 -1 
  2459011.6238850       1.003872       0.007012 0 -1 -1 
  2459011.6252740       0.994335       0.007005 0 -1 -1 
  2459011.6266630       1.000849       0.007005 0 -1 -1 
  2459011.6280520       0.990557       0.006999 0 -1 -1 
  2459011.6294400       0.997461       0.007011 0 -1 -1 
  2459011.6308290       1.004917       0.007017 0 -1 -1 
  2459011.6322180       0.989163       0.007021 0 -1 -1 
  2459011.6336070       1.001769       0.007033 0 -1 -1 
  2459011.6349960       0.994802       0.007010 0 -1 -1 
  2459011.6363850       1.001983       0.007009 0 -1 -1 
  2459011.6377740       1.008425       0.007024 0 -1 -1 
  2459011.6391630       1.011464       0.007043 0 -1 -1 
  2459011.6405520       0.997253       0.007010 0 -1 -1 
  2459011.6419410       0.996398       0.007018 0 -1 -1 
  2459011.6433290       0.998337       0.007021 0 -1 -1 
  2459011.6447180       0.996608       0.007018 0 -1 -1 
  2459011.6461070       0.999815       0.007023 0 -1 -1 
  2459011.6474960       0.996570       0.007051 0 -1 -1 
  2459011.6488850       0.992125       0.007031 0 -1 -1 
  2459011.6502740       1.009452       0.007037 0 -1 -1 
  2459011.6516630       0.994107       0.007024 0 -1 -1 
  2459011.6530520       1.006678       0.007027 0 -1 -1 
  2459011.6544410       1.001932       0.007022 0 -1 -1 
  2459011.6558290       0.988273       0.007021 0 -1 -1 
  2459011.6572180       0.991173       0.007022 0 -1 -1 
  2459011.6586070       1.005347       0.007065 0 -1 -1 
  2459011.6599960       1.000975       0.007034 0 -1 -1 
  2459011.6613850       1.005572       0.007036 0 -1 -1 
  2459011.6627740       1.009518       0.007038 0 -1 -1 
  2459011.6641630       0.995303       0.007035 0 -1 -1 
  2459011.6655520       0.999356       0.007029 0 -1 -1 
  2459011.6669410       0.994399       0.007064 0 -1 -1 
  2459011.6683290       1.002457       0.007039 0 -1 -1 
  2459011.6697180       0.997749       0.007035 0 -1 -1 
  2459011.6711070       1.002344       0.007045 0 -1 -1 
  2459011.6724960       1.005145       0.007050 0 -1 -1 
  2459011.6738850       0.997822       0.007038 0 -1 -1 
  2459011.6752740       1.004237       0.007044 0 -1 -1 
  2459011.6766630       1.006432       0.007053 0 -1 -1 
  2459011.6780520       0.994072       0.007037 0 -1 -1 
  2459011.6794410       0.996044       0.007040 0 -1 -1 
  2459011.6808300       0.995968       0.007037 0 -1 -1 
  2459011.6822180       0.991493       0.007042 0 -1 -1 
  2459011.6836070       0.994615       0.007034 0 -1 -1 
  2459011.6849960       0.998671       0.007062 0 -1 -1 
  2459011.6863850       0.997319       0.007038 0 -1 -1 
  2459011.6877740       0.997664       0.007055 0 -1 -1 
  2459011.6891630       0.998303       0.007048 0 -1 -1 
  2459011.6905520       0.995379       0.007043 0 -1 -1 
  2459011.6919410       0.995182       0.007043 0 -1 -1 
  2459011.6933300       1.005817       0.007069 0 -1 -1 
  2459011.6947180       1.004090       0.007057 0 -1 -1 
  2459011.6961070       1.008767       0.007047 0 -1 -1 
  2459011.6974960       1.004747       0.007051 0 -1 -1 
  2459011.6988850       1.008679       0.007050 0 -1 -1 
  2459011.7002740       1.003867       0.007076 0 -1 -1 
  2459011.7016630       1.005126       0.007054 0 -1 -1 
  2459011.7030520       0.989048       0.007040 0 -1 -1 
  2459011.7044410       0.994535       0.007048 0 -1 -1 
  2459011.7058300       1.003521       0.007052 0 -1 -1 
  2459011.7072180       0.997774       0.007042 0 -1 -1 
  2459011.7086070       1.007505       0.007064 0 -1 -1 
  2459011.7099960       1.002960       0.007052 0 -1 -1 
  2459011.7113850       0.996637       0.007046 0 -1 -1 
  2459011.7127740       1.000213       0.007055 0 -1 -1 
  2459011.7141630       1.000966       0.007049 0 -1 -1 
  2459011.7155520       0.999836       0.007048 0 -1 -1 
  2459011.7169410       0.998103       0.007050 0 -1 -1 
  2459011.7183300       0.999849       0.007062 0 -1 -1 
  2459011.7197190       0.997580       0.007048 0 -1 -1 
  2459011.7211070       1.003397       0.007066 0 -1 -1 
  2459011.7224960       1.012440       0.007063 0 -1 -1 
  2459011.7238850       0.998286       0.007059 0 -1 -1 
  2459011.7252740       1.005438       0.007061 0 -1 -1 
  2459011.7266630       0.994220       0.007046 0 -1 -1 
  2459011.7280520       0.989932       0.007055 0 -1 -1 
  2459011.7294410       1.004457       0.007058 0 -1 -1 
  2459011.7308300       1.007052       0.007079 0 -1 -1 
  2459011.7322190       0.993965       0.007057 0 -1 -1 
  2459011.7336070       1.005118       0.007063 0 -1 -1 
  2459011.7349960       1.006230       0.007075 0 -1 -1 
  2459011.7363850       1.001896       0.007063 0 -1 -1 
  2459011.7377740       0.995094       0.007051 0 -1 -1 
  2459011.7391630       1.008779       0.007079 0 -1 -1 
  2459011.7405520       1.017662       0.007069 0 -1 -1 
  2459011.7419410       1.006538       0.007077 0 -1 -1 
  2459011.7433300       1.008154       0.007060 0 -1 -1 
  2459011.7447190       1.001109       0.007063 0 -1 -1 
  2459011.7461070       1.006042       0.007106 0 -1 -1 
  2459011.7474960       0.999788       0.007070 0 -1 -1 
  2459011.7488850       1.003626       0.007063 0 -1 -1 
  2459011.7502740       1.001416       0.007109 0 -1 -1 
  2459011.7516630       1.000535       0.007075 0 -1 -1 
  2459011.7530520       1.009413       0.007075 0 -1 -1 
  2459011.7544410       1.004974       0.007073 0 -1 -1 
  2459011.7558300       1.008170       0.007075 0 -1 -1 
  2459011.7586070       1.001116       0.007073 0 -1 -1 
  2459011.7599960       1.001828       0.007075 0 -1 -1 
  2459011.7613850       1.013975       0.007091 0 -1 -1 
  2459011.7627740       1.008571       0.007074 0 -1 -1 
  2459011.7641630       0.997140       0.007071 0 -1 -1 
  2459011.7655520       0.981599       0.007088 0 -1 -1 
  2459011.7669410       0.994764       0.007070 0 -1 -1 
  2459011.7683300       1.002002       0.007083 0 -1 -1 
  2459011.7697190       0.997813       0.007095 0 -1 -1 
  2459011.7711080       1.002402       0.007079 0 -1 -1 
  2459011.7724960       1.002919       0.007075 0 -1 -1 
  2459011.7738850       1.008885       0.007088 0 -1 -1 
  2459011.7752740       1.001547       0.007078 0 -1 -1 
  2459011.7766630       0.998982       0.007098 0 -1 -1 
  2459011.7780520       0.995671       0.007086 0 -1 -1 
  2459011.7794410       1.003063       0.007085 0 -1 -1 
  2459011.7808300       1.002197       0.007077 0 -1 -1 
  2459011.7822190       1.001406       0.007084 0 -1 -1 
  2459011.7836080       0.994034       0.007087 0 -1 -1 
  2459011.7849960       1.009459       0.007096 0 -1 -1 
  2459011.7863850       1.002081       0.007095 0 -1 -1 
  2459011.7877740       1.003254       0.007093 0 -1 -1 
  2459011.7891630       1.014009       0.007117 0 -1 -1 
  2459011.7905520       1.000181       0.007094 0 -1 -1 
  2459011.7919410       0.998512       0.007089 0 -1 -1 
  2459011.7933300       1.000095       0.007096 0 -1 -1 
  2459011.7947190       1.006267       0.007129 0 -1 -1 
  2459011.7961080       0.996165       0.007087 0 -1 -1 
  2459011.7988850       0.998773       0.007102 0 -1 -1 
  2459011.8002740       0.997324       0.007139 0 -1 -1 
  2459011.8016630       1.005117       0.007106 0 -1 -1 
  2459011.8030520       0.994774       0.007088 0 -1 -1 
  2459011.8044410       1.004904       0.007110 0 -1 -1 
  2459011.8058300       0.998161       0.007096 0 -1 -1 
  2459011.8072190       1.001414       0.007104 0 -1 -1 
  2459011.8086080       1.007148       0.007112 0 -1 -1 
  2459011.8099970       1.002668       0.007108 0 -1 -1 
  2459011.8113850       0.997926       0.007132 0 -1 -1 
  2459011.8127740       1.003451       0.007109 0 -1 -1 
  2459011.8141630       0.989676       0.007099 0 -1 -1 
  2459011.8155520       1.001303       0.007107 0 -1 -1 
  2459011.8169410       0.993661       0.007108 0 -1 -1 
  2459011.8183300       1.002450       0.007110 0 -1 -1 
  2459011.8197190       1.005508       0.007117 0 -1 -1 
  2459011.8211080       0.999072       0.007100 0 -1 -1 
  2459011.8224970       1.005983       0.007120 0 -1 -1 
  2459011.8238850       1.002320       0.007128 0 -1 -1 
  2459011.8252740       0.997013       0.007117 0 -1 -1 
  2459011.8266630       0.997086       0.007105 0 -1 -1 
  2459011.8280520       0.996855       0.007105 0 -1 -1 
  2459011.8294410       0.999172       0.007123 0 -1 -1 
  2459011.8308300       0.990116       0.007100 0 -1 -1 
  2459011.8322190       0.995295       0.007117 0 -1 -1 
  2459011.8336080       1.009883       0.007117 0 -1 -1 
  2459011.8349970       1.003625       0.007116 0 -1 -1 
  2459011.8363850       0.992798       0.007115 0 -1 -1 
  2459011.8377740       0.999413       0.007125 0 -1 -1 
  2459011.8391630       1.001715       0.007111 0 -1 -1 
  2459011.8405520       0.989320       0.007113 0 -1 -1 
  2459011.8419410       0.995285       0.007116 0 -1 -1 
  2459011.8433300       0.999925       0.007116 0 -1 -1 
  2459011.8447190       0.998385       0.007115 0 -1 -1 
  2459011.8461080       1.000370       0.007124 0 -1 -1 
  2459011.8474970       0.999401       0.007120 0 -1 -1 
  2459011.8488860       1.002028       0.007135 0 -1 -1 
  2459011.8502740       1.001243       0.007122 0 -1 -1 
  2459011.8516630       1.012056       0.007133 0 -1 -1 
  2459011.8530520       1.011601       0.007172 0 -1 -1 
  2459011.8544410       1.004593       0.007121 0 -1 -1 
  2459011.8558300       1.002907       0.007136 0 -1 -1 
  2459011.8572190       0.996327       0.007135 0 -1 -1 
  2459011.8586080       1.000072       0.007122 0 -1 -1 
  2459011.8599970       0.990222       0.007111 0 -1 -1 
  2459011.8613860       0.997290       0.007124 0 -1 -1 
  2459011.8627740       1.002492       0.007130 0 -1 -1 
  2459011.8641630       0.995221       0.007117 0 -1 -1 
  2459011.8655520       1.001584       0.007139 0 -1 -1 
  2459011.8669410       0.996614       0.007122 0 -1 -1 
  2459011.8683300       1.001938       0.007128 0 -1 -1 
  2459011.8697190       0.990087       0.007132 0 -1 -1 
  2459011.8711080       1.000268       0.007135 0 -1 -1 
  2459011.8724970       0.994867       0.007119 0 -1 -1 
  2459011.8738860       1.008518       0.007134 0 -1 -1 
  2459011.8752740       0.993261       0.007121 0 -1 -1 
  2459011.8766630       0.997385       0.007187 0 -1 -1 
  2459011.8780520       0.987143       0.007119 0 -1 -1 
  2459011.8794410       0.992537       0.007120 0 -1 -1 
  2459011.8808300       0.990708       0.007116 0 -1 -1 
  2459011.8822190       0.983518       0.007119 0 -1 -1 
  2459011.8836080       0.986514       0.007119 0 -1 -1 
  2459011.8849970       0.990851       0.007170 0 -1 -1 
  2459011.8863860       0.983280       0.007129 0 -1 -1 
  2459011.8877750       0.970037       0.007120 0 -1 -1 
  2459011.8891630       0.978885       0.007120 0 -1 -1 
  2459011.8905520       0.986954       0.007132 0 -1 -1 
  2459011.8919410       0.975564       0.007113 0 -1 -1 
  2459011.8933300       0.977708       0.007110 0 -1 -1 
  2459011.8947190       0.971163       0.007121 0 -1 -1 
  2459011.8961080       0.978292       0.007113 0 -1 -1 
  2459011.8974970       0.984438       0.007113 0 -1 -1 
  2459011.8988860       0.984926       0.007114 0 -1 -1 
  2459011.9002750       0.982849       0.007110 0 -1 -1 
  2459011.9016630       0.978394       0.007111 0 -1 -1 
  2459011.9044410       0.976796       0.007131 0 -1 -1 
  2459011.9058300       0.975528       0.007111 0 -1 -1 
  2459011.9072190       0.986281       0.007125 0 -1 -1 
  2459011.9086080       0.979411       0.007143 0 -1 -1 
  2459011.9099970       0.974272       0.007107 0 -1 -1 
  2459011.9113860       0.985541       0.007130 0 -1 -1 
  2459011.9127750       0.976236       0.007118 0 -1 -1 
  2459011.9141630       0.990904       0.007120 0 -1 -1 
  2459011.9155520       0.972856       0.007121 0 -1 -1 
  2459011.9169410       0.974123       0.007118 0 -1 -1 
  2459011.9183300       0.973927       0.007113 0 -1 -1 
  2459011.9197190       0.978187       0.007115 0 -1 -1 
  2459011.9211080       0.979443       0.007115 0 -1 -1 
  2459011.9224970       0.981471       0.007134 0 -1 -1 
  2459011.9238860       0.979239       0.007107 0 -1 -1 
  2459011.9252750       0.982175       0.007121 0 -1 -1 
  2459011.9266630       0.974520       0.007143 0 -1 -1 
  2459011.9280520       0.984412       0.007113 0 -1 -1 
  2459011.9294410       0.979891       0.007129 0 -1 -1 
  2459011.9308300       0.976351       0.007109 0 -1 -1 
  2459011.9322190       0.975928       0.007108 0 -1 -1 
  2459011.9336080       0.988514       0.007118 0 -1 -1 
  2459011.9349970       0.995807       0.007116 0 -1 -1 
  2459011.9363860       0.983532       0.007117 0 -1 -1 
  2459011.9377750       0.990036       0.007109 0 -1 -1 
  2459011.9391640       0.985150       0.007115 0 -1 -1 
  2459011.9419410       1.002430       0.007142 0 -1 -1 
  2459011.9433300       1.011387       0.007119 0 -1 -1 
  2459011.9447190       0.999297       0.007121 0 -1 -1 
  2459011.9461080       0.994673       0.007115 0 -1 -1 
  2459011.9474970       1.000985       0.007120 0 -1 -1 
  2459011.9488860       1.000743       0.007113 0 -1 -1 
  2459011.9502750       1.002092       0.007145 0 -1 -1 
  2459011.9516640       1.001684       0.007119 0 -1 -1 
  2459011.9530520       1.001034       0.007144 0 -1 -1 
  2459011.9544410       1.008199       0.007125 0 -1 -1 
  2459011.9558300       1.002644       0.007114 0 -1 -1 
  2459011.9572190       1.002706       0.007118 0 -1 -1 
  2459011.9586080       1.008795       0.007111 0 -1 -1 
  2459011.9599970       0.998284       0.007124 0 -1 -1 
  2459011.9613860       1.001563       0.007108 0 -1 -1 
  2459011.9627750       1.001415       0.007117 0 -1 -1 
  2459011.9641640       0.997801       0.007111 0 -1 -1 
  2459011.9655520       1.003964       0.007110 0 -1 -1 
  2459011.9669410       1.006636       0.007106 0 -1 -1 
  2459011.9683300       0.990735       0.007110 0 -1 -1 
  2459011.9697190       0.992871       0.007105 0 -1 -1 
  2459011.9711080       1.005620       0.007108 0 -1 -1 
  2459011.9724970       0.996967       0.007110 0 -1 -1 
  2459011.9738860       0.999519       0.007119 0 -1 -1 
  2459011.9752750       1.000826       0.007105 0 -1 -1 
  2459011.9766640       1.005574       0.007126 0 -1 -1 
  2459011.9780530       0.988538       0.007098 0 -1 -1 
  2459011.9794410       1.000190       0.007103 0 -1 -1 
  2459011.9808300       1.006025       0.007107 0 -1 -1 
  2459011.9822190       1.008686       0.007107 0 -1 -1 
  2459011.9836080       0.992608       0.007098 0 -1 -1 
  2459011.9849970       0.991581       0.007105 0 -1 -1 
  2459011.9863860       0.998531       0.007104 0 -1 -1 
  2459011.9877750       0.992881       0.007103 0 -1 -1 
  2459011.9891640       1.000004       0.007104 0 -1 -1 
  2459011.9905530       0.996738       0.007110 0 -1 -1 
  2459011.9919410       1.007628       0.007113 0 -1 -1 
  2459011.9933300       1.006202       0.007095 0 -1 -1 
  2459011.9947190       1.001180       0.007096 0 -1 -1 
  2459011.9961080       1.004921       0.007117 0 -1 -1 
  2459011.9974970       1.004822       0.007101 0 -1 -1 
  2459011.9988860       1.001761       0.007097 0 -1 -1 
  2459012.0002750       0.997824       0.007099 0 -1 -1 
  2459012.0016640       1.002534       0.007099 0 -1 -1 
  2459012.0030530       1.000747       0.007091 0 -1 -1 
  2459012.0044410       0.998961       0.007095 0 -1 -1 
  2459012.0058300       1.004066       0.007114 0 -1 -1 
  2459012.0072190       0.994510       0.007091 0 -1 -1 
  2459012.0086080       1.002912       0.007095 0 -1 -1 
  2459012.0099970       0.997807       0.007092 0 -1 -1 
  2459012.0113860       0.999568       0.007091 0 -1 -1 
  2459012.0127750       0.997250       0.007102 0 -1 -1 
  2459012.0141640       1.002486       0.007094 0 -1 -1 
  2459012.0155530       1.000980       0.007123 0 -1 -1 
  2459012.0169420       0.993760       0.007091 0 -1 -1 
  2459012.0183300       0.994219       0.007091 0 -1 -1 
  2459012.0197190       0.996486       0.007092 0 -1 -1 
  2459012.0211080       0.994645       0.007091 0 -1 -1 
  2459012.0224970       1.003649       0.007084 0 -1 -1 
  2459012.0238860       1.002570       0.007084 0 -1 -1 
  2459012.0252750       1.001634       0.007079 0 -1 -1 
  2459012.0266640       0.992201       0.007080 0 -1 -1 
  2459012.0280530       0.998725       0.007085 0 -1 -1 
  2459012.0294420       1.000193       0.007098 0 -1 -1 
  2459012.0308300       1.000725       0.007080 0 -1 -1 
  2459012.0322190       0.992601       0.007084 0 -1 -1 
  2459012.0336080       1.006489       0.007094 0 -1 -1 
  2459012.0349970       0.998874       0.007080 0 -1 -1 
  2459012.0363860       0.992259       0.007102 0 -1 -1 
  2459012.0377750       1.003202       0.007088 0 -1 -1 
  2459012.0391640       0.997436       0.007078 0 -1 -1 
  2459012.0405530       0.995337       0.007077 0 -1 -1 
  2459012.0419420       1.001069       0.007084 0 -1 -1 
  2459012.0433300       0.993189       0.007074 0 -1 -1 
  2459012.0447190       0.999309       0.007093 0 -1 -1 
  2459012.0461080       0.993362       0.007074 0 -1 -1 
  2459012.0474970       0.993228       0.007077 0 -1 -1 
  2459012.0488860       0.999691       0.007070 0 -1 -1 
  2459012.0502750       1.001572       0.007075 0 -1 -1 
  2459012.0516640       0.999535       0.007077 0 -1 -1 
  2459012.0530530       0.995190       0.007095 0 -1 -1 
  2459012.0544420       1.004057       0.007086 0 -1 -1 
  2459012.0558310       1.011210       0.007081 0 -1 -1 
  2459012.0572190       1.001253       0.007071 0 -1 -1 
  2459012.0586080       1.005179       0.007087 0 -1 -1 
  2459012.0599970       1.004509       0.007079 0 -1 -1 
  2459012.0613860       1.001925       0.007083 0 -1 -1 
  2459012.0627750       1.002022       0.007068 0 -1 -1 
  2459012.0641640       0.990040       0.007071 0 -1 -1 
  2459012.0655530       0.998275       0.007084 0 -1 -1 
  2459012.0669420       0.997301       0.007080 0 -1 -1 
  2459012.0683310       0.994857       0.007071 0 -1 -1 
  2459012.0697190       1.002338       0.007070 0 -1 -1 
  2459012.0711080       0.995695       0.007070 0 -1 -1 
  2459012.0724970       0.984972       0.007059 0 -1 -1 
  2459012.0738860       1.005865       0.007072 0 -1 -1 
  2459012.0752750       1.007898       0.007070 0 -1 -1 
  2459012.0766640       0.997859       0.007059 0 -1 -1 
  2459012.0780530       0.992007       0.007073 0 -1 -1 
  2459012.0794420       0.985534       0.007060 0 -1 -1 
  2459012.0808310       1.014165       0.007090 0 -1 -1 
  2459012.0822190       0.999887       0.007060 0 -1 -1 
  2459012.0836080       0.993358       0.007065 0 -1 -1 
  2459012.0849970       1.003404       0.007081 0 -1 -1 
  2459012.0863860       0.992071       0.007074 0 -1 -1 
  2459012.0877750       0.994629       0.007070 0 -1 -1 
  2459012.0891640       1.000555       0.007064 0 -1 -1 
  2459012.0905530       0.992755       0.007075 0 -1 -1 
  2459012.0919420       1.006550       0.007087 0 -1 -1 
  2459012.0933310       1.005034       0.007092 0 -1 -1 
  2459012.0947190       1.020588       0.007072 0 -1 -1 
  2459012.0961080       0.990939       0.007073 0 -1 -1 
  2459012.0974970       1.005712       0.007061 0 -1 -1 
  2459012.0988860       0.992786       0.007064 0 -1 -1 
  2459012.1002750       0.995551       0.007071 0 -1 -1 
  2459012.1016640       1.013804       0.007061 0 -1 -1 
  2459012.1030530       1.000651       0.007062 0 -1 -1 
  2459012.1044420       1.001176       0.007064 0 -1 -1 
  2459012.1058310       0.994793       0.007054 0 -1 -1 
  2459012.1072200       0.990513       0.007056 0 -1 -1 
  2459012.1086080       0.997667       0.007063 0 -1 -1 
  2459012.1099970       1.018756       0.007070 0 -1 -1 
  2459012.1113860       0.997701       0.007056 0 -1 -1 
  2459012.1127750       0.995452       0.007058 0 -1 -1 
  2459012.1141640       1.005062       0.007060 0 -1 -1 
  2459012.1155530       0.995810       0.007055 0 -1 -1 
  2459012.1169420       0.995798       0.007054 0 -1 -1 
  2459012.1183310       0.998068       0.007063 0 -1 -1 
  2459012.1197200       0.997849       0.007063 0 -1 -1 
  2459012.1211080       1.001234       0.007057 0 -1 -1 
  2459012.1224970       1.008881       0.007057 0 -1 -1 
  2459012.1238860       1.002447       0.007052 0 -1 -1 
  2459012.1252750       1.005948       0.007062 0 -1 -1 
  2459012.1266640       0.994565       0.007069 0 -1 -1 
  2459012.1280530       0.992935       0.007049 0 -1 -1 
  2459012.1294420       0.986172       0.007047 0 -1 -1 
  2459012.1308310       1.007918       0.007056 0 -1 -1 
  2459012.1322200       0.994280       0.007070 0 -1 -1 
  2459012.1336080       0.995986       0.007058 0 -1 -1 
  2459012.1349970       1.001108       0.007058 0 -1 -1 
  2459012.1363860       1.001149       0.007051 0 -1 -1 
  2459012.1377750       1.001492       0.007054 0 -1 -1 
  2459012.1391640       1.002151       0.007056 0 -1 -1 
  2459012.1405530       1.006545       0.007059 0 -1 -1 
  2459012.1419420       0.999748       0.007052 0 -1 -1 
  2459012.1433310       1.001249       0.007048 0 -1 -1 
  2459012.1447200       1.004540       0.007056 0 -1 -1 
  2459012.1461090       0.996240       0.007053 0 -1 -1 
  2459012.1474970       1.001405       0.007044 0 -1 -1 
  2459012.1488860       0.993024       0.007048 0 -1 -1 
  2459012.1502750       1.000729       0.007055 0 -1 -1 
  2459012.1516640       0.992554       0.007049 0 -1 -1 
  2459012.1530530       1.005863       0.007058 0 -1 -1 
  2459012.1544420       0.996166       0.007059 0 -1 -1 
  2459012.1558310       1.000431       0.007076 0 -1 -1 
  2459012.1572200       1.001249       0.007045 0 -1 -1 
  2459012.1586090       0.995655       0.007055 0 -1 -1 
  2459012.1599970       1.000476       0.007070 0 -1 -1 
  2459012.1613860       1.006457       0.007073 0 -1 -1 
  2459012.1627750       1.004523       0.007046 0 -1 -1 
  2459012.1641640       1.007993       0.007083 0 -1 -1 
  2459012.1655530       0.998754       0.007054 0 -1 -1 
  2459012.1669420       1.007815       0.007050 0 -1 -1 
  2459012.1683310       0.997417       0.007046 0 -1 -1 
  2459012.1697200       1.004299       0.007050 0 -1 -1 
  2459012.1711090       1.000715       0.007049 0 -1 -1 
  2459012.1724970       1.005028       0.007059 0 -1 -1 
  2459012.1738860       1.001477       0.007052 0 -1 -1 
  2459012.1752750       0.999582       0.007052 0 -1 -1 
  2459012.1766640       1.005576       0.007049 0 -1 -1 
  2459012.1780530       0.994325       0.007048 0 -1 -1 
  2459012.1794420       1.007557       0.007054 0 -1 -1 
  2459012.1808310       0.985160       0.007049 0 -1 -1 
  2459012.1822200       0.999023       0.007048 0 -1 -1 
  2459012.1836090       1.002432       0.007052 0 -1 -1 
  2459012.1849980       1.006313       0.007052 0 -1 -1 
  2459012.1863860       1.012343       0.007059 0 -1 -1 
  2459012.1877750       1.002247       0.007051 0 -1 -1 
  2459012.1891640       0.992534       0.007055 0 -1 -1 
  2459012.1905530       0.999029       0.007042 0 -1 -1 
  2459012.1919420       1.002712       0.007056 0 -1 -1 
  2459012.1933310       1.003912       0.007057 0 -1 -1 
  2459012.1947200       0.997446       0.007047 0 -1 -1 
  2459012.1961090       1.010197       0.007049 0 -1 -1 
  2459012.1974980       1.002262       0.007056 0 -1 -1 
  2459012.1988860       0.995678       0.007045 0 -1 -1 
  2459012.2002750       0.994750       0.007053 0 -1 -1 
  2459012.2016640       0.995316       0.007044 0 -1 -1 
  2459012.2030530       1.003968       0.007058 0 -1 -1 
  2459012.2044420       1.004989       0.007049 0 -1 -1 
  2459012.2058310       0.994294       0.007059 0 -1 -1 
  2459012.2072200       1.005988       0.007050 0 -1 -1 
  2459012.2086090       1.001894       0.007052 0 -1 -1 
  2459012.2099980       1.005521       0.007053 0 -1 -1 
  2459012.2113860       0.993321       0.007044 0 -1 -1 
  2459012.2127750       1.000239       0.007051 0 -1 -1 
  2459012.2141640       1.004059       0.007058 0 -1 -1 
  2459012.2155530       1.001297       0.007046 0 -1 -1 
  2459012.2169420       0.991239       0.007052 0 -1 -1 
  2459012.2183310       0.988023       0.007041 0 -1 -1 
  2459012.2197200       0.997104       0.007050 0 -1 -1 
  2459012.2211090       1.004190       0.007049 0 -1 -1 
  2459012.2224980       0.996879       0.007045 0 -1 -1 
  2459012.2238870       1.004516       0.007057 0 -1 -1 
  2459012.2252750       1.004393       0.007046 0 -1 -1 
  2459012.2266640       1.001002       0.007065 0 -1 -1 
  2459012.2280530       1.001515       0.007081 0 -1 -1 
  2459012.2294420       0.990236       0.007039 0 -1 -1 
  2459012.2308310       0.996526       0.007054 0 -1 -1 
  2459012.2322200       0.999142       0.007058 0 -1 -1 
  2459012.2336090       1.006377       0.007055 0 -1 -1 
  2459012.2349980       0.998857       0.007041 0 -1 -1 
  2459012.2363870       1.000550       0.007051 0 -1 -1 
  2459012.2377750       0.997508       0.007040 0 -1 -1 
  2459012.2391640       1.006599       0.007042 0 -1 -1 
  2459012.2405530       0.999522       0.007051 0 -1 -1 
  2459012.2419420       0.994973       0.007049 0 -1 -1 
  2459012.2433310       1.004979       0.007078 0 -1 -1 
  2459012.2447200       1.002586       0.007040 0 -1 -1 
  2459012.2461090       0.991410       0.007040 0 -1 -1 
  2459012.2474980       1.002938       0.007046 0 -1 -1 
  2459012.2488870       0.990685       0.007034 0 -1 -1 
  2459012.2502750       0.999999       0.007046 0 -1 -1 
  2459012.2516640       1.003188       0.007045 0 -1 -1 
  2459012.2530530       1.007614       0.007052 0 -1 -1 
  2459012.2544420       0.994461       0.007057 0 -1 -1 
  2459012.2572200       1.001772       0.007054 0 -1 -1 
  2459012.2586090       0.997706       0.007042 0 -1 -1 
  2459012.2599980       0.998836       0.007036 0 -1 -1 
  2459012.2613870       1.005981       0.007048 0 -1 -1 
  2459012.2627760       0.994126       0.007039 0 -1 -1 
  2459012.2641640       1.000156       0.007034 0 -1 -1 
  2459012.2655530       0.999015       0.007038 0 -1 -1 
  2459012.2669420       0.994170       0.007069 0 -1 -1 
  2459012.2683310       0.999502       0.007043 0 -1 -1 
  2459012.2697200       0.996794       0.007044 0 -1 -1 
  2459012.2711090       1.004167       0.007045 0 -1 -1 
  2459012.2724980       0.994644       0.007037 0 -1 -1 
  2459012.2738870       1.002322       0.007056 0 -1 -1 
  2459012.2752760       0.999994       0.007043 0 -1 -1 
  2459012.2766640       0.998581       0.007044 0 -1 -1 
  2459012.2780530       0.996379       0.007033 0 -1 -1 
  2459012.2794420       0.992263       0.007039 0 -1 -1 
  2459012.2808310       0.995505       0.007029 0 -1 -1 
  2459012.2822200       0.991662       0.007026 0 -1 -1 
  2459012.2836090       1.003529       0.007032 0 -1 -1 
  2459012.2849980       0.999191       0.007040 0 -1 -1 
  2459012.2863870       1.002280       0.007048 0 -1 -1 
  2459012.2877760       1.002146       0.007032 0 -1 -1 
  2459012.2891640       0.997913       0.007033 0 -1 -1 
  2459012.2905530       0.989437       0.007035 0 -1 -1 
  2459012.2919420       1.001678       0.007030 0 -1 -1 
  2459012.2933310       0.992364       0.007032 0 -1 -1 
  2459012.2947200       0.993435       0.007020 0 -1 -1 
  2459012.2961090       1.000646       0.007037 0 -1 -1 
  2459012.2974980       1.006318       0.007030 0 -1 -1 
  2459012.2988870       0.998654       0.007031 0 -1 -1 
  2459012.3002760       1.003136       0.007036 0 -1 -1 
  2459012.3016640       1.009189       0.007026 0 -1 -1 
  2459012.3030530       1.012139       0.007029 0 -1 -1 
  2459012.3044420       1.009019       0.007036 0 -1 -1 
  2459012.3058310       1.004614       0.007027 0 -1 -1 
  2459012.3072200       0.994842       0.007024 0 -1 -1 
  2459012.3086090       0.996094       0.007024 0 -1 -1 
  2459012.3099980       0.996953       0.007015 0 -1 -1 
  2459012.3113870       1.014672       0.007033 0 -1 -1 
  2459012.3127760       0.994518       0.007025 0 -1 -1 
  2459012.3141650       1.001238       0.007026 0 -1 -1 
  2459012.3155530       1.001920       0.007021 0 -1 -1 
  2459012.3169420       1.001336       0.007035 0 -1 -1 
  2459012.3183310       0.996493       0.007026 0 -1 -1 
  2459012.3197200       1.004931       0.007022 0 -1 -1 
  2459012.3211090       1.007829       0.007054 0 -1 -1 
  2459012.3224980       1.001240       0.007028 0 -1 -1 
  2459012.3238870       1.007724       0.007028 0 -1 -1 
  2459012.3252760       1.012194       0.007017 0 -1 -1 
  2459012.3266650       1.000972       0.007026 0 -1 -1 
  2459012.3280530       1.007343       0.007014 0 -1 -1 
  2459012.3294420       0.996554       0.007023 0 -1 -1 
  2459012.3308310       1.002960       0.007020 0 -1 -1 
  2459012.3322200       0.996335       0.007010 0 -1 -1 
  2459012.3336090       1.001804       0.007012 0 -1 -1 
  2459012.3349980       1.006118       0.007017 0 -1 -1 
  2459012.3363870       0.989354       0.007007 0 -1 -1 
  2459012.3377760       0.993105       0.007006 0 -1 -1 
  2459012.3391650       1.009942       0.007012 0 -1 -1 
  2459012.3405530       1.007327       0.007013 0 -1 -1 
  2459012.3419420       0.993894       0.007006 0 -1 -1 
  2459012.3433310       1.007391       0.007023 0 -1 -1 
  2459012.3447200       1.000365       0.007010 0 -1 -1 
  2459012.3461090       0.994310       0.006998 0 -1 -1 
  2459012.3474980       0.999031       0.007004 0 -1 -1 
  2459012.3488870       1.006797       0.007032 0 -1 -1 
  2459012.3502760       1.002904       0.007002 0 -1 -1 
  2459012.3516650       0.998685       0.007008 0 -1 -1 
  2459012.3530540       0.996730       0.007015 0 -1 -1 
  2459012.3544420       1.000743       0.007005 0 -1 -1 
  2459012.3558310       0.994932       0.006995 0 -1 -1 
  2459012.3572200       1.003913       0.007001 0 -1 -1 
  2459012.3586090       0.997865       0.007000 0 -1 -1 
  2459012.3599980       1.009158       0.006998 0 -1 -1 
  2459012.3613870       1.006546       0.007002 0 -1 -1 
  2459012.3627760       1.009142       0.007007 0 -1 -1 
  2459012.3641650       0.991650       0.006997 0 -1 -1 
  2459012.3655540       0.999354       0.006992 0 -1 -1 
  2459012.3669420       0.997181       0.007000 0 -1 -1 
  2459012.3683310       0.999239       0.007003 0 -1 -1 
  2459012.3697200       1.004555       0.007007 0 -1 -1 
  2459012.3711090       0.986457       0.007006 0 -1 -1 
  2459012.3724980       0.991200       0.007005 0 -1 -1 
  2459012.3738870       1.002616       0.007003 0 -1 -1 
  2459012.3752760       1.008093       0.007033 0 -1 -1 
  2459012.3766650       0.995537       0.007010 0 -1 -1 
  2459012.3780540       1.000400       0.007009 0 -1 -1 
  2459012.3794420       1.005373       0.007004 0 -1 -1 
  2459012.3808310       0.998926       0.006996 0 -1 -1 
  2459012.3822200       1.007770       0.007002 0 -1 -1 
  2459012.3836090       1.003970       0.006995 0 -1 -1 
  2459012.3849980       1.007981       0.006998 0 -1 -1 
  2459012.3863870       1.007006       0.007006 0 -1 -1 
  2459012.3877760       1.005177       0.007000 0 -1 -1 
  2459012.3891650       0.996799       0.006996 0 -1 -1 
  2459012.3905540       0.999857       0.007005 0 -1 -1 
  2459012.3919430       0.993639       0.007003 0 -1 -1 
  2459012.3933310       1.005845       0.007006 0 -1 -1 
  2459012.3947200       0.996615       0.006999 0 -1 -1 
  2459012.3961090       1.004514       0.006996 0 -1 -1 
  2459012.3974980       1.000925       0.006999 0 -1 -1 
  2459012.3988870       0.987915       0.006998 0 -1 -1 
  2459012.4002760       1.000343       0.006993 0 -1 -1 
  2459012.4016650       1.007882       0.007002 0 -1 -1 
  2459012.4030540       1.000431       0.007013 0 -1 -1 
  2459012.4044430       0.999273       0.006997 0 -1 -1 
  2459012.4058310       1.001742       0.007011 0 -1 -1 
  2459012.4072200       0.999844       0.007014 0 -1 -1 
  2459012.4086090       0.993940       0.006998 0 -1 -1 
  2459012.4099980       1.009433       0.007005 0 -1 -1 
  2459012.4113870       1.002639       0.007008 0 -1 -1 
  2459012.4127760       1.000985       0.007019 0 -1 -1 
  2459012.4141650       1.000307       0.007004 0 -1 -1 
  2459012.4155540       0.997907       0.007037 0 -1 -1 
  2459012.4169430       0.996472       0.007004 0 -1 -1 
  2459012.4183310       1.006947       0.007018 0 -1 -1 
  2459012.4197200       0.999623       0.007036 0 -1 -1 
  2459012.4211090       0.996447       0.007005 0 -1 -1 
  2459012.4224980       0.988221       0.006998 0 -1 -1 
  2459012.4238870       0.994631       0.007004 0 -1 -1 
  2459012.4252760       1.000942       0.007012 0 -1 -1 
  2459012.4266650       0.997293       0.007015 0 -1 -1 
  2459012.4280540       1.000238       0.007010 0 -1 -1 
  2459012.4294430       0.997185       0.007001 0 -1 -1 
  2459012.4308320       1.003019       0.007032 0 -1 -1 
  2459012.4322200       1.007563       0.007018 0 -1 -1 
  2459012.4336090       0.997070       0.007003 0 -1 -1 
  2459012.4349980       0.994205       0.007018 0 -1 -1 
  2459012.4363870       1.000298       0.007020 0 -1 -1 
  2459012.4377760       1.002600       0.007015 0 -1 -1 
  2459012.4391650       1.003104       0.007027 0 -1 -1 
  2459012.4405540       0.992132       0.007013 0 -1 -1 
  2459012.4419430       1.000184       0.007030 0 -1 -1 
  2459012.4433320       1.009794       0.007035 0 -1 -1 
  2459012.4447200       1.007076       0.007030 0 -1 -1 
  2459012.4461090       0.993728       0.007017 0 -1 -1 
  2459012.4474980       0.991726       0.007013 0 -1 -1 
  2459012.4488870       1.005676       0.007021 0 -1 -1 
  2459012.4502760       0.994369       0.007032 0 -1 -1 
  2459012.4516650       1.001038       0.007062 0 -1 -1 
  2459012.4530540       1.000228       0.007052 0 -1 -1 
  2459012.4544430       1.006536       0.007034 0 -1 -1 
  2459012.4558320       1.010323       0.007037 0 -1 -1 
  2459012.4572200       1.004904       0.007037 0 -1 -1 
  2459012.4586090       0.998581       0.007027 0 -1 -1 
  2459012.4599980       1.003990       0.007038 0 -1 -1 
  2459012.4613870       1.003831       0.007032 0 -1 -1 
  2459012.4627760       0.998263       0.007027 0 -1 -1 
  2459012.4641650       1.002328       0.007040 0 -1 -1 
  2459012.4655540       0.997957       0.007029 0 -1 -1 
  2459012.4669430       0.997221       0.007038 0 -1 -1 
  2459012.4697200       0.990912       0.007040 0 -1 -1 
  2459012.4711090       0.998787       0.007055 0 -1 -1 
  2459012.4724980       0.993896       0.007046 0 -1 -1 
  2459012.4738870       0.986666       0.007041 0 -1 -1 
  2459012.4752760       1.010685       0.007067 0 -1 -1 
  2459012.4766650       0.998507       0.007048 0 -1 -1 
  2459012.4780540       1.003126       0.007050 0 -1 -1 
  2459012.4794430       0.986797       0.007046 0 -1 -1 
  2459012.4808320       0.986752       0.007071 0 -1 -1 
  2459012.4822210       1.012221       0.007065 0 -1 -1 
  2459012.4836090       0.993977       0.007051 0 -1 -1 
  2459012.4849980       0.995913       0.007069 0 -1 -1 
  2459012.4863870       0.996749       0.007054 0 -1 -1 
  2459012.4877760       1.006075       0.007065 0 -1 -1 
  2459012.4891650       1.000853       0.007107 0 -1 -1 
  2459012.4905540       1.008078       0.007078 0 -1 -1 
  2459012.4919430       1.008588       0.007069 0 -1 -1 
  2459012.4933320       1.002970       0.007069 0 -1 -1 
  2459012.4947210       1.005005       0.007076 0 -1 -1 
  2459012.4961090       0.999717       0.007075 0 -1 -1 
  2459012.4974980       0.999420       0.007073 0 -1 -1 
  2459012.4988870       0.989058       0.007071 0 -1 -1 
  2459012.5002760       1.009017       0.007100 0 -1 -1 
  2459012.5016650       1.001659       0.007076 0 -1 -1 
  2459012.5030540       1.002115       0.007081 0 -1 -1 
  2459012.5044430       0.997378       0.007107 0 -1 -1 
  2459012.5058320       1.006539       0.007083 0 -1 -1 
  2459012.5072210       0.999101       0.007090 0 -1 -1 
  2459012.5086090       0.999920       0.007100 0 -1 -1 
  2459012.5113870       0.999450       0.007092 0 -1 -1 
  2459012.5127760       1.006905       0.007108 0 -1 -1 
  2459012.5141650       1.006991       0.007100 0 -1 -1 
  2459012.5155540       1.004700       0.007106 0 -1 -1 
  2459012.5169430       0.994651       0.007101 0 -1 -1 
  2459012.5183320       0.989510       0.007117 0 -1 -1 
  2459012.5197210       0.990984       0.007107 0 -1 -1 
  2459012.5211100       1.012939       0.007118 0 -1 -1 
  2459012.5224980       1.000396       0.007121 0 -1 -1 
  2459012.5238870       0.997297       0.007119 0 -1 -1 
  2459012.5252760       1.005208       0.007114 0 -1 -1 
  2459012.5266650       0.989133       0.007119 0 -1 -1 
  2459012.5280540       1.005898       0.007134 0 -1 -1 
  2459012.5294430       1.005747       0.007136 0 -1 -1 
  2459012.5308320       0.998556       0.007125 0 -1 -1 
  2459012.5322210       0.994742       0.007132 0 -1 -1 
  2459012.5336100       1.006185       0.007137 0 -1 -1 
  2459012.5349980       1.002562       0.007143 0 -1 -1 
  2459012.5363870       0.996323       0.007143 0 -1 -1 
  2459012.5377760       1.004559       0.007148 0 -1 -1 
  2459012.5391650       1.003610       0.007144 0 -1 -1 
  2459012.5405540       0.990502       0.007154 0 -1 -1 
  2459012.5419430       1.007107       0.007161 0 -1 -1 
  2459012.5433320       1.000559       0.007159 0 -1 -1 
  2459012.5447210       0.999182       0.007149 0 -1 -1 
  2459012.5461100       0.986330       0.007146 0 -1 -1 
  2459012.5474980       1.006030       0.007159 0 -1 -1 
  2459012.5488870       0.999475       0.007157 0 -1 -1 
  2459012.5502760       0.991107       0.007174 0 -1 -1 
  2459012.5516650       0.998597       0.007161 0 -1 -1 
  2459012.5530540       0.999941       0.007177 0 -1 -1 
  2459012.5544430       0.999989       0.007173 0 -1 -1 
  2459012.5558320       0.994513       0.007199 0 -1 -1 
  2459012.5572210       0.999354       0.007173 0 -1 -1 
  2459012.5586100       0.999077       0.007179 0 -1 -1 
  2459012.5599990       0.994332       0.007186 0 -1 -1 
  2459012.5613870       0.994305       0.007179 0 -1 -1 
  2459012.5627760       1.008826       0.007193 0 -1 -1 
  2459012.5641650       1.001579       0.007211 0 -1 -1 
  2459012.5655540       1.010530       0.007196 0 -1 -1 
  2459012.5669430       1.002851       0.007195 0 -1 -1 
  2459012.5683320       1.001199       0.007199 0 -1 -1 
  2459012.5697210       1.002174       0.007204 0 -1 -1 
  2459012.5711100       0.997214       0.007210 0 -1 -1 
  2459012.5724990       0.991110       0.007210 0 -1 -1 
  2459012.5738870       1.004970       0.007246 0 -1 -1 
  2459012.5752760       1.003091       0.007218 0 -1 -1 
  2459012.5766650       1.000742       0.007213 0 -1 -1 
  2459012.5780540       1.004050       0.007216 0 -1 -1 
  2459012.5794430       1.003980       0.007227 0 -1 -1 
  2459012.5808320       0.992498       0.007221 0 -1 -1 
  2459012.5822210       0.997547       0.007238 0 -1 -1 
  2459012.5836100       0.988427       0.007231 0 -1 -1 
  2459012.5849990       0.996051       0.007223 0 -1 -1 
  2459012.5863870       1.004232       0.007238 0 -1 -1 
  2459012.5877760       1.001129       0.007256 0 -1 -1 
  2459012.5891650       0.991555       0.007244 0 -1 -1 
  2459012.5905540       1.016939       0.007247 0 -1 -1 
  2459012.5919430       1.001585       0.007240 0 -1 -1 
  2459012.5933320       0.998562       0.007242 0 -1 -1 
  2459012.5947210       1.002786       0.007262 0 -1 -1 
  2459012.5961100       1.001921       0.007253 0 -1 -1 
  2459012.5974990       1.002829       0.007251 0 -1 -1 
  2459012.5988880       1.003335       0.007257 0 -1 -1 
  2459012.6002760       0.997091       0.007259 0 -1 -1 
  2459012.6016650       0.998747       0.007262 0 -1 -1 
  2459012.6030540       0.996299       0.007261 0 -1 -1 
  2459012.6044430       1.006676       0.007288 0 -1 -1 
  2459012.6058320       1.012502       0.007281 0 -1 -1 
  2459012.6072210       0.992115       0.007281 0 -1 -1 
  2459012.6086100       0.994198       0.007274 0 -1 -1 
  2459012.6099990       0.990848       0.007302 0 -1 -1 
  2459012.6113880       1.006796       0.007289 0 -1 -1 
  2459012.6127760       1.002166       0.007301 0 -1 -1 
  2459012.6141650       1.009231       0.007293 0 -1 -1 
  2459012.6155540       1.004925       0.007289 0 -1 -1 
  2459012.6169430       0.997260       0.007283 0 -1 -1 
  2459012.6183320       1.008224       0.007287 0 -1 -1 
  2459012.6197210       0.999180       0.007291 0 -1 -1 
  2459012.6211100       1.004287       0.007296 0 -1 -1 
  2459012.6224990       0.992397       0.007292 0 -1 -1 
  2459012.6238880       1.005175       0.007328 0 -1 -1 
  2459012.6252760       0.995228       0.007307 0 -1 -1 
  2459012.6266650       0.996708       0.007308 0 -1 -1 
  2459012.6280540       1.000247       0.007322 0 -1 -1 
  2459012.6294430       0.991058       0.007314 0 -1 -1 
  2459012.6308320       0.989386       0.007302 0 -1 -1 
  2459012.6322210       0.991367       0.007304 0 -1 -1 
  2459012.6336100       1.001840       0.007329 0 -1 -1 
  2459012.6349990       0.998532       0.007348 0 -1 -1 
  2459012.6363880       1.003112       0.007323 0 -1 -1 
  2459012.6377760       0.995518       0.007318 0 -1 -1 
  2459012.6391650       0.999295       0.007324 0 -1 -1 
  2459012.6405540       1.002070       0.007328 0 -1 -1 
  2459012.6419430       0.993766       0.007324 0 -1 -1 
  2459012.6433320       0.998987       0.007369 0 -1 -1 
  2459012.6447210       1.000204       0.007333 0 -1 -1 
  2459012.6461100       1.002233       0.007357 0 -1 -1 
  2459012.6474990       1.000372       0.007346 0 -1 -1 
  2459012.6488880       0.998610       0.007337 0 -1 -1 
  2459012.6502770       0.991793       0.007345 0 -1 -1 
  2459012.6516650       0.999953       0.007369 0 -1 -1 
  2459012.6530540       0.994484       0.007350 0 -1 -1 
  2459012.6544430       0.999122       0.007346 0 -1 -1 
  2459012.6558320       0.998142       0.007351 0 -1 -1 
  2459012.6572210       0.997038       0.007353 0 -1 -1 
  2459012.6586100       1.006671       0.007355 0 -1 -1 
  2459012.6599990       1.003856       0.007369 0 -1 -1 
  2459012.6613880       0.999384       0.007377 0 -1 -1 
  2459012.6627770       1.003045       0.007360 0 -1 -1 
  2459012.6641650       1.000223       0.007354 0 -1 -1 
  2459012.6655540       0.998704       0.007369 0 -1 -1 
  2459012.6669430       0.988468       0.007365 0 -1 -1 
  2459012.6683320       0.999509       0.007380 0 -1 -1 
  2459012.6697210       0.996780       0.007372 0 -1 -1 
  2459012.6711100       0.994130       0.007375 0 -1 -1 
  2459012.6724990       1.001077       0.007379 0 -1 -1 
  2459012.6738880       1.003015       0.007384 0 -1 -1 
  2459012.6752770       0.999447       0.007372 0 -1 -1 
  2459012.6766650       1.004082       0.007388 0 -1 -1 
  2459012.6780540       1.002593       0.007375 0 -1 -1 
  2459012.6794430       1.002145       0.007384 0 -1 -1 
  2459012.6808320       1.004922       0.007413 0 -1 -1 
  2459012.6822210       0.993384       0.007402 0 -1 -1 
  2459012.6836100       1.007699       0.007395 0 -1 -1 
  2459012.6849990       0.992909       0.007400 0 -1 -1 
  2459012.6863880       1.009223       0.007392 0 -1 -1 
  2459012.6877770       0.995265       0.007389 0 -1 -1 
  2459012.6891660       0.993361       0.007386 0 -1 -1 
  2459012.6905540       1.004129       0.007397 0 -1 -1 
  2459012.6919430       1.005728       0.007402 0 -1 -1 
  2459012.6933320       0.993575       0.007402 0 -1 -1 
  2459012.6947210       1.002705       0.007401 0 -1 -1 
  2459012.6961100       1.008301       0.007402 0 -1 -1 
  2459012.6974990       1.004491       0.007403 0 -1 -1 
  2459012.6988880       0.996250       0.007406 0 -1 -1 
  2459012.7002770       1.000876       0.007409 0 -1 -1 
  2459012.7016660       0.996897       0.007406 0 -1 -1 
  2459012.7030540       1.005664       0.007401 0 -1 -1 
  2459012.7044430       1.007281       0.007410 0 -1 -1 
  2459012.7058320       1.001666       0.007412 0 -1 -1 
  2459012.7072210       0.991157       0.007404 0 -1 -1 
  2459012.7086100       0.992677       0.007407 0 -1 -1 
  2459012.7099990       1.009300       0.007459 0 -1 -1 
  2459012.7113880       0.999149       0.007449 0 -1 -1 
  2459012.7127770       1.003744       0.007422 0 -1 -1 
  2459012.7141660       0.980292       0.007412 0 -1 -1 
  2459012.7155540       0.998943       0.007457 0 -1 -1 
  2459012.7169430       1.009796       0.007424 0 -1 -1 
  2459012.7183320       0.991462       0.007431 0 -1 -1 
  2459012.7197210       1.007891       0.007428 0 -1 -1 
  2459012.7211100       0.994705       0.007423 0 -1 -1 
  2459012.7224990       1.007494       0.007433 0 -1 -1 
  2459012.7238880       1.001014       0.007422 0 -1 -1 
  2459012.7252770       1.000639       0.007433 0 -1 -1 
  2459012.7266660       0.994621       0.007431 0 -1 -1 
  2459012.7280550       1.009502       0.007434 0 -1 -1 
  2459012.7294430       0.996055       0.007440 0 -1 -1 
  2459012.7308320       1.002686       0.007427 0 -1 -1 
  2459012.7322210       1.005528       0.007440 0 -1 -1 
  2459012.7336100       1.007221       0.007441 0 -1 -1 
  2459012.7349990       0.986849       0.007423 0 -1 -1 
  2459012.7363880       1.007394       0.007439 0 -1 -1 
  2459012.7377770       1.004175       0.007435 0 -1 -1 
  2459012.7391660       1.006409       0.007437 0 -1 -1 
  2459012.7405550       0.999757       0.007434 0 -1 -1 
  2459012.7419430       0.989645       0.007439 0 -1 -1 
  2459012.7433320       0.997972       0.007438 0 -1 -1 
  2459012.7447210       0.996659       0.007436 0 -1 -1 
  2459012.7461100       1.005255       0.007446 0 -1 -1 
  2459012.7474990       0.997138       0.007441 0 -1 -1 
  2459012.7488880       0.994853       0.007446 0 -1 -1 
  2459012.7502770       1.002255       0.007444 0 -1 -1 
  2459012.7516660       0.988150       0.007445 0 -1 -1 
  2459012.7558320       0.989274       0.007457 0 -1 -1 
  2459012.7572210       1.002748       0.007463 0 -1 -1 
  2459012.7586100       0.991170       0.007457 0 -1 -1 
  2459012.7599990       0.986956       0.007452 0 -1 -1 
  2459012.7613880       0.996430       0.007457 0 -1 -1 
  2459012.7627770       0.993236       0.007466 0 -1 -1 
  2459012.7641660       0.991645       0.007464 0 -1 -1 
  2459012.7655550       1.000725       0.007459 0 -1 -1 
  2459012.7669440       1.000998       0.007493 0 -1 -1 
  2459012.7683320       1.010534       0.007465 0 -1 -1 
  2459012.7697210       0.997784       0.007464 0 -1 -1 
  2459012.7711100       0.989519       0.007470 0 -1 -1 
  2459012.7724990       1.012516       0.007466 0 -1 -1 
  2459012.7752770       0.999068       0.007474 0 -1 -1 
  2459012.7766660       0.988942       0.007459 0 -1 -1 
  2459012.7780550       1.006877       0.007501 0 -1 -1 
  2459012.7794440       0.991735       0.007466 0 -1 -1 
  2459012.7808320       1.004037       0.007475 0 -1 -1 
  2459012.7822210       0.999210       0.007470 0 -1 -1 
  2459012.7836100       1.005126       0.007475 0 -1 -1 
  2459012.7849990       1.010483       0.007482 0 -1 -1 
  2459012.7863880       1.011641       0.007496 0 -1 -1 
  2459012.7877770       1.002894       0.007474 0 -1 -1 
  2459012.7891660       1.003342       0.007482 0 -1 -1 
  2459012.7905550       0.998829       0.007513 0 -1 -1 
  2459012.7919440       0.990255       0.007478 0 -1 -1 
  2459012.7933320       0.993563       0.007478 0 -1 -1 
  2459012.7947210       0.998369       0.007482 0 -1 -1 
  2459012.7961100       1.000811       0.007508 0 -1 -1 
  2459012.7974990       1.000606       0.007489 0 -1 -1 
  2459012.7988880       1.003400       0.007490 0 -1 -1 
  2459012.8002770       0.995538       0.007493 0 -1 -1 
  2459012.8016660       0.998903       0.007489 0 -1 -1 
  2459012.8030550       0.998292       0.007494 0 -1 -1 
  2459012.8044440       0.997488       0.007494 0 -1 -1 
  2459012.8058320       0.998147       0.007523 0 -1 -1 
  2459012.8072210       1.003750       0.007497 0 -1 -1 
  2459012.8086100       1.012638       0.007516 0 -1 -1 
  2459012.8099990       0.998648       0.007495 0 -1 -1 
  2459012.8113880       0.994067       0.007495 0 -1 -1 
  2459012.8127770       1.000647       0.007510 0 -1 -1 
  2459012.8141660       1.005833       0.007506 0 -1 -1 
  2459012.8155550       0.993353       0.007492 0 -1 -1 
  2459012.8169440       1.007531       0.007518 0 -1 -1 
  2459012.8183330       0.996657       0.007498 0 -1 -1 
  2459012.8197210       1.000900       0.007506 0 -1 -1 
  2459012.8211100       0.995108       0.007527 0 -1 -1 
  2459012.8224990       1.008098       0.007514 0 -1 -1 
  2459012.8238880       0.998280       0.007511 0 -1 -1 
  2459012.8252770       1.003510       0.007505 0 -1 -1 
  2459012.8266660       1.008489       0.007511 0 -1 -1 
  2459012.8280550       0.992870       0.007512 0 -1 -1 
  2459012.8294440       1.013788       0.007509 0 -1 -1 
  2459012.8308330       1.005329       0.007544 0 -1 -1 
  2459012.8322210       1.008716       0.007515 0 -1 -1 
  2459012.8336100       1.000485       0.007519 0 -1 -1 
  2459012.8349990       0.989121       0.007503 0 -1 -1 
  2459012.8363880       0.988189       0.007510 0 -1 -1 
  2459012.8377770       0.996765       0.007515 0 -1 -1 
  2459012.8391660       0.994425       0.007516 0 -1 -1 
  2459012.8405550       1.002061       0.007515 0 -1 -1 
  2459012.8419440       1.004415       0.007527 0 -1 -1 
  2459012.8433330       1.000446       0.007521 0 -1 -1 
  2459012.8447210       1.001406       0.007516 0 -1 -1 
  2459012.8461100       1.014685       0.007536 0 -1 -1 
  2459012.8474990       1.008392       0.007533 0 -1 -1 
  2459012.8488880       1.001441       0.007533 0 -1 -1 
  2459012.8502770       0.998084       0.007531 0 -1 -1 
  2459012.8516660       1.001004       0.007530 0 -1 -1 
  2459012.8530550       1.011319       0.007529 0 -1 -1 
  2459012.8544440       1.019377       0.007541 0 -1 -1 
  2459012.8558330       1.002580       0.007521 0 -1 -1 
  2459012.8572220       0.994913       0.007526 0 -1 -1 
  2459012.8586100       1.004930       0.007533 0 -1 -1 
  2459012.8599990       0.996146       0.007526 0 -1 -1 
  2459012.8613880       0.996000       0.007523 0 -1 -1 
  2459012.8627770       1.004265       0.007532 0 -1 -1 
  2459012.8641660       1.007235       0.007530 0 -1 -1 
  2459012.8655550       0.990693       0.007530 0 -1 -1 
  2459012.8669440       1.009004       0.007536 0 -1 -1 
  2459012.8683330       0.991467       0.007532 0 -1 -1 
  2459012.8697220       0.987457       0.007545 0 -1 -1 
  2459012.8711100       1.001961       0.007535 0 -1 -1 
  2459012.8724990       1.005895       0.007529 0 -1 -1 
  2459012.8738880       0.995120       0.007535 0 -1 -1 
  2459012.8752770       0.996377       0.007538 0 -1 -1 
  2459012.8766660       0.999186       0.007534 0 -1 -1 
  2459012.8780550       1.005634       0.007534 0 -1 -1 
  2459012.8794440       0.986893       0.007522 0 -1 -1 
  2459012.8808330       0.998288       0.007537 0 -1 -1 
  2459012.8822220       1.004792       0.007557 0 -1 -1 
  2459012.8836100       1.004644       0.007529 0 -1 -1 
  2459012.8849990       1.007245       0.007551 0 -1 -1 
  2459012.8863880       1.000790       0.007537 0 -1 -1 
  2459012.8877770       0.999993       0.007529 0 -1 -1 
  2459012.8891660       1.007762       0.007536 0 -1 -1 
  2459012.8905550       1.003867       0.007537 0 -1 -1 
  2459012.8919440       1.001944       0.007533 0 -1 -1 
  2459012.8933330       1.006943       0.007541 0 -1 -1 
  2459012.8947220       0.995629       0.007542 0 -1 -1 
  2459012.8961110       1.002430       0.007536 0 -1 -1 
  2459012.8974990       0.995965       0.007537 0 -1 -1 
  2459012.8988880       0.999089       0.007542 0 -1 -1 
  2459012.9002770       0.993955       0.007535 0 -1 -1 
  2459012.9016660       0.998940       0.007533 0 -1 -1 
  2459012.9030550       0.997261       0.007535 0 -1 -1 
  2459012.9044440       0.997927       0.007530 0 -1 -1 
  2459012.9058330       0.996001       0.007532 0 -1 -1 
  2459012.9072220       1.008761       0.007535 0 -1 -1 
  2459012.9086110       1.002145       0.007541 0 -1 -1 
  2459012.9099990       1.007705       0.007536 0 -1 -1 
  2459012.9113880       0.996034       0.007533 0 -1 -1 
  2459012.9127770       1.006120       0.007543 0 -1 -1 
  2459012.9141660       0.996750       0.007543 0 -1 -1 
  2459012.9155550       0.999105       0.007531 0 -1 -1 
  2459012.9169440       1.011035       0.007544 0 -1 -1 
  2459012.9183330       0.997176       0.007530 0 -1 -1 
  2459012.9197220       1.003540       0.007539 0 -1 -1 
  2459012.9211110       0.994989       0.007528 0 -1 -1 
  2459012.9224990       0.994990       0.007531 0 -1 -1 
  2459012.9238880       0.995558       0.007537 0 -1 -1 
  2459012.9252770       0.994496       0.007526 0 -1 -1 
  2459012.9266660       1.002135       0.007537 0 -1 -1 
  2459012.9280550       1.010603       0.007552 0 -1 -1 
  2459012.9294440       0.996785       0.007542 0 -1 -1 
  2459012.9308330       0.990893       0.007518 0 -1 -1 
  2459012.9322220       0.984733       0.007527 0 -1 -1 
  2459012.9336110       1.001039       0.007538 0 -1 -1 
  2459012.9350000       0.999601       0.007526 0 -1 -1 
  2459012.9363880       0.994241       0.007532 0 -1 -1 
  2459012.9377770       0.995677       0.007523 0 -1 -1 
  2459012.9391660       0.995904       0.007547 0 -1 -1 
  2459012.9405550       1.003414       0.007521 0 -1 -1 
  2459012.9419440       1.003402       0.007541 0 -1 -1 
  2459012.9433330       0.996216       0.007518 0 -1 -1 
  2459012.9447220       1.007586       0.007520 0 -1 -1 
  2459012.9461110       0.998108       0.007527 0 -1 -1 
  2459012.9475000       0.992386       0.007526 0 -1 -1 
  2459012.9488880       0.994939       0.007516 0 -1 -1 
  2459012.9502770       1.000065       0.007520 0 -1 -1 
  2459012.9516660       1.001718       0.007519 0 -1 -1 
  2459012.9530550       1.002050       0.007533 0 -1 -1 
  2459012.9544440       0.996128       0.007513 0 -1 -1 
  2459012.9558330       1.010064       0.007516 0 -1 -1 
  2459012.9572220       0.995367       0.007512 0 -1 -1 
  2459012.9586110       1.002534       0.007513 0 -1 -1 
  2459012.9600000       1.006209       0.007527 0 -1 -1 
  2459012.9613880       1.005377       0.007516 0 -1 -1 
  2459012.9627770       1.003785       0.007532 0 -1 -1 
  2459012.9641660       0.992033       0.007501 0 -1 -1 
  2459012.9655550       0.999267       0.007546 0 -1 -1 
  2459012.9669440       0.999661       0.007503 0 -1 -1 
  2459012.9683330       1.003397       0.007512 0 -1 -1 
  2459012.9697220       1.001261       0.007508 0 -1 -1 
  2459012.9711110       0.996876       0.007509 0 -1 -1 
  2459012.9725000       0.998925       0.007509 0 -1 -1 
  2459012.9738880       1.000874       0.007514 0 -1 -1 
  2459012.9752770       0.993548       0.007510 0 -1 -1 
  2459012.9766660       0.996053       0.007497 0 -1 -1 
  2459012.9780550       0.992927       0.007529 0 -1 -1 
  2459012.9794440       1.003993       0.007500 0 -1 -1 
  2459012.9808330       0.996763       0.007496 0 -1 -1 
  2459012.9822220       0.999442       0.007498 0 -1 -1 
  2459012.9836110       1.006521       0.007500 0 -1 -1 
  2459012.9850000       0.995661       0.007493 0 -1 -1 
  2459012.9863890       1.007720       0.007503 0 -1 -1 
  2459012.9877770       1.015134       0.007511 0 -1 -1 
  2459012.9891660       1.003425       0.007496 0 -1 -1 
  2459012.9905550       0.993815       0.007500 0 -1 -1 
  2459012.9919440       0.991457       0.007503 0 -1 -1 
  2459012.9933330       1.003653       0.007501 0 -1 -1 
  2459012.9947220       0.994045       0.007487 0 -1 -1 
  2459012.9961110       1.004037       0.007491 0 -1 -1 
  2459012.9975000       1.000348       0.007491 0 -1 -1 
  2459012.9988890       0.991859       0.007501 0 -1 -1 
  2459013.0002770       0.999354       0.007495 0 -1 -1 
  2459013.0016660       1.007962       0.007506 0 -1 -1 
  2459013.0030550       0.994461       0.007499 0 -1 -1 
  2459013.0044440       0.991160       0.007500 0 -1 -1 
  2459013.0058330       0.999242       0.007493 0 -1 -1 
  2459013.0072220       1.002144       0.007484 0 -1 -1 
  2459013.0086110       0.996077       0.007479 0 -1 -1 
  2459013.0100000       1.015960       0.007501 0 -1 -1 
  2459013.0113890       1.005039       0.007516 0 -1 -1 
  2459013.0127770       1.003473       0.007485 0 -1 -1 
  2459013.0141660       1.004787       0.007497 0 -1 -1 
  2459013.0155550       1.004323       0.007484 0 -1 -1 
  2459013.0169440       1.001160       0.007488 0 -1 -1 
  2459013.0183330       0.997409       0.007506 0 -1 -1 
  2459013.0197220       0.994238       0.007480 0 -1 -1 
