  2459744.2999850       1.011242       0.004358 0 -1 -1 
  2459744.3013740       0.998652       0.004345 0 -1 -1 
  2459744.3027630       1.001903       0.004344 0 -1 -1 
  2459744.3041510       1.010398       0.004356 0 -1 -1 
  2459744.3055400       0.992789       0.004337 0 -1 -1 
  2459744.3069290       1.001511       0.004355 0 -1 -1 
  2459744.3083180       1.000773       0.004348 0 -1 -1 
  2459744.3097070       1.002677       0.004353 0 -1 -1 
  2459744.3110960       1.004883       0.004356 0 -1 -1 
  2459744.3124850       0.998248       0.004352 0 -1 -1 
  2459744.3138740       1.007652       0.004361 0 -1 -1 
  2459744.3152630       0.997460       0.004351 0 -1 -1 
  2459744.3166510       1.009805       0.004362 0 -1 -1 
  2459744.3180400       1.007589       0.004369 0 -1 -1 
  2459744.3194290       0.997501       0.004359 0 -1 -1 
  2459744.3208180       1.002061       0.004365 0 -1 -1 
  2459744.3222070       1.005852       0.004369 0 -1 -1 
  2459744.3235960       1.001428       0.004367 0 -1 -1 
  2459744.3249850       0.998686       0.004368 0 -1 -1 
  2459744.3263740       0.997098       0.004369 0 -1 -1 
  2459744.3277630       1.000603       0.004371 0 -1 -1 
  2459744.3291510       1.002143       0.004375 0 -1 -1 
  2459744.3305400       1.001463       0.004378 0 -1 -1 
  2459744.3319290       1.000493       0.004378 0 -1 -1 
  2459744.3333180       1.001864       0.004377 0 -1 -1 
  2459744.3347070       1.001616       0.004385 0 -1 -1 
  2459744.3360960       0.996125       0.004381 0 -1 -1 
  2459744.3374850       1.004287       0.004390 0 -1 -1 
  2459744.3388740       1.015491       0.004401 0 -1 -1 
  2459744.3402630       1.005243       0.004393 0 -1 -1 
  2459744.3416510       0.997072       0.004390 0 -1 -1 
  2459744.3430400       1.008045       0.004399 0 -1 -1 
  2459744.3444290       0.999287       0.004396 0 -1 -1 
  2459744.3458180       0.994748       0.004396 0 -1 -1 
  2459744.3472070       1.002045       0.004404 0 -1 -1 
  2459744.3485960       0.995674       0.004401 0 -1 -1 
  2459744.3499850       1.002242       0.004407 0 -1 -1 
  2459744.3513740       1.007613       0.004411 0 -1 -1 
  2459744.3527630       1.008036       0.004414 0 -1 -1 
  2459744.3541510       0.998047       0.004409 0 -1 -1 
  2459744.3555400       1.001820       0.004416 0 -1 -1 
  2459744.3569290       0.994999       0.004413 0 -1 -1 
  2459744.3583180       0.999017       0.004422 0 -1 -1 
  2459744.3597070       0.996813       0.004420 0 -1 -1 
  2459744.3610960       1.002072       0.004425 0 -1 -1 
  2459744.3624850       0.999949       0.004426 0 -1 -1 
  2459744.3638740       0.997651       0.004429 0 -1 -1 
  2459744.3652620       0.997513       0.004430 0 -1 -1 
  2459744.3666510       0.993568       0.004430 0 -1 -1 
  2459744.3680400       1.005936       0.004445 0 -1 -1 
  2459744.3694290       0.998746       0.004438 0 -1 -1 
  2459744.3708180       0.990578       0.004433 0 -1 -1 
  2459744.3722070       0.998698       0.004443 0 -1 -1 
  2459744.3735960       1.004707       0.004452 0 -1 -1 
  2459744.3749850       1.007927       0.004453 0 -1 -1 
  2459744.3763740       1.007400       0.004457 0 -1 -1 
  2459744.3777620       0.999290       0.004456 0 -1 -1 
  2459744.3791510       1.000040       0.004457 0 -1 -1 
  2459744.3805400       0.999384       0.004463 0 -1 -1 
  2459744.3819290       0.998335       0.004460 0 -1 -1 
  2459744.3833180       1.003789       0.004470 0 -1 -1 
  2459744.3847070       1.001143       0.004469 0 -1 -1 
  2459744.3860960       0.999361       0.004470 0 -1 -1 
  2459744.3874850       1.001888       0.004473 0 -1 -1 
  2459744.3888740       1.005967       0.004485 0 -1 -1 
  2459744.3902620       1.008311       0.004485 0 -1 -1 
  2459744.3916510       1.004234       0.004488 0 -1 -1 
  2459744.3930400       1.004137       0.004489 0 -1 -1 
  2459744.3944290       0.999935       0.004488 0 -1 -1 
  2459744.3958180       1.000638       0.004488 0 -1 -1 
  2459744.3972070       0.992626       0.004485 0 -1 -1 
  2459744.3985960       0.998414       0.004498 0 -1 -1 
  2459744.3999850       1.001361       0.004497 0 -1 -1 
  2459744.4013740       1.006493       0.004509 0 -1 -1 
  2459744.4027620       1.006812       0.004509 0 -1 -1 
  2459744.4041510       1.002195       0.004505 0 -1 -1 
  2459744.4055400       1.006027       0.004510 0 -1 -1 
  2459744.4069290       0.994805       0.004503 0 -1 -1 
  2459744.4083180       1.004463       0.004515 0 -1 -1 
  2459744.4097070       0.987407       0.004505 0 -1 -1 
  2459744.4110960       0.997976       0.004520 0 -1 -1 
  2459744.4124850       0.998825       0.004521 0 -1 -1 
  2459744.4138730       0.999146       0.004524 0 -1 -1 
  2459744.4152620       0.998965       0.004524 0 -1 -1 
  2459744.4166510       1.000552       0.004523 0 -1 -1 
  2459744.4180400       1.006296       0.004531 0 -1 -1 
  2459744.4194290       1.001493       0.004530 0 -1 -1 
  2459744.4208180       1.005973       0.004534 0 -1 -1 
  2459744.4222070       0.997840       0.004533 0 -1 -1 
  2459744.4235960       0.997021       0.004537 0 -1 -1 
  2459744.4249850       0.998350       0.004534 0 -1 -1 
  2459744.4263730       1.009331       0.004547 0 -1 -1 
  2459744.4277620       0.995900       0.004535 0 -1 -1 
  2459744.4291510       1.000848       0.004540 0 -1 -1 
  2459744.4305400       0.999742       0.004543 0 -1 -1 
  2459744.4319290       0.993826       0.004537 0 -1 -1 
  2459744.4333180       1.007381       0.004552 0 -1 -1 
  2459744.4347070       0.999552       0.004549 0 -1 -1 
  2459744.4360960       1.000781       0.004546 0 -1 -1 
  2459744.4374850       0.991271       0.004544 0 -1 -1 
  2459744.4388730       1.001821       0.004555 0 -1 -1 
  2459744.4402620       1.004533       0.004556 0 -1 -1 
  2459744.4416510       0.992069       0.004546 0 -1 -1 
  2459744.4430400       1.000270       0.004549 0 -1 -1 
  2459744.4444290       0.993394       0.004553 0 -1 -1 
  2459744.4458180       0.994086       0.004559 0 -1 -1 
  2459744.4472070       1.005163       0.004564 0 -1 -1 
  2459744.4485960       1.003889       0.004565 0 -1 -1 
  2459744.4499850       1.002461       0.004564 0 -1 -1 
  2459744.4513730       0.996704       0.004561 0 -1 -1 
  2459744.4527620       1.004049       0.004564 0 -1 -1 
  2459744.4541510       0.994544       0.004565 0 -1 -1 
  2459744.4555400       0.998507       0.004568 0 -1 -1 
  2459744.4569290       1.003998       0.004576 0 -1 -1 
  2459744.4583180       0.997324       0.004570 0 -1 -1 
  2459744.4597070       0.999365       0.004569 0 -1 -1 
  2459744.4610960       1.005379       0.004579 0 -1 -1 
  2459744.4624850       1.001414       0.004575 0 -1 -1 
  2459744.4638730       0.993241       0.004570 0 -1 -1 
  2459744.4652620       0.996651       0.004577 0 -1 -1 
  2459744.4666510       1.004499       0.004587 0 -1 -1 
  2459744.4680400       1.006931       0.004589 0 -1 -1 
  2459744.4694290       1.004316       0.004585 0 -1 -1 
  2459744.4708180       1.000363       0.004583 0 -1 -1 
  2459744.4722070       1.004725       0.004591 0 -1 -1 
  2459744.4735960       1.000086       0.004589 0 -1 -1 
  2459744.4749840       0.997031       0.004588 0 -1 -1 
  2459744.4763730       1.001780       0.004595 0 -1 -1 
  2459744.4777620       0.995519       0.004589 0 -1 -1 
  2459744.4791510       0.994412       0.004597 0 -1 -1 
  2459744.4805400       0.999158       0.004599 0 -1 -1 
  2459744.4819290       0.995693       0.004597 0 -1 -1 
  2459744.4833180       1.002492       0.004606 0 -1 -1 
  2459744.4847070       0.997966       0.004608 0 -1 -1 
  2459744.4860960       1.003141       0.004610 0 -1 -1 
  2459744.4874840       1.003662       0.004613 0 -1 -1 
  2459744.4888730       0.999967       0.004616 0 -1 -1 
  2459744.4902620       0.995609       0.004610 0 -1 -1 
  2459744.4916510       1.006500       0.004623 0 -1 -1 
  2459744.4930400       0.997881       0.004615 0 -1 -1 
  2459744.4944290       0.999366       0.004622 0 -1 -1 
  2459744.4958180       1.004674       0.004632 0 -1 -1 
  2459744.4972070       1.000047       0.004626 0 -1 -1 
  2459744.4985960       0.993673       0.004619 0 -1 -1 
  2459744.4999840       0.994093       0.004624 0 -1 -1 
  2459744.5013730       1.003813       0.004635 0 -1 -1 
  2459744.5027620       1.000627       0.004633 0 -1 -1 
  2459744.5041510       1.001864       0.004639 0 -1 -1 
  2459744.5055400       0.998936       0.004638 0 -1 -1 
  2459744.5069290       0.997365       0.004637 0 -1 -1 
  2459744.5083180       1.008599       0.004649 0 -1 -1 
  2459744.5097070       1.000130       0.004644 0 -1 -1 
  2459744.5110960       1.000379       0.004649 0 -1 -1 
  2459744.5124840       1.003109       0.004648 0 -1 -1 
  2459744.5138730       0.997056       0.004653 0 -1 -1 
  2459744.5152620       1.001505       0.004652 0 -1 -1 
  2459744.5166510       0.996424       0.004658 0 -1 -1 
  2459744.5180400       1.002889       0.004658 0 -1 -1 
  2459744.5194290       1.004934       0.004663 0 -1 -1 
  2459744.5208180       1.006118       0.004662 0 -1 -1 
  2459744.5222070       0.998994       0.004658 0 -1 -1 
  2459744.5235950       0.993997       0.004656 0 -1 -1 
  2459744.5249840       0.999623       0.004664 0 -1 -1 
  2459744.5263730       0.996454       0.004664 0 -1 -1 
  2459744.5277620       0.996638       0.004663 0 -1 -1 
  2459744.5291510       0.999993       0.004667 0 -1 -1 
  2459744.5305400       1.002287       0.004674 0 -1 -1 
  2459744.5319290       0.998044       0.004669 0 -1 -1 
  2459744.5333180       1.002282       0.004673 0 -1 -1 
  2459744.5347070       1.000258       0.004675 0 -1 -1 
  2459744.5360950       0.993868       0.004678 0 -1 -1 
  2459744.5374840       0.993368       0.004674 0 -1 -1 
  2459744.5388730       1.004138       0.004685 0 -1 -1 
  2459744.5402620       1.002424       0.004689 0 -1 -1 
  2459744.5416510       0.995638       0.004685 0 -1 -1 
  2459744.5430400       0.999492       0.004685 0 -1 -1 
  2459744.5444290       0.997150       0.004685 0 -1 -1 
  2459744.5458180       0.994703       0.004681 0 -1 -1 
  2459744.5472070       1.004067       0.004695 0 -1 -1 
  2459744.5485950       0.998584       0.004689 0 -1 -1 
  2459744.5499840       0.992922       0.004690 0 -1 -1 
  2459744.5513730       0.997359       0.004693 0 -1 -1 
  2459744.5527620       0.998461       0.004695 0 -1 -1 
  2459744.5541510       0.995718       0.004694 0 -1 -1 
  2459744.5555400       0.995371       0.004700 0 -1 -1 
  2459744.5569290       1.005448       0.004706 0 -1 -1 
  2459744.5583180       0.997332       0.004697 0 -1 -1 
  2459744.5597070       1.004297       0.004705 0 -1 -1 
  2459744.5610950       0.998844       0.004706 0 -1 -1 
  2459744.5624840       1.004990       0.004710 0 -1 -1 
  2459744.5638730       0.996917       0.004709 0 -1 -1 
  2459744.5652620       0.994890       0.004706 0 -1 -1 
  2459744.5666510       0.994488       0.004706 0 -1 -1 
  2459744.5680400       0.993943       0.004707 0 -1 -1 
  2459744.5694290       0.997578       0.004714 0 -1 -1 
  2459744.5708180       0.999742       0.004716 0 -1 -1 
  2459744.5722060       1.002003       0.004718 0 -1 -1 
  2459744.5735950       1.002787       0.004728 0 -1 -1 
  2459744.5749840       1.009935       0.004727 0 -1 -1 
  2459744.5763730       0.992392       0.004719 0 -1 -1 
  2459744.5777620       0.996023       0.004721 0 -1 -1 
  2459744.5791510       1.008538       0.004730 0 -1 -1 
  2459744.5805400       0.997585       0.004721 0 -1 -1 
  2459744.5819290       0.999501       0.004726 0 -1 -1 
  2459744.5833180       0.995203       0.004721 0 -1 -1 
  2459744.5847060       0.996677       0.004720 0 -1 -1 
  2459744.5860950       0.995369       0.004719 0 -1 -1 
  2459744.5874840       1.001096       0.004727 0 -1 -1 
  2459744.5888730       0.990713       0.004722 0 -1 -1 
  2459744.5902620       0.995243       0.004717 0 -1 -1 
  2459744.5916510       0.999046       0.004723 0 -1 -1 
  2459744.5930400       0.996204       0.004717 0 -1 -1 
  2459744.5944290       1.000470       0.004721 0 -1 -1 
  2459744.5958180       1.003310       0.004720 0 -1 -1 
  2459744.5972060       1.003098       0.004724 0 -1 -1 
  2459744.5985950       1.001567       0.004718 0 -1 -1 
  2459744.5999840       0.996745       0.004718 0 -1 -1 
  2459744.6013730       0.994109       0.004716 0 -1 -1 
  2459744.6027620       0.999622       0.004719 0 -1 -1 
  2459744.6041510       0.998113       0.004718 0 -1 -1 
  2459744.6055400       1.006728       0.004727 0 -1 -1 
  2459744.6069290       0.998234       0.004713 0 -1 -1 
  2459744.6083180       1.003455       0.004724 0 -1 -1 
  2459744.6097060       1.000850       0.004720 0 -1 -1 
  2459744.6110950       0.996716       0.004720 0 -1 -1 
  2459744.6124840       1.009268       0.004724 0 -1 -1 
  2459744.6138730       0.989957       0.004708 0 -1 -1 
  2459744.6152620       0.997642       0.004719 0 -1 -1 
  2459744.6166510       1.004475       0.004725 0 -1 -1 
  2459744.6180400       1.006019       0.004726 0 -1 -1 
  2459744.6194290       1.000052       0.004721 0 -1 -1 
  2459744.6208170       0.995107       0.004714 0 -1 -1 
  2459744.6222060       1.004067       0.004727 0 -1 -1 
  2459744.6235950       1.001307       0.004721 0 -1 -1 
  2459744.6249840       1.005721       0.004725 0 -1 -1 
  2459744.6263730       1.000249       0.004721 0 -1 -1 
  2459744.6277620       1.001907       0.004722 0 -1 -1 
  2459744.6291510       0.998267       0.004720 0 -1 -1 
  2459744.6305400       1.000243       0.004726 0 -1 -1 
  2459744.6319290       1.000427       0.004727 0 -1 -1 
  2459744.6333170       0.998842       0.004724 0 -1 -1 
  2459744.6347060       0.998498       0.004727 0 -1 -1 
  2459744.6360950       1.007978       0.004733 0 -1 -1 
  2459744.6374840       0.996080       0.004724 0 -1 -1 
  2459744.6388730       1.001995       0.004730 0 -1 -1 
  2459744.6402620       1.002464       0.004727 0 -1 -1 
  2459744.6416510       0.998791       0.004727 0 -1 -1 
  2459744.6430400       0.994800       0.004724 0 -1 -1 
  2459744.6444290       1.010581       0.004736 0 -1 -1 
  2459744.6458170       1.001737       0.004726 0 -1 -1 
  2459744.6472060       0.998492       0.004727 0 -1 -1 
  2459744.6485950       1.000590       0.004731 0 -1 -1 
  2459744.6499840       1.003237       0.004732 0 -1 -1 
  2459744.6513730       1.000550       0.004735 0 -1 -1 
  2459744.6527620       1.000303       0.004733 0 -1 -1 
  2459744.6541510       1.002324       0.004734 0 -1 -1 
  2459744.6555400       0.998402       0.004731 0 -1 -1 
  2459744.6569290       0.991843       0.004726 0 -1 -1 
  2459744.6583170       0.997797       0.004727 0 -1 -1 
  2459744.6597060       0.998514       0.004727 0 -1 -1 
  2459744.6610950       1.003426       0.004739 0 -1 -1 
  2459744.6624840       0.991115       0.004725 0 -1 -1 
  2459744.6638730       0.998924       0.004737 0 -1 -1 
  2459744.6652620       0.995610       0.004732 0 -1 -1 
  2459744.6666510       0.999399       0.004733 0 -1 -1 
  2459744.6680400       1.002332       0.004733 0 -1 -1 
  2459744.6694280       0.991015       0.004729 0 -1 -1 
  2459744.6708170       1.002555       0.004734 0 -1 -1 
  2459744.6722060       0.991866       0.004724 0 -1 -1 
  2459744.6735950       0.998812       0.004735 0 -1 -1 
  2459744.6749840       1.002181       0.004736 0 -1 -1 
  2459744.6763730       0.998559       0.004734 0 -1 -1 
  2459744.6777620       1.003242       0.004739 0 -1 -1 
  2459744.6791510       1.005296       0.004744 0 -1 -1 
  2459744.6805400       1.009325       0.004743 0 -1 -1 
  2459744.6819280       1.004602       0.004739 0 -1 -1 
  2459744.6833170       1.002286       0.004733 0 -1 -1 
  2459744.6847060       0.993120       0.004730 0 -1 -1 
  2459744.6860950       1.001865       0.004736 0 -1 -1 
  2459744.6874840       0.995088       0.004728 0 -1 -1 
  2459744.6888730       1.001798       0.004737 0 -1 -1 
  2459744.6902620       0.993748       0.004726 0 -1 -1 
  2459744.6916510       1.004011       0.004742 0 -1 -1 
  2459744.6930400       1.005168       0.004736 0 -1 -1 
  2459744.6944280       1.003812       0.004739 0 -1 -1 
  2459744.6958170       0.998859       0.004735 0 -1 -1 
  2459744.6972060       1.004630       0.004735 0 -1 -1 
  2459744.6985950       1.007418       0.004740 0 -1 -1 
  2459744.6999840       0.987891       0.004725 0 -1 -1 
  2459744.7013730       1.012745       0.004747 0 -1 -1 
  2459744.7027620       1.005728       0.004737 0 -1 -1 
  2459744.7041510       1.000749       0.004736 0 -1 -1 
  2459744.7055400       0.990724       0.004731 0 -1 -1 
  2459744.7069280       1.005429       0.004744 0 -1 -1 
  2459744.7083170       0.998097       0.004736 0 -1 -1 
  2459744.7097060       1.000805       0.004738 0 -1 -1 
  2459744.7110950       1.002789       0.004742 0 -1 -1 
  2459744.7124840       0.999791       0.004739 0 -1 -1 
  2459744.7138730       0.999288       0.004739 0 -1 -1 
  2459744.7152620       1.009700       0.004747 0 -1 -1 
  2459744.7166510       1.007247       0.004747 0 -1 -1 
  2459744.7180390       1.005018       0.004742 0 -1 -1 
  2459744.7194280       1.000822       0.004746 0 -1 -1 
  2459744.7208170       0.997648       0.004740 0 -1 -1 
  2459744.7222060       0.996708       0.004743 0 -1 -1 
  2459744.7235950       0.994394       0.004746 0 -1 -1 
  2459744.7249840       1.006164       0.004752 0 -1 -1 
  2459744.7263730       1.003501       0.004752 0 -1 -1 
  2459744.7277620       1.000149       0.004749 0 -1 -1 
  2459744.7291510       0.993124       0.004752 0 -1 -1 
  2459744.7305390       0.993608       0.004753 0 -1 -1 
  2459744.7319280       1.003741       0.004757 0 -1 -1 
  2459744.7333170       0.995618       0.004756 0 -1 -1 
  2459744.7347060       1.006175       0.004763 0 -1 -1 
  2459744.7360950       0.991924       0.004748 0 -1 -1 
  2459744.7374840       0.993938       0.004758 0 -1 -1 
  2459744.7388730       1.002464       0.004761 0 -1 -1 
  2459744.7402620       0.997028       0.004761 0 -1 -1 
  2459744.7416510       1.003794       0.004767 0 -1 -1 
  2459744.7430390       1.002987       0.004770 0 -1 -1 
  2459744.7444280       1.003895       0.004770 0 -1 -1 
  2459744.7458170       0.997638       0.004769 0 -1 -1 
  2459744.7472060       1.002737       0.004771 0 -1 -1 
  2459744.7485950       1.001647       0.004778 0 -1 -1 
  2459744.7499840       1.003046       0.004780 0 -1 -1 
  2459744.7513730       0.999016       0.004777 0 -1 -1 
  2459744.7527620       1.000183       0.004778 0 -1 -1 
  2459744.7541510       1.002780       0.004780 0 -1 -1 
  2459744.7555390       0.995337       0.004776 0 -1 -1 
  2459744.7569280       1.000489       0.004781 0 -1 -1 
  2459744.7583170       1.003105       0.004783 0 -1 -1 
  2459744.7597060       0.998702       0.004781 0 -1 -1 
  2459744.7610950       1.006528       0.004796 0 -1 -1 
  2459744.7624840       1.001561       0.004792 0 -1 -1 
  2459744.7638730       1.005106       0.004792 0 -1 -1 
  2459744.7652620       0.998448       0.004793 0 -1 -1 
  2459744.7666500       1.001125       0.004795 0 -1 -1 
  2459744.7680390       0.996801       0.004788 0 -1 -1 
  2459744.7694280       0.987933       0.004782 0 -1 -1 
  2459744.7708170       1.001501       0.004796 0 -1 -1 
  2459744.7722060       0.988957       0.004791 0 -1 -1 
  2459744.7735950       1.001766       0.004800 0 -1 -1 
  2459744.7749840       1.002837       0.004806 0 -1 -1 
  2459744.7763730       1.003923       0.004807 0 -1 -1 
  2459744.7777620       0.993058       0.004796 0 -1 -1 
  2459744.7791500       0.998973       0.004803 0 -1 -1 
  2459744.7805390       0.996591       0.004801 0 -1 -1 
  2459744.7819280       0.985364       0.004793 0 -1 -1 
  2459744.7833170       1.000888       0.004807 0 -1 -1 
  2459744.7847060       0.996754       0.004807 0 -1 -1 
  2459744.7860950       0.999083       0.004809 0 -1 -1 
  2459744.7874840       0.997359       0.004808 0 -1 -1 
  2459744.7888730       1.000328       0.004810 0 -1 -1 
  2459744.7902620       0.999924       0.004810 0 -1 -1 
  2459744.7916500       0.999887       0.004812 0 -1 -1 
  2459744.7930390       0.995461       0.004817 0 -1 -1 
  2459744.7944280       1.001539       0.004818 0 -1 -1 
  2459744.7958170       0.996004       0.004817 0 -1 -1 
  2459744.7972060       0.997232       0.004811 0 -1 -1 
  2459744.7985950       0.997501       0.004813 0 -1 -1 
  2459744.7999840       0.993525       0.004817 0 -1 -1 
  2459744.8013730       0.999603       0.004819 0 -1 -1 
  2459744.8027620       0.997902       0.004819 0 -1 -1 
  2459744.8041500       0.988211       0.004811 0 -1 -1 
  2459744.8055390       0.992668       0.004811 0 -1 -1 
  2459744.8069280       0.985514       0.004805 0 -1 -1 
  2459744.8083170       0.977527       0.004804 0 -1 -1 
  2459744.8097060       0.974860       0.004806 0 -1 -1 
  2459744.8110950       0.981771       0.004807 0 -1 -1 
  2459744.8124840       0.983584       0.004810 0 -1 -1 
  2459744.8138730       0.978361       0.004810 0 -1 -1 
  2459744.8152610       0.984391       0.004817 0 -1 -1 
  2459744.8166500       0.975471       0.004808 0 -1 -1 
  2459744.8180390       0.981561       0.004817 0 -1 -1 
  2459744.8194280       0.990903       0.004825 0 -1 -1 
  2459744.8208170       0.983723       0.004821 0 -1 -1 
  2459744.8222060       0.980560       0.004817 0 -1 -1 
  2459744.8235950       0.987533       0.004824 0 -1 -1 
  2459744.8249840       0.977489       0.004820 0 -1 -1 
  2459744.8263730       0.977876       0.004821 0 -1 -1 
  2459744.8277610       0.971846       0.004812 0 -1 -1 
  2459744.8291500       0.982079       0.004824 0 -1 -1 
  2459744.8305390       0.981028       0.004820 0 -1 -1 
  2459744.8319280       0.981206       0.004826 0 -1 -1 
  2459744.8333170       0.985058       0.004824 0 -1 -1 
  2459744.8347060       0.982967       0.004826 0 -1 -1 
  2459744.8360950       0.981450       0.004829 0 -1 -1 
  2459744.8374840       0.986710       0.004829 0 -1 -1 
  2459744.8388730       0.982765       0.004829 0 -1 -1 
  2459744.8402610       0.984537       0.004833 0 -1 -1 
  2459744.8416500       0.982918       0.004839 0 -1 -1 
  2459744.8430390       0.982973       0.004836 0 -1 -1 
  2459744.8458170       0.982871       0.004839 0 -1 -1 
  2459744.8472060       0.981151       0.004843 0 -1 -1 
  2459744.8485950       0.985304       0.004843 0 -1 -1 
  2459744.8499840       0.981221       0.004843 0 -1 -1 
  2459744.8513720       0.986248       0.004846 0 -1 -1 
  2459744.8527610       0.990134       0.004851 0 -1 -1 
  2459744.8541500       0.991941       0.004852 0 -1 -1 
  2459744.8555390       0.988452       0.004850 0 -1 -1 
  2459744.8569280       0.986648       0.004849 0 -1 -1 
  2459744.8583170       1.000229       0.004865 0 -1 -1 
  2459744.8597060       0.998219       0.004866 0 -1 -1 
  2459744.8610950       1.001636       0.004865 0 -1 -1 
  2459744.8624840       0.995421       0.004860 0 -1 -1 
  2459744.8638720       1.006957       0.004871 0 -1 -1 
  2459744.8652610       0.998874       0.004865 0 -1 -1 
  2459744.8666500       1.003004       0.004869 0 -1 -1 
  2459744.8680390       0.998861       0.004867 0 -1 -1 
  2459744.8694280       1.004154       0.004871 0 -1 -1 
  2459744.8708170       0.992690       0.004870 0 -1 -1 
  2459744.8722060       1.003540       0.004871 0 -1 -1 
  2459744.8735950       0.998444       0.004876 0 -1 -1 
  2459744.8749840       1.007323       0.004879 0 -1 -1 
  2459744.8763720       1.000658       0.004874 0 -1 -1 
  2459744.8777610       1.001587       0.004873 0 -1 -1 
  2459744.8791500       0.995738       0.004873 0 -1 -1 
  2459744.8805390       1.000348       0.004875 0 -1 -1 
  2459744.8819280       1.001557       0.004877 0 -1 -1 
  2459744.8833170       0.998170       0.004874 0 -1 -1 
  2459744.8847060       0.990502       0.004870 0 -1 -1 
  2459744.8860950       1.001262       0.004877 0 -1 -1 
  2459744.8874840       0.990649       0.004871 0 -1 -1 
  2459744.8888720       1.004779       0.004883 0 -1 -1 
  2459744.8902610       1.001465       0.004878 0 -1 -1 
  2459744.8916500       0.998957       0.004879 0 -1 -1 
  2459744.8930390       1.008735       0.004880 0 -1 -1 
  2459744.8944280       0.989548       0.004875 0 -1 -1 
  2459744.8958170       1.000387       0.004876 0 -1 -1 
  2459744.8972060       1.000758       0.004883 0 -1 -1 
  2459744.8985950       0.996473       0.004879 0 -1 -1 
  2459744.8999830       0.994456       0.004873 0 -1 -1 
  2459744.9013720       0.997818       0.004887 0 -1 -1 
  2459744.9027610       1.002678       0.004881 0 -1 -1 
  2459744.9041500       1.007381       0.004895 0 -1 -1 
  2459744.9055390       1.002831       0.004882 0 -1 -1 
  2459744.9069280       1.002590       0.004884 0 -1 -1 
  2459744.9083170       1.004189       0.004888 0 -1 -1 
  2459744.9097060       0.997249       0.004879 0 -1 -1 
  2459744.9110950       0.998057       0.004883 0 -1 -1 
  2459744.9124830       1.000270       0.004881 0 -1 -1 
  2459744.9138720       1.009046       0.004888 0 -1 -1 
  2459744.9152610       1.007293       0.004884 0 -1 -1 
  2459744.9166500       1.000504       0.004880 0 -1 -1 
  2459744.9180390       0.998353       0.004880 0 -1 -1 
  2459744.9194280       0.999033       0.004886 0 -1 -1 
  2459744.9208170       1.004321       0.004885 0 -1 -1 
  2459744.9222060       1.001875       0.004883 0 -1 -1 
  2459744.9235950       1.003696       0.004885 0 -1 -1 
  2459744.9249830       1.004457       0.004889 0 -1 -1 
  2459744.9263720       0.993041       0.004877 0 -1 -1 
  2459744.9277610       1.001422       0.004886 0 -1 -1 
  2459744.9291500       0.999897       0.004883 0 -1 -1 
  2459744.9305390       1.003228       0.004887 0 -1 -1 
  2459744.9319280       1.001692       0.004886 0 -1 -1 
  2459744.9333170       1.004250       0.004887 0 -1 -1 
  2459744.9347060       1.004582       0.004885 0 -1 -1 
  2459744.9360950       0.992681       0.004873 0 -1 -1 
  2459744.9374830       1.001199       0.004881 0 -1 -1 
  2459744.9388720       1.001193       0.004880 0 -1 -1 
  2459744.9402610       1.006836       0.004886 0 -1 -1 
  2459744.9416500       1.002906       0.004884 0 -1 -1 
  2459744.9430390       0.995334       0.004876 0 -1 -1 
  2459744.9444280       1.001393       0.004885 0 -1 -1 
  2459744.9458170       0.994208       0.004874 0 -1 -1 
  2459744.9472060       0.996764       0.004878 0 -1 -1 
  2459744.9485940       1.000308       0.004878 0 -1 -1 
  2459744.9499830       0.999120       0.004878 0 -1 -1 
  2459744.9513720       0.995631       0.004875 0 -1 -1 
  2459744.9527610       0.999855       0.004879 0 -1 -1 
  2459744.9541500       0.995650       0.004875 0 -1 -1 
  2459744.9555390       0.990090       0.004871 0 -1 -1 
  2459744.9569280       1.005861       0.004885 0 -1 -1 
  2459744.9583170       1.009033       0.004889 0 -1 -1 
  2459744.9597060       0.995493       0.004874 0 -1 -1 
  2459744.9610940       0.997238       0.004876 0 -1 -1 
  2459744.9624830       0.994308       0.004877 0 -1 -1 
  2459744.9638720       0.998664       0.004885 0 -1 -1 
  2459744.9652610       0.998213       0.004876 0 -1 -1 
  2459744.9666500       0.995919       0.004875 0 -1 -1 
  2459744.9680390       1.003952       0.004879 0 -1 -1 
  2459744.9694280       1.006323       0.004882 0 -1 -1 
  2459744.9708170       0.999384       0.004879 0 -1 -1 
  2459744.9722060       1.013540       0.004887 0 -1 -1 
  2459744.9735940       0.987718       0.004871 0 -1 -1 
  2459744.9749830       1.003716       0.004881 0 -1 -1 
  2459744.9763720       1.000318       0.004880 0 -1 -1 
  2459744.9777610       1.012838       0.004888 0 -1 -1 
  2459744.9791500       0.996271       0.004875 0 -1 -1 
  2459744.9805390       1.000800       0.004878 0 -1 -1 
  2459744.9819280       1.004569       0.004885 0 -1 -1 
  2459744.9833170       1.007899       0.004881 0 -1 -1 
  2459744.9847060       0.997327       0.004874 0 -1 -1 
  2459744.9860940       0.998079       0.004876 0 -1 -1 
  2459744.9874830       0.995645       0.004881 0 -1 -1 
  2459744.9888720       1.004233       0.004880 0 -1 -1 
  2459744.9902610       1.001959       0.004878 0 -1 -1 
  2459744.9916500       0.999465       0.004874 0 -1 -1 
  2459744.9930390       1.012753       0.004891 0 -1 -1 
  2459744.9944280       1.000631       0.004878 0 -1 -1 
  2459744.9958170       1.009920       0.004889 0 -1 -1 
  2459744.9972050       1.000636       0.004877 0 -1 -1 
  2459744.9985940       1.006977       0.004886 0 -1 -1 
  2459744.9999830       0.998315       0.004879 0 -1 -1 
  2459745.0013720       1.009851       0.004886 0 -1 -1 
  2459745.0027610       1.000499       0.004881 0 -1 -1 
  2459745.0041500       1.006006       0.004888 0 -1 -1 
  2459745.0055390       0.992772       0.004873 0 -1 -1 
  2459745.0069280       0.997314       0.004883 0 -1 -1 
  2459745.0083170       0.997246       0.004880 0 -1 -1 
  2459745.0097050       0.989809       0.004874 0 -1 -1 
  2459745.0110940       0.999297       0.004882 0 -1 -1 
  2459745.0124830       0.993971       0.004882 0 -1 -1 
  2459745.0138720       1.002519       0.004888 0 -1 -1 
  2459745.0152610       0.994132       0.004879 0 -1 -1 
  2459745.0166500       1.000857       0.004891 0 -1 -1 
  2459745.0180390       0.993511       0.004884 0 -1 -1 
  2459745.0194280       0.999906       0.004891 0 -1 -1 
  2459745.0208170       1.001301       0.004894 0 -1 -1 
  2459745.0222050       1.008676       0.004900 0 -1 -1 
  2459745.0235940       0.996850       0.004890 0 -1 -1 
  2459745.0249830       0.998537       0.004890 0 -1 -1 
  2459745.0263720       0.987201       0.004884 0 -1 -1 
  2459745.0277610       1.002612       0.004896 0 -1 -1 
  2459745.0291500       1.009100       0.004902 0 -1 -1 
  2459745.0305390       1.003356       0.004897 0 -1 -1 
  2459745.0319280       1.000071       0.004899 0 -1 -1 
  2459745.0333170       0.999990       0.004899 0 -1 -1 
  2459745.0347050       0.997461       0.004897 0 -1 -1 
  2459745.0360940       1.004303       0.004907 0 -1 -1 
  2459745.0374830       0.996398       0.004900 0 -1 -1 
  2459745.0388720       0.993561       0.004902 0 -1 -1 
  2459745.0402610       1.001866       0.004903 0 -1 -1 
  2459745.0416500       0.993718       0.004899 0 -1 -1 
  2459745.0430390       1.000480       0.004913 0 -1 -1 
  2459745.0444280       1.000427       0.004910 0 -1 -1 
  2459745.0458160       1.006196       0.004914 0 -1 -1 
  2459745.0472050       1.000731       0.004910 0 -1 -1 
  2459745.0485940       1.002278       0.004907 0 -1 -1 
  2459745.0499830       0.995704       0.004908 0 -1 -1 
  2459745.0513720       0.994558       0.004906 0 -1 -1 
  2459745.0527610       1.007759       0.004915 0 -1 -1 
  2459745.0541500       1.000164       0.004912 0 -1 -1 
  2459745.0555390       1.004429       0.004913 0 -1 -1 
  2459745.0569280       0.990896       0.004911 0 -1 -1 
  2459745.0583160       1.003474       0.004914 0 -1 -1 
  2459745.0597050       0.996008       0.004912 0 -1 -1 
  2459745.0610940       0.997161       0.004915 0 -1 -1 
  2459745.0624830       0.993014       0.004914 0 -1 -1 
  2459745.0638720       1.003934       0.004919 0 -1 -1 
  2459745.0652610       0.997813       0.004918 0 -1 -1 
  2459745.0666500       1.004708       0.004918 0 -1 -1 
  2459745.0680390       1.004961       0.004926 0 -1 -1 
  2459745.0694280       0.997345       0.004920 0 -1 -1 
  2459745.0708160       0.998787       0.004922 0 -1 -1 
  2459745.0722050       0.997278       0.004922 0 -1 -1 
  2459745.0735940       1.004770       0.004925 0 -1 -1 
  2459745.0749830       1.001206       0.004923 0 -1 -1 
  2459745.0763720       0.996306       0.004923 0 -1 -1 
  2459745.0777610       1.004768       0.004927 0 -1 -1 
  2459745.0791500       1.001465       0.004927 0 -1 -1 
  2459745.0805390       0.995879       0.004922 0 -1 -1 
  2459745.0819280       0.997320       0.004924 0 -1 -1 
  2459745.0833160       0.999959       0.004927 0 -1 -1 
  2459745.0847050       0.998010       0.004925 0 -1 -1 
  2459745.0860940       0.999584       0.004928 0 -1 -1 
  2459745.0874830       1.009095       0.004938 0 -1 -1 
  2459745.0888720       1.001906       0.004933 0 -1 -1 
  2459745.0902610       1.000189       0.004930 0 -1 -1 
  2459745.0916500       1.004185       0.004932 0 -1 -1 
  2459745.0930390       1.004730       0.004931 0 -1 -1 
  2459745.0944270       1.006749       0.004936 0 -1 -1 
  2459745.0958160       0.996238       0.004925 0 -1 -1 
  2459745.0972050       1.002761       0.004933 0 -1 -1 
  2459745.0985940       0.993180       0.004925 0 -1 -1 
  2459745.0999830       1.002973       0.004933 0 -1 -1 
  2459745.1013720       1.002387       0.004936 0 -1 -1 
  2459745.1027610       1.002288       0.004936 0 -1 -1 
  2459745.1041500       1.000298       0.004937 0 -1 -1 
  2459745.1055390       0.999920       0.004932 0 -1 -1 
  2459745.1069270       1.004162       0.004938 0 -1 -1 
  2459745.1083160       0.998372       0.004935 0 -1 -1 
  2459745.1097050       0.993419       0.004930 0 -1 -1 
  2459745.1110940       0.995366       0.004933 0 -1 -1 
  2459745.1124830       1.006361       0.004939 0 -1 -1 
  2459745.1138720       0.993068       0.004930 0 -1 -1 
  2459745.1152610       1.003341       0.004941 0 -1 -1 
  2459745.1166500       1.009282       0.004940 0 -1 -1 
  2459745.1180390       1.010188       0.004942 0 -1 -1 
  2459745.1194270       1.001850       0.004940 0 -1 -1 
  2459745.1208160       0.999957       0.004933 0 -1 -1 
  2459745.1222050       0.991305       0.004935 0 -1 -1 
  2459745.1235940       0.994060       0.004928 0 -1 -1 
  2459745.1249830       0.994647       0.004932 0 -1 -1 
  2459745.1263720       1.000434       0.004939 0 -1 -1 
  2459745.1277610       1.004046       0.004939 0 -1 -1 
  2459745.1291500       0.993853       0.004932 0 -1 -1 
  2459745.1305390       1.002534       0.004938 0 -1 -1 
  2459745.1319270       0.997742       0.004938 0 -1 -1 
  2459745.1333160       0.995750       0.004932 0 -1 -1 
  2459745.1347050       0.989610       0.004928 0 -1 -1 
  2459745.1360940       0.995725       0.004937 0 -1 -1 
  2459745.1374830       0.991305       0.004931 0 -1 -1 
  2459745.1388720       1.003627       0.004943 0 -1 -1 
  2459745.1402610       0.996537       0.004936 0 -1 -1 
  2459745.1416500       0.987410       0.004926 0 -1 -1 
  2459745.1430380       1.004516       0.004941 0 -1 -1 
  2459745.1444270       1.007549       0.004941 0 -1 -1 
  2459745.1458160       0.996475       0.004935 0 -1 -1 
  2459745.1472050       0.998129       0.004939 0 -1 -1 
  2459745.1485940       0.998379       0.004936 0 -1 -1 
  2459745.1499830       0.997260       0.004938 0 -1 -1 
  2459745.1513720       0.986849       0.004931 0 -1 -1 
  2459745.1527610       0.999135       0.004938 0 -1 -1 
  2459745.1541500       0.997878       0.004940 0 -1 -1 
  2459745.1555380       0.997865       0.004938 0 -1 -1 
  2459745.1569270       0.997130       0.004935 0 -1 -1 
  2459745.1583160       0.996477       0.004933 0 -1 -1 
  2459745.1597050       0.996526       0.004937 0 -1 -1 
  2459745.1610940       0.998090       0.004939 0 -1 -1 
  2459745.1624830       1.000827       0.004940 0 -1 -1 
  2459745.1638720       0.998186       0.004935 0 -1 -1 
  2459745.1652610       0.998410       0.004934 0 -1 -1 
  2459745.1666500       0.994656       0.004934 0 -1 -1 
  2459745.1680380       0.997253       0.004939 0 -1 -1 
  2459745.1694270       1.000176       0.004938 0 -1 -1 
  2459745.1708160       1.003517       0.004942 0 -1 -1 
  2459745.1722050       0.997791       0.004931 0 -1 -1 
  2459745.1735940       0.991508       0.004928 0 -1 -1 
  2459745.1749830       1.001156       0.004932 0 -1 -1 
  2459745.1763720       1.004073       0.004936 0 -1 -1 
  2459745.1777610       1.005284       0.004939 0 -1 -1 
  2459745.1791500       1.007101       0.004934 0 -1 -1 
  2459745.1805380       1.004551       0.004932 0 -1 -1 
  2459745.1819270       1.002003       0.004932 0 -1 -1 
  2459745.1833160       1.003027       0.004934 0 -1 -1 
  2459745.1847050       1.011157       0.004936 0 -1 -1 
  2459745.1860940       0.997972       0.004928 0 -1 -1 
  2459745.1874830       0.997580       0.004922 0 -1 -1 
  2459745.1888720       0.992351       0.004918 0 -1 -1 
  2459745.1916490       0.991204       0.004922 0 -1 -1 
  2459745.1930380       1.000271       0.004922 0 -1 -1 
  2459745.1944270       0.985199       0.004911 0 -1 -1 
  2459745.1958160       0.995091       0.004915 0 -1 -1 
  2459745.1972050       0.992908       0.004909 0 -1 -1 
  2459745.1985940       0.997394       0.004914 0 -1 -1 
  2459745.1999830       0.995824       0.004910 0 -1 -1 
  2459745.2013720       1.011561       0.004923 0 -1 -1 
  2459745.2027610       0.998134       0.004915 0 -1 -1 
  2459745.2041490       0.997532       0.004915 0 -1 -1 
  2459745.2055380       1.007452       0.004918 0 -1 -1 
  2459745.2069270       0.999305       0.004906 0 -1 -1 
  2459745.2083160       0.998331       0.004910 0 -1 -1 
  2459745.2097050       0.995816       0.004903 0 -1 -1 
  2459745.2110940       0.991654       0.004899 0 -1 -1 
  2459745.2124830       0.999107       0.004902 0 -1 -1 
  2459745.2138720       1.006743       0.004906 0 -1 -1 
  2459745.2152610       1.004325       0.004904 0 -1 -1 
  2459745.2166490       0.997671       0.004900 0 -1 -1 
  2459745.2180380       1.000305       0.004896 0 -1 -1 
  2459745.2194270       0.998516       0.004894 0 -1 -1 
  2459745.2208160       1.005998       0.004898 0 -1 -1 
  2459745.2222050       1.002057       0.004896 0 -1 -1 
  2459745.2235940       0.990715       0.004884 0 -1 -1 
  2459745.2249830       1.005677       0.004893 0 -1 -1 
  2459745.2263720       1.003759       0.004892 0 -1 -1 
  2459745.2277610       1.005031       0.004891 0 -1 -1 
  2459745.2291490       0.992053       0.004886 0 -1 -1 
  2459745.2305380       0.998898       0.004889 0 -1 -1 
  2459745.2319270       1.005607       0.004886 0 -1 -1 
  2459745.2333160       0.994947       0.004882 0 -1 -1 
  2459745.2347050       1.003323       0.004886 0 -1 -1 
  2459745.2360940       1.000785       0.004878 0 -1 -1 
  2459745.2374830       1.001294       0.004878 0 -1 -1 
  2459745.2388720       0.997197       0.004872 0 -1 -1 
  2459745.2402610       0.999995       0.004875 0 -1 -1 
  2459745.2416490       1.004768       0.004878 0 -1 -1 
  2459745.2430380       0.996734       0.004870 0 -1 -1 
  2459745.2444270       1.001751       0.004874 0 -1 -1 
  2459745.2458160       0.996348       0.004872 0 -1 -1 
  2459745.2472050       1.000480       0.004867 0 -1 -1 
  2459745.2485940       1.001264       0.004872 0 -1 -1 
  2459745.2499830       1.008911       0.004875 0 -1 -1 
  2459745.2513720       0.994243       0.004863 0 -1 -1 
  2459745.2527600       0.993786       0.004866 0 -1 -1 
  2459745.2541490       1.000793       0.004868 0 -1 -1 
  2459745.2555380       1.003575       0.004862 0 -1 -1 
  2459745.2569270       0.998856       0.004856 0 -1 -1 
  2459745.2583160       1.001611       0.004860 0 -1 -1 
  2459745.2597050       1.000104       0.004856 0 -1 -1 
  2459745.2610940       1.007690       0.004865 0 -1 -1 
  2459745.2624830       0.999440       0.004853 0 -1 -1 
  2459745.2638720       1.005389       0.004857 0 -1 -1 
  2459745.2652600       1.000247       0.004854 0 -1 -1 
  2459745.2666490       0.995437       0.004846 0 -1 -1 
  2459745.2680380       0.999270       0.004848 0 -1 -1 
  2459745.2694270       0.997240       0.004846 0 -1 -1 
  2459745.2708160       0.994796       0.004842 0 -1 -1 
  2459745.2722050       1.002642       0.004849 0 -1 -1 
  2459745.2735940       0.997733       0.004848 0 -1 -1 
  2459745.2749830       1.001306       0.004845 0 -1 -1 
  2459745.2763720       1.000264       0.004847 0 -1 -1 
  2459745.2777600       0.996754       0.004840 0 -1 -1 
  2459745.2791490       1.001121       0.004844 0 -1 -1 
  2459745.2805380       1.000025       0.004845 0 -1 -1 
  2459745.2819270       1.008535       0.004847 0 -1 -1 
  2459745.2833160       0.989195       0.004834 0 -1 -1 
  2459745.2847050       1.007677       0.004842 0 -1 -1 
  2459745.2860940       0.999562       0.004845 0 -1 -1 
  2459745.2874830       1.002274       0.004842 0 -1 -1 
  2459745.2888720       0.998482       0.004838 0 -1 -1 
  2459745.2902600       0.999487       0.004834 0 -1 -1 
  2459745.2916490       0.999407       0.004835 0 -1 -1 
  2459745.2930380       1.003356       0.004838 0 -1 -1 
  2459745.2944270       0.997957       0.004839 0 -1 -1 
  2459745.2958160       1.002975       0.004840 0 -1 -1 
  2459745.2972050       1.002338       0.004837 0 -1 -1 
  2459745.2985940       0.993500       0.004834 0 -1 -1 
  2459745.2999830       1.006585       0.004838 0 -1 -1 
  2459745.3013710       1.005808       0.004842 0 -1 -1 
  2459745.3027600       1.004555       0.004840 0 -1 -1 
  2459745.3041490       1.004592       0.004838 0 -1 -1 
  2459745.3055380       1.004081       0.004837 0 -1 -1 
  2459745.3069270       0.988354       0.004822 0 -1 -1 
  2459745.3083160       1.002841       0.004831 0 -1 -1 
  2459745.3097050       1.002272       0.004838 0 -1 -1 
  2459745.3110940       0.999566       0.004827 0 -1 -1 
  2459745.3124830       1.002335       0.004832 0 -1 -1 
  2459745.3138710       0.997381       0.004827 0 -1 -1 
  2459745.3152600       0.994695       0.004829 0 -1 -1 
  2459745.3166490       1.003590       0.004835 0 -1 -1 
  2459745.3180380       0.995320       0.004829 0 -1 -1 
  2459745.3194270       1.012293       0.004839 0 -1 -1 
  2459745.3208160       0.992788       0.004827 0 -1 -1 
  2459745.3222050       0.998496       0.004827 0 -1 -1 
  2459745.3235940       0.989134       0.004819 0 -1 -1 
  2459745.3249830       0.998799       0.004831 0 -1 -1 
  2459745.3263710       1.003176       0.004835 0 -1 -1 
  2459745.3277600       1.007324       0.004835 0 -1 -1 
  2459745.3291490       0.979314       0.004815 0 -1 -1 
  2459745.3305380       0.995394       0.004823 0 -1 -1 
  2459745.3319270       1.001438       0.004831 0 -1 -1 
  2459745.3333160       1.002234       0.004830 0 -1 -1 
  2459745.3347050       1.008369       0.004833 0 -1 -1 
  2459745.3360940       1.007234       0.004838 0 -1 -1 
  2459745.3374830       1.001706       0.004832 0 -1 -1 
  2459745.3388710       0.999001       0.004831 0 -1 -1 
  2459745.3402600       0.994139       0.004826 0 -1 -1 
  2459745.3416490       0.995715       0.004822 0 -1 -1 
  2459745.3430380       1.002538       0.004834 0 -1 -1 
  2459745.3444270       1.011559       0.004838 0 -1 -1 
  2459745.3458160       1.006925       0.004833 0 -1 -1 
  2459745.3472050       1.006681       0.004833 0 -1 -1 
  2459745.3485940       1.010580       0.004834 0 -1 -1 
  2459745.3499820       1.006366       0.004835 0 -1 -1 
  2459745.3513710       0.998135       0.004831 0 -1 -1 
  2459745.3527600       1.009668       0.004833 0 -1 -1 
  2459745.3541490       0.994774       0.004825 0 -1 -1 
  2459745.3555380       1.006927       0.004837 0 -1 -1 
  2459745.3569270       1.005905       0.004829 0 -1 -1 
  2459745.3583160       0.998594       0.004827 0 -1 -1 
  2459745.3597050       1.003389       0.004827 0 -1 -1 
  2459745.3610940       1.000660       0.004829 0 -1 -1 
  2459745.3624820       1.003248       0.004831 0 -1 -1 
  2459745.3638710       1.002371       0.004831 0 -1 -1 
  2459745.3652600       0.998209       0.004830 0 -1 -1 
  2459745.3666490       1.000162       0.004829 0 -1 -1 
  2459745.3680380       0.995982       0.004824 0 -1 -1 
  2459745.3694270       1.003288       0.004830 0 -1 -1 
  2459745.3708160       1.003435       0.004829 0 -1 -1 
  2459745.3722050       1.003978       0.004828 0 -1 -1 
  2459745.3735940       0.997142       0.004820 0 -1 -1 
  2459745.3749820       1.001570       0.004826 0 -1 -1 
  2459745.3763710       1.001214       0.004829 0 -1 -1 
  2459745.3777600       1.006750       0.004828 0 -1 -1 
  2459745.3791490       0.999251       0.004825 0 -1 -1 
  2459745.3805380       1.000395       0.004826 0 -1 -1 
  2459745.3819270       0.996739       0.004818 0 -1 -1 
  2459745.3833160       1.004069       0.004833 0 -1 -1 
  2459745.3847050       1.003613       0.004827 0 -1 -1 
  2459745.3860940       1.003381       0.004831 0 -1 -1 
  2459745.3874820       0.999781       0.004828 0 -1 -1 
  2459745.3888710       0.998755       0.004833 0 -1 -1 
  2459745.3902600       0.996775       0.004829 0 -1 -1 
  2459745.3916490       0.994602       0.004822 0 -1 -1 
  2459745.3930380       0.998405       0.004828 0 -1 -1 
  2459745.3944270       1.000287       0.004825 0 -1 -1 
  2459745.3958160       0.994195       0.004827 0 -1 -1 
  2459745.3972050       0.989532       0.004819 0 -1 -1 
  2459745.3985940       0.998600       0.004830 0 -1 -1 
  2459745.3999820       1.000110       0.004826 0 -1 -1 
  2459745.4013710       1.013603       0.004844 0 -1 -1 
  2459745.4027600       0.997424       0.004827 0 -1 -1 
  2459745.4041490       1.001779       0.004830 0 -1 -1 
  2459745.4055380       0.998946       0.004831 0 -1 -1 
  2459745.4069270       1.001427       0.004828 0 -1 -1 
  2459745.4083160       0.994774       0.004830 0 -1 -1 
  2459745.4097050       1.010981       0.004839 0 -1 -1 
  2459745.4110930       1.008067       0.004837 0 -1 -1 
  2459745.4124820       1.004023       0.004839 0 -1 -1 
  2459745.4138710       1.001582       0.004836 0 -1 -1 
  2459745.4152600       1.002950       0.004839 0 -1 -1 
  2459745.4166490       0.994458       0.004832 0 -1 -1 
  2459745.4180380       1.003909       0.004841 0 -1 -1 
  2459745.4194270       1.006173       0.004843 0 -1 -1 
  2459745.4208160       1.005684       0.004839 0 -1 -1 
  2459745.4222050       1.004999       0.004839 0 -1 -1 
  2459745.4235930       1.008287       0.004844 0 -1 -1 
  2459745.4249820       1.010678       0.004845 0 -1 -1 
  2459745.4263710       0.997533       0.004837 0 -1 -1 
  2459745.4277600       1.004601       0.004843 0 -1 -1 
  2459745.4291490       0.999234       0.004839 0 -1 -1 
  2459745.4305380       1.004818       0.004843 0 -1 -1 
  2459745.4319270       1.001711       0.004846 0 -1 -1 
  2459745.4333160       1.001416       0.004842 0 -1 -1 
  2459745.4347050       0.998268       0.004842 0 -1 -1 
  2459745.4360930       1.007341       0.004841 0 -1 -1 
  2459745.4374820       1.002964       0.004847 0 -1 -1 
  2459745.4388710       1.002265       0.004847 0 -1 -1 
  2459745.4402600       0.999684       0.004847 0 -1 -1 
  2459745.4416490       1.001212       0.004845 0 -1 -1 
  2459745.4430380       0.991786       0.004837 0 -1 -1 
  2459745.4444270       1.000539       0.004848 0 -1 -1 
  2459745.4458160       1.003092       0.004849 0 -1 -1 
  2459745.4472050       1.004665       0.004851 0 -1 -1 
  2459745.4485930       1.009023       0.004856 0 -1 -1 
  2459745.4499820       1.004089       0.004860 0 -1 -1 
  2459745.4513710       0.995440       0.004847 0 -1 -1 
  2459745.4527600       0.996429       0.004847 0 -1 -1 
  2459745.4541490       0.990193       0.004847 0 -1 -1 
  2459745.4555380       0.993793       0.004852 0 -1 -1 
  2459745.4569270       0.995726       0.004856 0 -1 -1 
  2459745.4583160       1.004661       0.004861 0 -1 -1 
  2459745.4597040       1.007852       0.004864 0 -1 -1 
  2459745.4610930       0.995787       0.004855 0 -1 -1 
  2459745.4624820       0.998231       0.004857 0 -1 -1 
  2459745.4638710       1.001331       0.004853 0 -1 -1 
  2459745.4652600       1.000910       0.004865 0 -1 -1 
  2459745.4666490       0.999508       0.004861 0 -1 -1 
  2459745.4680380       0.992287       0.004857 0 -1 -1 
  2459745.4694270       1.001947       0.004867 0 -1 -1 
  2459745.4708160       1.005322       0.004866 0 -1 -1 
  2459745.4722040       1.007247       0.004873 0 -1 -1 
  2459745.4735930       0.999409       0.004863 0 -1 -1 
  2459745.4749820       0.995786       0.004863 0 -1 -1 
  2459745.4763710       1.000190       0.004869 0 -1 -1 
  2459745.4777600       0.995321       0.004868 0 -1 -1 
  2459745.4791490       1.001820       0.004871 0 -1 -1 
  2459745.4805380       1.002879       0.004872 0 -1 -1 
  2459745.4819270       0.996147       0.004872 0 -1 -1 
  2459745.4833160       0.998610       0.004874 0 -1 -1 
  2459745.4847040       1.004282       0.004876 0 -1 -1 
  2459745.4860930       1.005360       0.004877 0 -1 -1 
  2459745.4874820       1.002997       0.004873 0 -1 -1 
  2459745.4888710       1.003824       0.004878 0 -1 -1 
  2459745.4902600       1.012165       0.004890 0 -1 -1 
  2459745.4916490       0.995901       0.004875 0 -1 -1 
  2459745.4930380       1.007689       0.004881 0 -1 -1 
  2459745.4944270       0.993684       0.004878 0 -1 -1 
  2459745.4958160       0.993291       0.004881 0 -1 -1 
  2459745.4972040       1.005247       0.004892 0 -1 -1 
  2459745.4985930       0.998968       0.004888 0 -1 -1 
  2459745.4999820       1.001324       0.004892 0 -1 -1 
  2459745.5013710       0.998121       0.004889 0 -1 -1 
  2459745.5027600       1.009116       0.004898 0 -1 -1 
  2459745.5041490       1.000252       0.004892 0 -1 -1 
  2459745.5055380       0.994159       0.004897 0 -1 -1 
  2459745.5069270       1.001277       0.004899 0 -1 -1 
  2459745.5083160       1.001469       0.004898 0 -1 -1 
  2459745.5097040       1.004938       0.004899 0 -1 -1 
  2459745.5110930       0.993665       0.004895 0 -1 -1 
  2459745.5124820       1.003889       0.004907 0 -1 -1 
  2459745.5138710       0.993371       0.004898 0 -1 -1 
  2459745.5152600       1.000981       0.004904 0 -1 -1 
  2459745.5166490       0.988931       0.004905 0 -1 -1 
  2459745.5180380       1.004069       0.004912 0 -1 -1 
  2459745.5194270       1.003184       0.004917 0 -1 -1 
  2459745.5208150       0.995255       0.004910 0 -1 -1 
  2459745.5222040       1.000195       0.004914 0 -1 -1 
  2459745.5235930       1.000707       0.004917 0 -1 -1 
  2459745.5249820       1.005438       0.004921 0 -1 -1 
  2459745.5263710       1.001057       0.004923 0 -1 -1 
  2459745.5277600       0.999628       0.004917 0 -1 -1 
  2459745.5291490       0.999730       0.004922 0 -1 -1 
  2459745.5305380       1.001603       0.004923 0 -1 -1 
  2459745.5319270       0.996255       0.004926 0 -1 -1 
  2459745.5333150       0.999268       0.004928 0 -1 -1 
  2459745.5347040       0.997603       0.004930 0 -1 -1 
  2459745.5360930       1.004801       0.004936 0 -1 -1 
  2459745.5374820       1.001528       0.004931 0 -1 -1 
  2459745.5388710       1.001233       0.004934 0 -1 -1 
  2459745.5402600       1.001565       0.004939 0 -1 -1 
  2459745.5416490       1.004012       0.004943 0 -1 -1 
  2459745.5430380       0.994134       0.004939 0 -1 -1 
  2459745.5444270       0.995414       0.004939 0 -1 -1 
  2459745.5458150       0.999182       0.004945 0 -1 -1 
  2459745.5472040       0.997124       0.004943 0 -1 -1 
  2459745.5485930       1.015202       0.004963 0 -1 -1 
  2459745.5499820       1.006994       0.004955 0 -1 -1 
  2459745.5513710       1.000425       0.004952 0 -1 -1 
  2459745.5527600       0.992168       0.004951 0 -1 -1 
  2459745.5541490       0.995986       0.004959 0 -1 -1 
  2459745.5555380       1.001110       0.004966 0 -1 -1 
  2459745.5569270       1.003391       0.004960 0 -1 -1 
  2459745.5583150       0.997203       0.004959 0 -1 -1 
  2459745.5597040       0.994658       0.004958 0 -1 -1 
  2459745.5610930       1.001872       0.004968 0 -1 -1 
  2459745.5624820       0.997300       0.004970 0 -1 -1 
  2459745.5638710       0.991625       0.004964 0 -1 -1 
  2459745.5652600       0.994746       0.004969 0 -1 -1 
  2459745.5666490       0.990920       0.004969 0 -1 -1 
  2459745.5680380       0.996757       0.004972 0 -1 -1 
  2459745.5694270       0.998139       0.004981 0 -1 -1 
  2459745.5708150       0.995448       0.004975 0 -1 -1 
  2459745.5722040       1.003097       0.004984 0 -1 -1 
  2459745.5735930       0.992142       0.004976 0 -1 -1 
  2459745.5749820       0.998867       0.004983 0 -1 -1 
  2459745.5763710       0.995882       0.004986 0 -1 -1 
  2459745.5777600       0.981480       0.004978 0 -1 -1 
  2459745.5791490       0.995681       0.004986 0 -1 -1 
  2459745.5805380       0.997796       0.004990 0 -1 -1 
  2459745.5819260       1.006563       0.005000 0 -1 -1 
  2459745.5833150       1.001867       0.004997 0 -1 -1 
  2459745.5847040       1.005882       0.005003 0 -1 -1 
  2459745.5860930       0.994130       0.004993 0 -1 -1 
  2459745.5874820       0.999042       0.005001 0 -1 -1 
  2459745.5888710       0.999087       0.005001 0 -1 -1 
  2459745.5902600       0.997315       0.005002 0 -1 -1 
  2459745.5916490       0.996320       0.005001 0 -1 -1 
  2459745.5930380       1.003064       0.005011 0 -1 -1 
  2459745.5944260       0.999176       0.005012 0 -1 -1 
  2459745.5958150       0.999841       0.005014 0 -1 -1 
  2459745.5972040       1.004104       0.005018 0 -1 -1 
  2459745.5985930       0.998453       0.005008 0 -1 -1 
  2459745.5999820       0.999651       0.005016 0 -1 -1 
  2459745.6013710       0.998215       0.005020 0 -1 -1 
  2459745.6027600       0.996129       0.005013 0 -1 -1 
  2459745.6041490       0.994843       0.005012 0 -1 -1 
  2459745.6055380       0.999644       0.005016 0 -1 -1 
  2459745.6069260       1.000723       0.005015 0 -1 -1 
  2459745.6083150       0.996648       0.005013 0 -1 -1 
  2459745.6097040       1.001291       0.005024 0 -1 -1 
  2459745.6110930       0.999047       0.005014 0 -1 -1 
  2459745.6124820       1.006174       0.005026 0 -1 -1 
  2459745.6138710       0.993713       0.005021 0 -1 -1 
  2459745.6152600       0.999739       0.005020 0 -1 -1 
  2459745.6166490       0.997382       0.005023 0 -1 -1 
  2459745.6180380       1.004560       0.005031 0 -1 -1 
  2459745.6194260       0.995063       0.005021 0 -1 -1 
  2459745.6208150       0.994231       0.005024 0 -1 -1 
  2459745.6222040       1.006259       0.005032 0 -1 -1 
  2459745.6235930       0.999892       0.005027 0 -1 -1 
  2459745.6249820       1.007011       0.005031 0 -1 -1 
  2459745.6263710       1.014846       0.005038 0 -1 -1 
  2459745.6277600       0.995971       0.005024 0 -1 -1 
  2459745.6291490       0.999116       0.005034 0 -1 -1 
  2459745.6305370       0.997051       0.005031 0 -1 -1 
  2459745.6319260       0.994829       0.005031 0 -1 -1 
  2459745.6333150       1.000613       0.005031 0 -1 -1 
  2459745.6347040       1.000417       0.005028 0 -1 -1 
  2459745.6360930       0.996390       0.005030 0 -1 -1 
  2459745.6374820       0.995016       0.005030 0 -1 -1 
  2459745.6388710       0.990100       0.005022 0 -1 -1 
  2459745.6402600       1.005619       0.005037 0 -1 -1 
  2459745.6416490       1.004804       0.005036 0 -1 -1 
  2459745.6430370       1.004011       0.005034 0 -1 -1 
  2459745.6444260       1.002716       0.005034 0 -1 -1 
  2459745.6458150       1.011814       0.005039 0 -1 -1 
  2459745.6472040       0.993432       0.005029 0 -1 -1 
  2459745.6485930       1.002198       0.005033 0 -1 -1 
  2459745.6499820       1.002129       0.005035 0 -1 -1 
  2459745.6513710       0.989489       0.005025 0 -1 -1 
  2459745.6527600       1.005400       0.005034 0 -1 -1 
  2459745.6541490       0.996263       0.005034 0 -1 -1 
  2459745.6555370       1.004245       0.005037 0 -1 -1 
  2459745.6569260       0.990036       0.005027 0 -1 -1 
  2459745.6583150       0.995239       0.005028 0 -1 -1 
  2459745.6597040       0.993492       0.005031 0 -1 -1 
  2459745.6610930       1.012435       0.005044 0 -1 -1 
  2459745.6624820       0.995923       0.005030 0 -1 -1 
  2459745.6638710       0.997792       0.005033 0 -1 -1 
  2459745.6652600       1.001226       0.005035 0 -1 -1 
  2459745.6666490       1.003710       0.005034 0 -1 -1 
  2459745.6680370       1.003128       0.005037 0 -1 -1 
  2459745.6694260       1.000234       0.005027 0 -1 -1 
  2459745.6708150       1.001903       0.005038 0 -1 -1 
  2459745.6722040       0.996210       0.005030 0 -1 -1 
  2459745.6735930       1.009747       0.005038 0 -1 -1 
  2459745.6749820       0.997921       0.005037 0 -1 -1 
  2459745.6763710       0.991009       0.005023 0 -1 -1 
  2459745.6777600       1.000834       0.005036 0 -1 -1 
  2459745.6791490       0.999305       0.005036 0 -1 -1 
  2459745.6805370       1.009850       0.005040 0 -1 -1 
  2459745.6819260       0.998421       0.005033 0 -1 -1 
  2459745.6833150       0.994573       0.005031 0 -1 -1 
  2459745.6847040       1.006425       0.005034 0 -1 -1 
  2459745.6860930       0.998887       0.005031 0 -1 -1 
  2459745.6874820       1.001971       0.005034 0 -1 -1 
  2459745.6888710       0.996122       0.005027 0 -1 -1 
  2459745.6902600       0.997410       0.005028 0 -1 -1 
  2459745.6916480       1.000137       0.005032 0 -1 -1 
  2459745.6930370       0.996908       0.005030 0 -1 -1 
  2459745.6944260       1.004512       0.005033 0 -1 -1 
  2459745.6958150       0.997775       0.005030 0 -1 -1 
  2459745.6972040       1.002993       0.005031 0 -1 -1 
  2459745.6985930       1.002287       0.005028 0 -1 -1 
  2459745.6999820       0.994282       0.005020 0 -1 -1 
  2459745.7013710       0.997577       0.005024 0 -1 -1 
  2459745.7027600       1.006601       0.005032 0 -1 -1 
  2459745.7041480       1.001834       0.005028 0 -1 -1 
  2459745.7055370       1.004367       0.005034 0 -1 -1 
  2459745.7069260       0.999306       0.005027 0 -1 -1 
  2459745.7083150       1.005030       0.005032 0 -1 -1 
  2459745.7097040       0.999811       0.005028 0 -1 -1 
  2459745.7110930       0.997695       0.005032 0 -1 -1 
  2459745.7124820       0.995707       0.005027 0 -1 -1 
  2459745.7138710       1.003942       0.005032 0 -1 -1 
  2459745.7152600       1.003537       0.005027 0 -1 -1 
  2459745.7166480       1.003243       0.005033 0 -1 -1 
  2459745.7180370       0.999854       0.005026 0 -1 -1 
  2459745.7194260       1.005137       0.005035 0 -1 -1 
  2459745.7208150       0.997436       0.005028 0 -1 -1 
  2459745.7222040       0.999574       0.005031 0 -1 -1 
  2459745.7235930       0.998606       0.005028 0 -1 -1 
  2459745.7249820       0.998380       0.005020 0 -1 -1 
  2459745.7263710       1.003489       0.005031 0 -1 -1 
  2459745.7277600       1.009800       0.005037 0 -1 -1 
  2459745.7291480       0.990721       0.005028 0 -1 -1 
  2459745.7305370       1.001972       0.005030 0 -1 -1 
  2459745.7319260       1.008352       0.005030 0 -1 -1 
  2459745.7333150       1.009010       0.005036 0 -1 -1 
  2459745.7347040       0.999408       0.005026 0 -1 -1 
  2459745.7360930       1.006087       0.005034 0 -1 -1 
  2459745.7374820       1.000952       0.005036 0 -1 -1 
  2459745.7388710       0.999724       0.005032 0 -1 -1 
  2459745.7402600       1.000615       0.005034 0 -1 -1 
  2459745.7416480       0.999483       0.005035 0 -1 -1 
  2459745.7430370       1.007940       0.005035 0 -1 -1 
  2459745.7444260       0.997995       0.005032 0 -1 -1 
  2459745.7458150       1.009516       0.005036 0 -1 -1 
  2459745.7472040       0.997854       0.005029 0 -1 -1 
  2459745.7485930       0.991601       0.005028 0 -1 -1 
  2459745.7499820       1.005634       0.005037 0 -1 -1 
  2459745.7513710       0.997930       0.005029 0 -1 -1 
  2459745.7527590       1.000255       0.005034 0 -1 -1 
  2459745.7541480       1.001399       0.005031 0 -1 -1 
  2459745.7555370       0.999280       0.005034 0 -1 -1 
  2459745.7569260       1.000107       0.005030 0 -1 -1 
  2459745.7583150       0.997038       0.005032 0 -1 -1 
  2459745.7597040       1.007900       0.005040 0 -1 -1 
  2459745.7610930       0.999559       0.005030 0 -1 -1 
  2459745.7624820       1.003128       0.005037 0 -1 -1 
  2459745.7638710       0.996219       0.005030 0 -1 -1 
  2459745.7652590       0.999453       0.005032 0 -1 -1 
  2459745.7666480       0.993744       0.005026 0 -1 -1 
  2459745.7680370       0.998711       0.005030 0 -1 -1 
  2459745.7694260       0.997588       0.005030 0 -1 -1 
  2459745.7708150       0.998618       0.005031 0 -1 -1 
  2459745.7722040       0.998327       0.005037 0 -1 -1 
  2459745.7735930       1.014381       0.005044 0 -1 -1 
  2459745.7749820       0.986036       0.005022 0 -1 -1 
  2459745.7763710       0.995118       0.005030 0 -1 -1 
  2459745.7777590       1.004519       0.005039 0 -1 -1 
  2459745.7791480       0.998012       0.005036 0 -1 -1 
  2459745.7805370       1.001971       0.005042 0 -1 -1 
  2459745.7819260       0.998067       0.005035 0 -1 -1 
  2459745.7833150       1.002980       0.005040 0 -1 -1 
  2459745.7847040       0.993186       0.005031 0 -1 -1 
  2459745.7860930       0.997932       0.005037 0 -1 -1 
  2459745.7874820       0.995326       0.005039 0 -1 -1 
  2459745.7888710       1.014189       0.005047 0 -1 -1 
  2459745.7902590       0.995669       0.005036 0 -1 -1 
  2459745.7916480       1.003383       0.005041 0 -1 -1 
  2459745.7930370       0.999699       0.005037 0 -1 -1 
  2459745.7944260       1.001777       0.005043 0 -1 -1 
  2459745.7958150       0.994219       0.005034 0 -1 -1 
  2459745.7972040       0.999739       0.005043 0 -1 -1 
  2459745.7985930       0.997137       0.005039 0 -1 -1 
  2459745.7999820       0.998994       0.005041 0 -1 -1 
  2459745.8013710       1.000564       0.005043 0 -1 -1 
  2459745.8027590       1.003526       0.005039 0 -1 -1 
  2459745.8041480       0.994235       0.005042 0 -1 -1 
  2459745.8055370       1.005646       0.005045 0 -1 -1 
  2459745.8069260       0.994531       0.005036 0 -1 -1 
  2459745.8083150       0.989964       0.005031 0 -1 -1 
  2459745.8097040       0.987729       0.005030 0 -1 -1 
  2459745.8110930       1.001952       0.005046 0 -1 -1 
  2459745.8124820       1.003987       0.005046 0 -1 -1 
  2459745.8138700       1.005544       0.005052 0 -1 -1 
  2459745.8152590       1.000248       0.005047 0 -1 -1 
  2459745.8166480       1.003979       0.005047 0 -1 -1 
  2459745.8180370       0.994776       0.005040 0 -1 -1 
  2459745.8194260       0.995690       0.005047 0 -1 -1 
  2459745.8208150       1.001073       0.005045 0 -1 -1 
  2459745.8222040       0.996672       0.005045 0 -1 -1 
  2459745.8235930       0.991032       0.005044 0 -1 -1 
  2459745.8249820       0.992221       0.005041 0 -1 -1 
  2459745.8263700       0.994298       0.005040 0 -1 -1 
  2459745.8277590       1.008349       0.005056 0 -1 -1 
  2459745.8291480       0.996280       0.005043 0 -1 -1 
  2459745.8305370       0.999459       0.005049 0 -1 -1 
  2459745.8319260       1.000107       0.005049 0 -1 -1 
  2459745.8333150       1.001772       0.005054 0 -1 -1 
  2459745.8347040       1.003096       0.005051 0 -1 -1 
  2459745.8360930       0.993890       0.005048 0 -1 -1 
  2459745.8374820       1.009390       0.005057 0 -1 -1 
  2459745.8388700       0.995617       0.005049 0 -1 -1 
  2459745.8402590       0.999412       0.005051 0 -1 -1 
  2459745.8416480       1.009354       0.005054 0 -1 -1 
  2459745.8430370       0.999487       0.005058 0 -1 -1 
  2459745.8444260       0.996313       0.005050 0 -1 -1 
  2459745.8458150       0.998585       0.005055 0 -1 -1 
  2459745.8472040       0.994769       0.005054 0 -1 -1 
  2459745.8485930       0.993479       0.005052 0 -1 -1 
  2459745.8499820       1.000467       0.005058 0 -1 -1 
  2459745.8513700       0.998686       0.005056 0 -1 -1 
  2459745.8527590       1.001612       0.005058 0 -1 -1 
  2459745.8541480       1.001438       0.005062 0 -1 -1 
  2459745.8555370       0.998759       0.005057 0 -1 -1 
  2459745.8569260       0.999616       0.005062 0 -1 -1 
  2459745.8583150       1.003814       0.005063 0 -1 -1 
  2459745.8597040       1.005555       0.005068 0 -1 -1 
  2459745.8610930       1.003608       0.005063 0 -1 -1 
  2459745.8624820       1.009364       0.005067 0 -1 -1 
  2459745.8638700       1.006005       0.005071 0 -1 -1 
  2459745.8652590       0.998694       0.005064 0 -1 -1 
  2459745.8666480       1.002945       0.005067 0 -1 -1 
  2459745.8680370       0.996911       0.005061 0 -1 -1 
  2459745.8694260       1.009613       0.005069 0 -1 -1 
  2459745.8708150       0.996297       0.005065 0 -1 -1 
  2459745.8722040       0.999810       0.005068 0 -1 -1 
  2459745.8735930       1.003822       0.005066 0 -1 -1 
  2459745.8749810       1.002097       0.005066 0 -1 -1 
  2459745.8763700       1.001216       0.005067 0 -1 -1 
  2459745.8777590       1.002656       0.005069 0 -1 -1 
  2459745.8791480       0.994416       0.005070 0 -1 -1 
  2459745.8805370       1.008952       0.005080 0 -1 -1 
  2459745.8819260       1.004953       0.005074 0 -1 -1 
  2459745.8833150       1.008042       0.005076 0 -1 -1 
  2459745.8847040       0.996674       0.005073 0 -1 -1 
  2459745.8860930       0.994527       0.005064 0 -1 -1 
  2459745.8874810       0.992237       0.005067 0 -1 -1 
  2459745.8888700       1.007090       0.005074 0 -1 -1 
  2459745.8902590       1.001911       0.005075 0 -1 -1 
  2459745.8916480       0.998696       0.005072 0 -1 -1 
  2459745.8930370       0.998259       0.005069 0 -1 -1 
  2459745.8944260       1.004217       0.005072 0 -1 -1 
  2459745.8958150       0.999970       0.005072 0 -1 -1 
  2459745.8972040       1.000546       0.005078 0 -1 -1 
  2459745.8985930       0.998678       0.005074 0 -1 -1 
  2459745.8999810       1.001836       0.005075 0 -1 -1 
  2459745.9013700       0.993580       0.005072 0 -1 -1 
  2459745.9027590       0.993408       0.005069 0 -1 -1 
  2459745.9041480       0.998708       0.005076 0 -1 -1 
  2459745.9055370       0.990562       0.005063 0 -1 -1 
  2459745.9069260       0.989669       0.005064 0 -1 -1 
  2459745.9083150       1.003087       0.005078 0 -1 -1 
  2459745.9097040       0.998387       0.005077 0 -1 -1 
  2459745.9110930       0.989569       0.005070 0 -1 -1 
  2459745.9124810       0.997362       0.005072 0 -1 -1 
  2459745.9138700       0.989519       0.005075 0 -1 -1 
  2459745.9152590       0.994868       0.005071 0 -1 -1 
  2459745.9166480       1.001550       0.005076 0 -1 -1 
  2459745.9180370       0.990140       0.005074 0 -1 -1 
  2459745.9194260       1.004559       0.005074 0 -1 -1 
  2459745.9208150       1.010999       0.005086 0 -1 -1 
  2459745.9222040       0.992961       0.005069 0 -1 -1 
  2459745.9235930       0.997445       0.005072 0 -1 -1 
  2459745.9249810       0.996609       0.005076 0 -1 -1 
  2459745.9263700       0.989705       0.005069 0 -1 -1 
  2459745.9277590       1.008377       0.005078 0 -1 -1 
  2459745.9291480       1.001281       0.005084 0 -1 -1 
  2459745.9305370       0.993279       0.005070 0 -1 -1 
  2459745.9319260       1.001686       0.005076 0 -1 -1 
  2459745.9333150       1.001552       0.005079 0 -1 -1 
  2459745.9347040       1.001962       0.005082 0 -1 -1 
  2459745.9360930       1.010133       0.005081 0 -1 -1 
  2459745.9374810       1.009272       0.005082 0 -1 -1 
  2459745.9388700       1.003005       0.005076 0 -1 -1 
  2459745.9402590       1.004033       0.005079 0 -1 -1 
  2459745.9416480       1.001676       0.005076 0 -1 -1 
  2459745.9430370       1.012358       0.005084 0 -1 -1 
  2459745.9444260       0.998969       0.005074 0 -1 -1 
  2459745.9458150       1.000136       0.005077 0 -1 -1 
  2459745.9472040       0.999588       0.005077 0 -1 -1 
  2459745.9485920       0.994267       0.005070 0 -1 -1 
  2459745.9499810       0.993453       0.005069 0 -1 -1 
  2459745.9513700       0.994553       0.005071 0 -1 -1 
  2459745.9527590       1.001631       0.005076 0 -1 -1 
  2459745.9541480       0.999690       0.005073 0 -1 -1 
  2459745.9555370       1.002744       0.005077 0 -1 -1 
  2459745.9569260       0.999857       0.005071 0 -1 -1 
  2459745.9583150       1.000968       0.005075 0 -1 -1 
  2459745.9597040       1.007197       0.005075 0 -1 -1 
  2459745.9610920       1.005816       0.005075 0 -1 -1 
  2459745.9624810       0.999614       0.005075 0 -1 -1 
  2459745.9638700       0.993849       0.005069 0 -1 -1 
  2459745.9652590       0.998417       0.005071 0 -1 -1 
  2459745.9666480       0.998778       0.005068 0 -1 -1 
  2459745.9680370       1.000206       0.005073 0 -1 -1 
  2459745.9694260       0.998694       0.005072 0 -1 -1 
  2459745.9708150       1.004781       0.005075 0 -1 -1 
  2459745.9722040       0.991498       0.005069 0 -1 -1 
  2459745.9735920       1.002894       0.005072 0 -1 -1 
  2459745.9749810       0.998556       0.005066 0 -1 -1 
  2459745.9763700       1.003748       0.005073 0 -1 -1 
  2459745.9777590       1.007889       0.005075 0 -1 -1 
  2459745.9791480       0.998245       0.005069 0 -1 -1 
  2459745.9805370       0.999764       0.005069 0 -1 -1 
  2459745.9819260       1.002419       0.005071 0 -1 -1 
  2459745.9833150       0.998953       0.005064 0 -1 -1 
  2459745.9847040       0.976322       0.005067 0 -1 -1 
  2459745.9860920       0.998359       0.005064 0 -1 -1 
  2459745.9874810       0.999926       0.005063 0 -1 -1 
  2459745.9888700       1.000317       0.005069 0 -1 -1 
  2459745.9902590       0.993606       0.005058 0 -1 -1 
  2459745.9916480       0.995675       0.005066 0 -1 -1 
  2459745.9930370       0.997836       0.005066 0 -1 -1 
  2459745.9944260       1.000299       0.005065 0 -1 -1 
  2459745.9958150       0.999355       0.005069 0 -1 -1 
  2459745.9972040       0.994549       0.005060 0 -1 -1 
  2459745.9985920       1.009064       0.005069 0 -1 -1 
  2459745.9999810       0.994215       0.005059 0 -1 -1 
  2459746.0013700       0.998879       0.005060 0 -1 -1 
  2459746.0027590       0.991258       0.005055 0 -1 -1 
  2459746.0041480       0.991513       0.005053 0 -1 -1 
  2459746.0055370       0.996464       0.005059 0 -1 -1 
  2459746.0069260       1.009242       0.005067 0 -1 -1 
  2459746.0083150       1.004518       0.005067 0 -1 -1 
  2459746.0097030       1.000538       0.005056 0 -1 -1 
  2459746.0110920       0.996793       0.005055 0 -1 -1 
  2459746.0124810       1.001247       0.005051 0 -1 -1 
  2459746.0138700       1.002977       0.005057 0 -1 -1 
  2459746.0152590       1.004795       0.005062 0 -1 -1 
  2459746.0166480       0.998374       0.005052 0 -1 -1 
  2459746.0180370       0.997147       0.005062 0 -1 -1 
  2459746.0194260       1.005018       0.005059 0 -1 -1 
  2459746.0208150       0.998562       0.005054 0 -1 -1 
  2459746.0222030       0.997014       0.005058 0 -1 -1 
  2459746.0235920       0.999508       0.005058 0 -1 -1 
  2459746.0249810       0.995395       0.005051 0 -1 -1 
  2459746.0263700       1.000320       0.005055 0 -1 -1 
  2459746.0277590       1.002472       0.005060 0 -1 -1 
  2459746.0291480       0.998903       0.005051 0 -1 -1 
  2459746.0305370       1.004010       0.005053 0 -1 -1 
  2459746.0319260       1.004681       0.005058 0 -1 -1 
  2459746.0333150       0.997361       0.005053 0 -1 -1 
  2459746.0347030       0.999533       0.005058 0 -1 -1 
  2459746.0360920       1.000337       0.005052 0 -1 -1 
  2459746.0374810       1.004256       0.005056 0 -1 -1 
  2459746.0388700       0.999077       0.005049 0 -1 -1 
  2459746.0402590       0.998589       0.005048 0 -1 -1 
  2459746.0416480       0.991705       0.005046 0 -1 -1 
  2459746.0430370       1.002139       0.005051 0 -1 -1 
  2459746.0444260       0.999340       0.005049 0 -1 -1 
  2459746.0458150       0.999058       0.005051 0 -1 -1 
  2459746.0472030       0.999224       0.005050 0 -1 -1 
  2459746.0485920       0.994211       0.005042 0 -1 -1 
  2459746.0499810       1.001652       0.005047 0 -1 -1 
  2459746.0513700       1.001334       0.005050 0 -1 -1 
  2459746.0527590       1.001965       0.005052 0 -1 -1 
  2459746.0541480       1.001336       0.005045 0 -1 -1 
  2459746.0555370       0.999367       0.005045 0 -1 -1 
  2459746.0569260       0.993671       0.005039 0 -1 -1 
  2459746.0583150       1.005099       0.005051 0 -1 -1 
  2459746.0597030       1.003230       0.005050 0 -1 -1 
  2459746.0610920       0.998315       0.005043 0 -1 -1 
  2459746.0624810       1.006401       0.005049 0 -1 -1 
  2459746.0638700       1.000621       0.005044 0 -1 -1 
  2459746.0652590       0.998884       0.005042 0 -1 -1 
  2459746.0666480       1.006413       0.005047 0 -1 -1 
  2459746.0680370       1.002913       0.005049 0 -1 -1 
  2459746.0694260       0.996213       0.005041 0 -1 -1 
  2459746.0708140       0.996606       0.005040 0 -1 -1 
  2459746.0722030       1.001977       0.005045 0 -1 -1 
  2459746.0735920       1.004951       0.005048 0 -1 -1 
  2459746.0749810       0.993773       0.005040 0 -1 -1 
  2459746.0763700       0.998826       0.005048 0 -1 -1 
  2459746.0777590       0.994903       0.005039 0 -1 -1 
  2459746.0791480       0.998639       0.005040 0 -1 -1 
  2459746.0805370       1.002088       0.005044 0 -1 -1 
  2459746.0819260       0.990215       0.005053 0 -1 -1 
  2459746.0833140       1.006261       0.005044 0 -1 -1 
  2459746.0847030       0.993928       0.005035 0 -1 -1 
  2459746.0860920       1.008313       0.005046 0 -1 -1 
  2459746.0874810       0.998642       0.005044 0 -1 -1 
  2459746.0888700       1.007093       0.005048 0 -1 -1 
  2459746.0902590       0.998897       0.005042 0 -1 -1 
  2459746.0916480       1.009931       0.005048 0 -1 -1 
  2459746.0930370       0.999764       0.005041 0 -1 -1 
  2459746.0944260       0.997638       0.005046 0 -1 -1 
  2459746.0958140       1.005060       0.005048 0 -1 -1 
  2459746.0972030       1.001101       0.005051 0 -1 -1 
  2459746.0985920       1.001034       0.005045 0 -1 -1 
  2459746.0999810       0.997343       0.005041 0 -1 -1 
  2459746.1013700       0.993744       0.005042 0 -1 -1 
  2459746.1027590       0.992513       0.005039 0 -1 -1 
  2459746.1041480       1.005885       0.005045 0 -1 -1 
  2459746.1055370       0.997561       0.005040 0 -1 -1 
  2459746.1069260       1.001107       0.005048 0 -1 -1 
  2459746.1083140       0.998361       0.005043 0 -1 -1 
  2459746.1097030       1.000920       0.005045 0 -1 -1 
  2459746.1110920       0.995437       0.005041 0 -1 -1 
  2459746.1124810       0.998008       0.005039 0 -1 -1 
  2459746.1138700       0.996702       0.005042 0 -1 -1 
  2459746.1152590       0.993116       0.005040 0 -1 -1 
  2459746.1166480       1.005170       0.005051 0 -1 -1 
  2459746.1180370       0.995984       0.005043 0 -1 -1 
  2459746.1194260       0.995738       0.005044 0 -1 -1 
  2459746.1208140       1.000563       0.005044 0 -1 -1 
  2459746.1222030       0.999200       0.005047 0 -1 -1 
  2459746.1235920       1.011054       0.005054 0 -1 -1 
  2459746.1249810       1.006061       0.005050 0 -1 -1 
  2459746.1263700       0.999548       0.005045 0 -1 -1 
  2459746.1277590       0.995830       0.005043 0 -1 -1 
  2459746.1291480       1.008360       0.005057 0 -1 -1 
  2459746.1305370       1.000634       0.005047 0 -1 -1 
  2459746.1319260       1.002809       0.005049 0 -1 -1 
  2459746.1333140       1.002235       0.005050 0 -1 -1 
  2459746.1347030       0.994160       0.005043 0 -1 -1 
  2459746.1360920       1.006594       0.005050 0 -1 -1 
  2459746.1374810       0.993002       0.005046 0 -1 -1 
  2459746.1388700       0.995633       0.005044 0 -1 -1 
  2459746.1402590       1.000530       0.005049 0 -1 -1 
  2459746.1416480       0.996990       0.005047 0 -1 -1 
  2459746.1430370       1.003206       0.005056 0 -1 -1 
  2459746.1444250       1.002260       0.005055 0 -1 -1 
  2459746.1458140       0.997195       0.005050 0 -1 -1 
  2459746.1472030       0.996080       0.005047 0 -1 -1 
  2459746.1485920       0.996525       0.005048 0 -1 -1 
  2459746.1499810       1.002089       0.005049 0 -1 -1 
  2459746.1513700       1.001108       0.005054 0 -1 -1 
  2459746.1527590       0.997837       0.005047 0 -1 -1 
  2459746.1541480       1.006139       0.005056 0 -1 -1 
  2459746.1555370       0.996084       0.005048 0 -1 -1 
  2459746.1569250       1.002117       0.005054 0 -1 -1 
  2459746.1583140       1.010846       0.005064 0 -1 -1 
  2459746.1597030       1.000082       0.005056 0 -1 -1 
  2459746.1610920       1.000960       0.005059 0 -1 -1 
  2459746.1624810       1.006713       0.005058 0 -1 -1 
  2459746.1638700       1.000371       0.005057 0 -1 -1 
  2459746.1652590       0.993625       0.005047 0 -1 -1 
  2459746.1666480       1.003221       0.005057 0 -1 -1 
  2459746.1680370       0.989947       0.005049 0 -1 -1 
  2459746.1694250       1.002430       0.005058 0 -1 -1 
  2459746.1708140       1.006081       0.005065 0 -1 -1 
  2459746.1722030       0.998200       0.005055 0 -1 -1 
  2459746.1735920       0.994783       0.005058 0 -1 -1 
  2459746.1749810       1.004890       0.005059 0 -1 -1 
  2459746.1763700       1.000579       0.005057 0 -1 -1 
  2459746.1777590       0.999604       0.005058 0 -1 -1 
  2459746.1791480       1.001502       0.005058 0 -1 -1 
  2459746.1805370       1.007619       0.005061 0 -1 -1 
  2459746.1819250       0.994902       0.005053 0 -1 -1 
  2459746.1833140       0.999173       0.005052 0 -1 -1 
  2459746.1847030       0.997736       0.005051 0 -1 -1 
  2459746.1860920       1.003882       0.005063 0 -1 -1 
  2459746.1874810       1.005055       0.005056 0 -1 -1 
  2459746.1888700       0.999138       0.005054 0 -1 -1 
  2459746.1902590       0.999094       0.005055 0 -1 -1 
  2459746.1916480       1.004760       0.005055 0 -1 -1 
  2459746.1930370       0.999412       0.005059 0 -1 -1 
  2459746.1944250       0.999154       0.005052 0 -1 -1 
  2459746.1958140       0.996838       0.005052 0 -1 -1 
  2459746.1972030       0.999813       0.005055 0 -1 -1 
  2459746.1985920       1.004368       0.005056 0 -1 -1 
  2459746.1999810       0.993369       0.005048 0 -1 -1 
  2459746.2013700       1.001388       0.005057 0 -1 -1 
  2459746.2027590       0.994842       0.005045 0 -1 -1 
  2459746.2041480       0.989499       0.005044 0 -1 -1 
  2459746.2055370       0.988731       0.005045 0 -1 -1 
  2459746.2069250       0.984830       0.005038 0 -1 -1 
  2459746.2083140       0.979609       0.005034 0 -1 -1 
  2459746.2097030       0.981188       0.005044 0 -1 -1 
  2459746.2110920       0.981366       0.005036 0 -1 -1 
  2459746.2124810       0.979970       0.005036 0 -1 -1 
  2459746.2138700       0.989531       0.005042 0 -1 -1 
  2459746.2152590       0.982892       0.005039 0 -1 -1 
  2459746.2166480       0.977812       0.005029 0 -1 -1 
  2459746.2180360       0.970774       0.005021 0 -1 -1 
  2459746.2194250       0.979013       0.005032 0 -1 -1 
  2459746.2208140       0.986279       0.005031 0 -1 -1 
  2459746.2222030       0.987244       0.005033 0 -1 -1 
  2459746.2235920       0.971582       0.005023 0 -1 -1 
  2459746.2249810       0.979217       0.005023 0 -1 -1 
  2459746.2263700       0.988618       0.005031 0 -1 -1 
  2459746.2277590       0.981629       0.005026 0 -1 -1 
  2459746.2291480       0.981857       0.005023 0 -1 -1 
  2459746.2305360       0.985438       0.005024 0 -1 -1 
  2459746.2319250       0.979425       0.005024 0 -1 -1 
  2459746.2333140       0.987478       0.005028 0 -1 -1 
  2459746.2347030       0.976935       0.005017 0 -1 -1 
  2459746.2360920       0.976768       0.005013 0 -1 -1 
  2459746.2374810       0.981695       0.005019 0 -1 -1 
  2459746.2388700       0.965097       0.005007 0 -1 -1 
  2459746.2402590       0.975042       0.005010 0 -1 -1 
  2459746.2416480       0.979296       0.005011 0 -1 -1 
  2459746.2430360       0.977112       0.005008 0 -1 -1 
  2459746.2444250       0.977118       0.005004 0 -1 -1 
  2459746.2458140       0.976413       0.005007 0 -1 -1 
  2459746.2472030       0.984161       0.005011 0 -1 -1 
  2459746.2485920       0.973868       0.004998 0 -1 -1 
  2459746.2499810       0.972139       0.004997 0 -1 -1 
  2459746.2513700       0.974009       0.005001 0 -1 -1 
  2459746.2527590       0.983486       0.005001 0 -1 -1 
  2459746.2541480       0.983988       0.005003 0 -1 -1 
  2459746.2555360       0.995734       0.005008 0 -1 -1 
  2459746.2569250       0.984947       0.005000 0 -1 -1 
  2459746.2583140       0.980656       0.004997 0 -1 -1 
  2459746.2597030       0.994261       0.005008 0 -1 -1 
  2459746.2610920       0.986589       0.004997 0 -1 -1 
  2459746.2624810       0.997198       0.005006 0 -1 -1 
  2459746.2638700       0.995217       0.005000 0 -1 -1 
  2459746.2652590       0.996766       0.005004 0 -1 -1 
  2459746.2666480       1.002504       0.005007 0 -1 -1 
  2459746.2680360       1.003685       0.005006 0 -1 -1 
  2459746.2694250       0.994608       0.004995 0 -1 -1 
  2459746.2708140       0.992387       0.004993 0 -1 -1 
  2459746.2722030       0.999963       0.004995 0 -1 -1 
  2459746.2735920       0.997170       0.004991 0 -1 -1 
  2459746.2749810       0.995629       0.004989 0 -1 -1 
  2459746.2763700       1.005911       0.004996 0 -1 -1 
  2459746.2777590       1.003979       0.004989 0 -1 -1 
  2459746.2791470       0.991128       0.004982 0 -1 -1 
  2459746.2805360       1.005889       0.004989 0 -1 -1 
  2459746.2819250       0.999099       0.004975 0 -1 -1 
  2459746.2833140       0.994409       0.004974 0 -1 -1 
  2459746.2847030       0.999577       0.004981 0 -1 -1 
  2459746.2860920       0.993018       0.004975 0 -1 -1 
  2459746.2874810       1.001669       0.004975 0 -1 -1 
  2459746.2888700       1.001942       0.004975 0 -1 -1 
  2459746.2902590       0.996070       0.004971 0 -1 -1 
  2459746.2916470       1.005888       0.004975 0 -1 -1 
  2459746.2930360       0.995053       0.004973 0 -1 -1 
  2459746.2944250       0.996269       0.004974 0 -1 -1 
  2459746.2958140       1.000623       0.004965 0 -1 -1 
  2459746.2972030       1.002556       0.004968 0 -1 -1 
  2459746.2985920       0.991939       0.004959 0 -1 -1 
  2459746.2999810       1.004027       0.004965 0 -1 -1 
  2459746.3013700       1.004973       0.004967 0 -1 -1 
  2459746.3027590       1.005195       0.004965 0 -1 -1 
  2459746.3041470       1.005849       0.004964 0 -1 -1 
  2459746.3055360       0.992857       0.004953 0 -1 -1 
  2459746.3069250       0.996081       0.004952 0 -1 -1 
  2459746.3083140       0.997808       0.004953 0 -1 -1 
  2459746.3097030       1.000907       0.004954 0 -1 -1 
  2459746.3110920       1.001582       0.004949 0 -1 -1 
  2459746.3124810       0.997857       0.004950 0 -1 -1 
  2459746.3138700       0.998496       0.004942 0 -1 -1 
  2459746.3152590       1.008084       0.004952 0 -1 -1 
  2459746.3166470       0.997879       0.004945 0 -1 -1 
  2459746.3180360       1.000260       0.004945 0 -1 -1 
  2459746.3194250       0.995672       0.004934 0 -1 -1 
  2459746.3208140       0.998969       0.004938 0 -1 -1 
  2459746.3222030       1.002391       0.004937 0 -1 -1 
  2459746.3235920       1.000352       0.004937 0 -1 -1 
  2459746.3249810       1.005097       0.004939 0 -1 -1 
  2459746.3263700       1.008730       0.004938 0 -1 -1 
  2459746.3277590       1.003527       0.004935 0 -1 -1 
  2459746.3291470       1.001618       0.004933 0 -1 -1 
  2459746.3305360       1.000313       0.004926 0 -1 -1 
  2459746.3319250       1.002508       0.004924 0 -1 -1 
  2459746.3333140       0.999767       0.004924 0 -1 -1 
  2459746.3347030       1.001591       0.004934 0 -1 -1 
  2459746.3360920       1.003435       0.004924 0 -1 -1 
  2459746.3374810       0.994638       0.004925 0 -1 -1 
  2459746.3388700       1.003083       0.004927 0 -1 -1 
  2459746.3402590       1.005755       0.004929 0 -1 -1 
  2459746.3416470       0.998550       0.004916 0 -1 -1 
  2459746.3430360       1.007171       0.004928 0 -1 -1 
  2459746.3444250       0.992090       0.004913 0 -1 -1 
  2459746.3458140       0.995675       0.004918 0 -1 -1 
  2459746.3472030       1.004954       0.004921 0 -1 -1 
  2459746.3485920       0.999647       0.004912 0 -1 -1 
  2459746.3499810       1.004040       0.004917 0 -1 -1 
  2459746.3513700       1.004511       0.004915 0 -1 -1 
  2459746.3527580       0.999813       0.004913 0 -1 -1 
  2459746.3541470       0.995419       0.004908 0 -1 -1 
  2459746.3555360       0.996936       0.004910 0 -1 -1 
  2459746.3569250       1.002364       0.004913 0 -1 -1 
  2459746.3583140       0.998129       0.004911 0 -1 -1 
  2459746.3597030       1.001150       0.004909 0 -1 -1 
  2459746.3610920       1.000817       0.004909 0 -1 -1 
  2459746.3624810       1.007907       0.004912 0 -1 -1 
  2459746.3638700       1.005151       0.004911 0 -1 -1 
  2459746.3652580       1.007766       0.004910 0 -1 -1 
  2459746.3666470       0.995504       0.004898 0 -1 -1 
  2459746.3680360       1.003076       0.004909 0 -1 -1 
  2459746.3694250       1.006554       0.004910 0 -1 -1 
  2459746.3708140       0.994891       0.004901 0 -1 -1 
  2459746.3722030       0.994356       0.004902 0 -1 -1 
  2459746.3735920       1.003948       0.004908 0 -1 -1 
  2459746.3749810       0.996173       0.004898 0 -1 -1 
  2459746.3763700       0.998817       0.004901 0 -1 -1 
  2459746.3777580       1.005227       0.004908 0 -1 -1 
  2459746.3791470       1.005692       0.004908 0 -1 -1 
  2459746.3805360       1.000707       0.004902 0 -1 -1 
  2459746.3819250       1.001168       0.004904 0 -1 -1 
  2459746.3833140       1.001107       0.004900 0 -1 -1 
  2459746.3847030       1.002051       0.004903 0 -1 -1 
  2459746.3860920       0.999215       0.004901 0 -1 -1 
  2459746.3874810       1.002138       0.004901 0 -1 -1 
  2459746.3888700       0.990344       0.004896 0 -1 -1 
  2459746.3902580       0.996380       0.004900 0 -1 -1 
  2459746.3916470       1.005303       0.004906 0 -1 -1 
  2459746.3930360       1.005211       0.004909 0 -1 -1 
  2459746.3944250       1.000905       0.004907 0 -1 -1 
  2459746.3958140       1.000930       0.004902 0 -1 -1 
  2459746.3972030       1.001951       0.004904 0 -1 -1 
  2459746.3985920       0.999112       0.004904 0 -1 -1 
  2459746.3999810       0.993573       0.004897 0 -1 -1 
  2459746.4013700       0.992765       0.004898 0 -1 -1 
  2459746.4027580       0.999960       0.004906 0 -1 -1 
  2459746.4041470       1.000557       0.004906 0 -1 -1 
  2459746.4055360       1.001248       0.004905 0 -1 -1 
  2459746.4069250       1.002261       0.004899 0 -1 -1 
  2459746.4083140       0.997494       0.004900 0 -1 -1 
  2459746.4097030       0.994081       0.004905 0 -1 -1 
  2459746.4110920       1.002084       0.004905 0 -1 -1 
  2459746.4124810       0.998593       0.004904 0 -1 -1 
  2459746.4138700       1.001625       0.004908 0 -1 -1 
  2459746.4152580       1.006254       0.004908 0 -1 -1 
  2459746.4166470       1.001816       0.004905 0 -1 -1 
  2459746.4180360       0.998014       0.004907 0 -1 -1 
  2459746.4194250       1.000908       0.004911 0 -1 -1 
  2459746.4208140       1.006532       0.004920 0 -1 -1 
  2459746.4222030       1.001029       0.004908 0 -1 -1 
  2459746.4235920       0.995168       0.004909 0 -1 -1 
  2459746.4249810       0.998510       0.004913 0 -1 -1 
  2459746.4263690       1.003340       0.004917 0 -1 -1 
  2459746.4277580       0.999372       0.004912 0 -1 -1 
  2459746.4291470       0.998565       0.004915 0 -1 -1 
  2459746.4305360       1.000550       0.004914 0 -1 -1 
  2459746.4319250       0.997022       0.004914 0 -1 -1 
  2459746.4333140       0.998564       0.004915 0 -1 -1 
  2459746.4347030       1.001219       0.004916 0 -1 -1 
  2459746.4360920       1.000343       0.004919 0 -1 -1 
  2459746.4374810       1.000751       0.004921 0 -1 -1 
  2459746.4388690       0.999035       0.004919 0 -1 -1 
  2459746.4402580       0.998831       0.004919 0 -1 -1 
  2459746.4416470       0.998494       0.004923 0 -1 -1 
  2459746.4430360       1.003557       0.004928 0 -1 -1 
  2459746.4444250       1.000465       0.004925 0 -1 -1 
  2459746.4458140       1.004468       0.004930 0 -1 -1 
  2459746.4472030       1.004768       0.004928 0 -1 -1 
  2459746.4485920       0.997443       0.004922 0 -1 -1 
  2459746.4499810       1.004084       0.004930 0 -1 -1 
  2459746.4513690       0.998945       0.004928 0 -1 -1 
  2459746.4527580       1.003761       0.004933 0 -1 -1 
  2459746.4541470       0.997988       0.004928 0 -1 -1 
  2459746.4555360       0.990051       0.004928 0 -1 -1 
  2459746.4569250       0.997426       0.004936 0 -1 -1 
  2459746.4583140       0.999600       0.004934 0 -1 -1 
  2459746.4597030       1.004123       0.004942 0 -1 -1 
  2459746.4610920       1.002149       0.004938 0 -1 -1 
  2459746.4624810       0.999679       0.004941 0 -1 -1 
  2459746.4638690       0.998049       0.004946 0 -1 -1 
  2459746.4652580       0.998307       0.004945 0 -1 -1 
  2459746.4666470       0.993325       0.004944 0 -1 -1 
  2459746.4680360       1.001004       0.004947 0 -1 -1 
  2459746.4694250       0.995275       0.004944 0 -1 -1 
  2459746.4708140       1.006325       0.004958 0 -1 -1 
  2459746.4722030       0.995055       0.004949 0 -1 -1 
  2459746.4735920       1.004307       0.004959 0 -1 -1 
  2459746.4749810       0.996636       0.004953 0 -1 -1 
  2459746.4763690       0.993228       0.004955 0 -1 -1 
  2459746.4777580       1.002090       0.004962 0 -1 -1 
  2459746.4791470       1.002255       0.004968 0 -1 -1 
  2459746.4805360       1.000263       0.004966 0 -1 -1 
  2459746.4819250       0.997936       0.004965 0 -1 -1 
  2459746.4833140       1.000457       0.004962 0 -1 -1 
  2459746.4847030       0.998174       0.004966 0 -1 -1 
  2459746.4860920       1.011940       0.004986 0 -1 -1 
  2459746.4874810       1.001439       0.004973 0 -1 -1 
  2459746.4888690       0.999146       0.004979 0 -1 -1 
  2459746.4902580       0.997088       0.004973 0 -1 -1 
  2459746.4916470       0.986619       0.004969 0 -1 -1 
  2459746.4930360       0.997717       0.004974 0 -1 -1 
  2459746.4944250       1.003883       0.004989 0 -1 -1 
  2459746.4958140       0.984990       0.004973 0 -1 -1 
  2459746.4972030       0.996281       0.004983 0 -1 -1 
  2459746.4985920       1.004308       0.004994 0 -1 -1 
  2459746.4999800       1.005554       0.004994 0 -1 -1 
  2459746.5013690       0.996635       0.004993 0 -1 -1 
  2459746.5027580       1.000180       0.004994 0 -1 -1 
  2459746.5041470       0.989468       0.004992 0 -1 -1 
  2459746.5055360       0.997608       0.005002 0 -1 -1 
  2459746.5069250       0.999863       0.004997 0 -1 -1 
  2459746.5083140       1.006955       0.005007 0 -1 -1 
  2459746.5097030       0.994213       0.005004 0 -1 -1 
  2459746.5110920       0.999171       0.005007 0 -1 -1 
  2459746.5124800       1.001126       0.005012 0 -1 -1 
  2459746.5138690       1.009520       0.005017 0 -1 -1 
  2459746.5152580       0.989452       0.005008 0 -1 -1 
  2459746.5166470       0.999868       0.005017 0 -1 -1 
  2459746.5180360       1.000393       0.005017 0 -1 -1 
  2459746.5194250       0.992011       0.005020 0 -1 -1 
  2459746.5208140       1.002540       0.005028 0 -1 -1 
  2459746.5222030       0.986750       0.005015 0 -1 -1 
  2459746.5235920       0.998760       0.005028 0 -1 -1 
  2459746.5249800       0.996562       0.005031 0 -1 -1 
  2459746.5263690       1.001979       0.005034 0 -1 -1 
  2459746.5277580       1.003343       0.005034 0 -1 -1 
  2459746.5291470       1.000775       0.005037 0 -1 -1 
  2459746.5305360       1.007221       0.005046 0 -1 -1 
  2459746.5319250       1.006435       0.005048 0 -1 -1 
  2459746.5333140       1.007667       0.005050 0 -1 -1 
  2459746.5347030       0.998590       0.005047 0 -1 -1 
  2459746.5360920       1.000711       0.005049 0 -1 -1 
  2459746.5374800       1.004372       0.005062 0 -1 -1 
  2459746.5388690       1.002337       0.005057 0 -1 -1 
  2459746.5402580       1.000675       0.005059 0 -1 -1 
  2459746.5416470       1.000936       0.005060 0 -1 -1 
  2459746.5430360       0.997808       0.005056 0 -1 -1 
  2459746.5444250       1.003501       0.005067 0 -1 -1 
  2459746.5458140       1.001271       0.005070 0 -1 -1 
  2459746.5472030       0.998758       0.005067 0 -1 -1 
  2459746.5485920       0.996855       0.005074 0 -1 -1 
  2459746.5499800       0.995580       0.005072 0 -1 -1 
  2459746.5513690       0.999603       0.005079 0 -1 -1 
  2459746.5527580       1.006955       0.005086 0 -1 -1 
  2459746.5541470       1.001718       0.005083 0 -1 -1 
  2459746.5555360       1.002049       0.005087 0 -1 -1 
  2459746.5569250       1.005513       0.005093 0 -1 -1 
  2459746.5583140       1.011333       0.005102 0 -1 -1 
  2459746.5597030       0.997231       0.005090 0 -1 -1 
  2459746.5610920       1.003926       0.005098 0 -1 -1 
  2459746.5624800       1.001581       0.005101 0 -1 -1 
  2459746.5638690       1.000954       0.005101 0 -1 -1 
  2459746.5652580       1.001064       0.005099 0 -1 -1 
  2459746.5666470       1.001740       0.005112 0 -1 -1 
  2459746.5680360       1.005331       0.005112 0 -1 -1 
  2459746.5694250       0.995676       0.005111 0 -1 -1 
  2459746.5708140       0.995350       0.005111 0 -1 -1 
  2459746.5722030       1.002165       0.005116 0 -1 -1 
  2459746.5735910       0.994039       0.005122 0 -1 -1 
  2459746.5749800       1.000405       0.005120 0 -1 -1 
  2459746.5763690       0.998604       0.005124 0 -1 -1 
  2459746.5777580       0.999830       0.005127 0 -1 -1 
  2459746.5791470       1.002022       0.005134 0 -1 -1 
  2459746.5805360       1.000042       0.005132 0 -1 -1 
  2459746.5819250       1.001188       0.005132 0 -1 -1 
  2459746.5833140       1.003124       0.005140 0 -1 -1 
  2459746.5847030       0.990729       0.005134 0 -1 -1 
  2459746.5860910       1.000805       0.005141 0 -1 -1 
  2459746.5874800       1.003044       0.005145 0 -1 -1 
  2459746.5888690       1.009946       0.005151 0 -1 -1 
  2459746.5902580       1.008819       0.005148 0 -1 -1 
  2459746.5916470       1.004828       0.005151 0 -1 -1 
  2459746.5930360       1.001840       0.005156 0 -1 -1 
  2459746.5944250       1.007251       0.005161 0 -1 -1 
  2459746.5958140       1.002350       0.005158 0 -1 -1 
  2459746.5972030       0.990227       0.005150 0 -1 -1 
  2459746.5985910       1.003340       0.005160 0 -1 -1 
  2459746.5999800       1.003230       0.005162 0 -1 -1 
  2459746.6013690       0.993059       0.005156 0 -1 -1 
  2459746.6027580       1.001169       0.005169 0 -1 -1 
  2459746.6041470       1.004071       0.005171 0 -1 -1 
  2459746.6055360       1.009415       0.005175 0 -1 -1 
  2459746.6069250       1.005377       0.005179 0 -1 -1 
  2459746.6083140       1.007775       0.005174 0 -1 -1 
  2459746.6097030       1.003389       0.005173 0 -1 -1 
  2459746.6110910       1.003019       0.005174 0 -1 -1 
  2459746.6124800       1.000661       0.005176 0 -1 -1 
  2459746.6138690       0.995793       0.005175 0 -1 -1 
  2459746.6152580       1.000840       0.005183 0 -1 -1 
  2459746.6166470       0.995938       0.005178 0 -1 -1 
  2459746.6180360       1.007088       0.005188 0 -1 -1 
  2459746.6194250       0.994845       0.005182 0 -1 -1 
  2459746.6208140       1.002677       0.005187 0 -1 -1 
  2459746.6222030       0.995268       0.005182 0 -1 -1 
  2459746.6235910       0.996412       0.005187 0 -1 -1 
  2459746.6249800       1.006146       0.005192 0 -1 -1 
  2459746.6263690       0.991957       0.005190 0 -1 -1 
  2459746.6277580       0.999122       0.005190 0 -1 -1 
  2459746.6291470       1.003292       0.005196 0 -1 -1 
  2459746.6305360       1.002328       0.005195 0 -1 -1 
  2459746.6319250       1.004196       0.005202 0 -1 -1 
  2459746.6333140       0.994473       0.005194 0 -1 -1 
  2459746.6347030       1.005295       0.005204 0 -1 -1 
  2459746.6360910       0.997562       0.005198 0 -1 -1 
  2459746.6374800       0.998380       0.005202 0 -1 -1 
  2459746.6388690       1.001393       0.005204 0 -1 -1 
  2459746.6402580       1.005225       0.005206 0 -1 -1 
  2459746.6416470       1.000162       0.005199 0 -1 -1 
  2459746.6430360       1.000825       0.005206 0 -1 -1 
  2459746.6444250       1.003692       0.005207 0 -1 -1 
  2459746.6458140       1.001819       0.005204 0 -1 -1 
  2459746.6472020       1.001439       0.005206 0 -1 -1 
  2459746.6485910       1.007133       0.005212 0 -1 -1 
  2459746.6499800       0.999054       0.005211 0 -1 -1 
  2459746.6513690       0.999344       0.005206 0 -1 -1 
  2459746.6527580       1.006427       0.005218 0 -1 -1 
  2459746.6541470       1.001112       0.005218 0 -1 -1 
  2459746.6555360       1.005170       0.005216 0 -1 -1 
  2459746.6569250       0.997380       0.005209 0 -1 -1 
  2459746.6583140       0.999153       0.005211 0 -1 -1 
  2459746.6597020       0.994914       0.005211 0 -1 -1 
  2459746.6610910       0.989756       0.005207 0 -1 -1 
  2459746.6624800       0.999712       0.005216 0 -1 -1 
  2459746.6638690       0.998995       0.005217 0 -1 -1 
  2459746.6652580       1.002810       0.005221 0 -1 -1 
  2459746.6666470       0.997849       0.005217 0 -1 -1 
  2459746.6680360       1.004094       0.005218 0 -1 -1 
  2459746.6694250       0.995006       0.005217 0 -1 -1 
  2459746.6708140       0.993817       0.005219 0 -1 -1 
  2459746.6722020       0.998434       0.005215 0 -1 -1 
  2459746.6735910       1.000541       0.005224 0 -1 -1 
  2459746.6749800       0.999095       0.005226 0 -1 -1 
  2459746.6763690       0.994020       0.005219 0 -1 -1 
  2459746.6777580       1.000579       0.005225 0 -1 -1 
  2459746.6791470       1.003095       0.005224 0 -1 -1 
  2459746.6805360       1.000210       0.005226 0 -1 -1 
  2459746.6819250       0.994800       0.005223 0 -1 -1 
  2459746.6833140       1.007582       0.005224 0 -1 -1 
  2459746.6847020       1.002315       0.005223 0 -1 -1 
  2459746.6860910       0.993229       0.005217 0 -1 -1 
  2459746.6874800       1.003858       0.005228 0 -1 -1 
  2459746.6888690       0.999997       0.005221 0 -1 -1 
  2459746.6902580       0.998221       0.005219 0 -1 -1 
  2459746.6916470       0.996389       0.005221 0 -1 -1 
  2459746.6930360       0.997404       0.005224 0 -1 -1 
  2459746.6944250       0.994979       0.005225 0 -1 -1 
  2459746.6958140       0.999590       0.005226 0 -1 -1 
  2459746.6972020       1.003373       0.005228 0 -1 -1 
  2459746.6985910       0.999766       0.005229 0 -1 -1 
  2459746.6999800       0.998369       0.005226 0 -1 -1 
  2459746.7013690       1.002700       0.005229 0 -1 -1 
  2459746.7027580       0.995491       0.005222 0 -1 -1 
  2459746.7041470       1.004600       0.005226 0 -1 -1 
  2459746.7055360       1.001236       0.005226 0 -1 -1 
  2459746.7069250       0.997233       0.005225 0 -1 -1 
  2459746.7083140       0.997772       0.005225 0 -1 -1 
  2459746.7097020       1.002847       0.005229 0 -1 -1 
  2459746.7110910       1.001659       0.005225 0 -1 -1 
  2459746.7124800       1.006010       0.005224 0 -1 -1 
  2459746.7138690       0.987360       0.005218 0 -1 -1 
  2459746.7152580       1.005476       0.005230 0 -1 -1 
  2459746.7166470       1.003292       0.005229 0 -1 -1 
  2459746.7180360       1.002282       0.005227 0 -1 -1 
  2459746.7194250       1.005995       0.005229 0 -1 -1 
  2459746.7208130       0.990121       0.005224 0 -1 -1 
  2459746.7222020       1.004860       0.005233 0 -1 -1 
  2459746.7235910       1.004099       0.005229 0 -1 -1 
  2459746.7249800       0.996587       0.005223 0 -1 -1 
  2459746.7263690       0.993665       0.005221 0 -1 -1 
  2459746.7277580       1.001166       0.005226 0 -1 -1 
  2459746.7291470       1.002757       0.005228 0 -1 -1 
  2459746.7305360       1.000000       0.005220 0 -1 -1 
  2459746.7319250       1.000872       0.005228 0 -1 -1 
  2459746.7333130       1.000786       0.005221 0 -1 -1 
  2459746.7347020       0.993795       0.005222 0 -1 -1 
  2459746.7360910       0.998348       0.005228 0 -1 -1 
  2459746.7374800       1.003405       0.005231 0 -1 -1 
